/*!
 * The following copyright notice may not be removed under any circumstances.
 * 
 * Copyright:
 * Copyright © 1989, 1990, 2002 Adobe Systems Incorporated.  All Rights Reserved.
 * © 1981, 2002 Heidelberger Druckmaschinen AG. All rights reserved.
 * 
 * Trademark:
 * Trade Gothic is a trademark of Heidelberger Druckmaschinen AG, exclusively
 * licensed through Linotype Library GmbH, and may be registered in certain
 * jurisdictions.
 * 
 * Designer:
 * Jackson Burke
 * 
 * Vendor URL:
 * http://www.adobe.com/type
 * 
 * License information:
 * http://www.adobe.com/type/legal.html
 */
Cufon.registerFont({"w":500,"face":{"font-family":"Trade Gothic LT Std","font-weight":700,"font-stretch":"normal","units-per-em":"1000","panose-1":"0 0 8 0 0 0 0 0 0 0","ascent":"722","descent":"-278","x-height":"10","bbox":"-167 -971 1000 228","underline-thickness":"50","underline-position":"-50","stemh":"84","stemv":"126","unicode-range":"U+0020-U+FB02"},"glyphs":{" ":{"w":278},"!":{"d":"212,-722r-28,478r-90,0r-28,-478r146,0xm210,0r-142,0r0,-142r142,0r0,142","w":278},"\"":{"d":"199,-452r0,-270r110,0r0,270r-110,0xm24,-452r0,-270r110,0r0,270r-110,0","w":333},"#":{"d":"506,-300r0,94r-99,0r-29,206r-96,0r28,-206r-99,0r-29,206r-96,0r28,-206r-94,0r0,-94r107,0r18,-122r-94,0r0,-94r106,0r29,-206r96,0r-28,206r99,0r29,-206r96,0r-28,206r86,0r0,94r-98,0r-18,122r86,0xm341,-422r-99,0r-18,122r99,0","w":556},"$":{"d":"19,-127r86,-78v31,43,76,83,127,93r0,-206v-104,-30,-200,-98,-200,-211v0,-118,90,-188,200,-193r0,-64r78,0r0,64v84,14,144,55,190,106r-78,75v-29,-35,-65,-66,-112,-71r0,184v112,40,212,93,212,228v0,121,-95,197,-212,200r0,114r-78,0r0,-115v-69,0,-164,-60,-213,-126xm232,-450r0,-168v-46,1,-86,29,-86,79v0,44,42,76,86,89xm310,-295r0,185v52,0,90,-35,90,-86v0,-59,-43,-78,-90,-99","w":556},"%":{"d":"214,-722v101,0,180,82,180,180v0,98,-79,180,-180,180v-101,0,-180,-82,-180,-180v0,-98,79,-180,180,-180xm214,-624v-45,0,-82,39,-82,82v0,43,37,82,82,82v45,0,82,-39,82,-82v0,-43,-37,-82,-82,-82xm675,-360v101,0,180,82,180,180v0,98,-79,180,-180,180v-101,0,-180,-82,-180,-180v0,-98,79,-180,180,-180xm675,-262v-45,0,-82,39,-82,82v0,43,37,82,82,82v45,0,82,-39,82,-82v0,-43,-37,-82,-82,-82xm197,10r415,-742r85,0r-415,742r-85,0","w":889},"&":{"d":"274,-648v-40,0,-63,34,-63,78v0,42,17,74,41,114v38,-34,86,-67,86,-125v0,-31,-22,-67,-64,-67xm507,-363r111,31v-23,60,-49,121,-86,180v29,20,63,36,100,40r0,122v-69,0,-114,-16,-182,-74v-47,46,-110,74,-181,74v-139,0,-235,-68,-235,-200v0,-100,50,-153,122,-200v-38,-57,-59,-102,-59,-162v0,-124,87,-180,185,-180v98,0,170,72,170,163v0,93,-72,147,-139,200v39,53,82,102,129,147v26,-47,51,-91,65,-141xm172,-208v-3,117,140,129,196,64v-55,-48,-102,-100,-144,-154v-31,24,-52,48,-52,90","w":667},"'":{"d":"56,-452r0,-270r110,0r0,270r-110,0","w":222},"(":{"d":"304,84r-118,0v-81,-114,-136,-255,-136,-408v0,-153,55,-294,136,-408r118,0v-77,108,-144,233,-144,408v0,175,67,300,144,408","w":333},")":{"d":"147,84r-118,0v77,-108,144,-233,144,-408v0,-175,-67,-300,-144,-408r118,0v81,114,136,255,136,408v0,153,-55,294,-136,408","w":333},"*":{"d":"200,-722r100,0r-29,145r4,5r133,-68r26,89r-146,18r-2,6r106,104r-75,57r-64,-134r-6,0r-64,134r-75,-57r106,-104r-2,-6r-146,-18r26,-89r133,68r4,-5"},"+":{"d":"239,-333r0,-211r122,0r0,211r211,0r0,122r-211,0r0,211r-122,0r0,-211r-211,0r0,-122r211,0","w":600},",":{"d":"77,148r51,-148r-60,0r0,-142r142,0r0,142r-63,148r-70,0","w":278},"-":{"d":"289,-217r-246,0r0,-110r246,0r0,110","w":333},".":{"d":"210,0r-142,0r0,-142r142,0r0,142","w":278},"\/":{"d":"336,-732r-272,742r-122,0r272,-742r122,0","w":278},"0":{"d":"36,-240r0,-242v0,-154,86,-250,242,-250v156,0,242,96,242,250r0,242v0,154,-86,250,-242,250v-156,0,-242,-96,-242,-250xm168,-467r0,212v0,117,36,151,110,151v74,0,110,-34,110,-151r0,-212v0,-117,-36,-151,-110,-151v-74,0,-110,34,-110,151","w":556},"1":{"d":"235,0r0,-552r-111,0r0,-79v106,-21,124,-57,158,-101r79,0r0,732r-126,0","w":556},"2":{"d":"495,0r-455,0r0,-117v288,-274,334,-326,334,-402v0,-58,-32,-99,-96,-99v-77,0,-110,47,-103,121r-132,0r0,-34v0,-106,85,-201,225,-201v141,0,238,72,238,210v0,167,-195,296,-299,408r288,0r0,114","w":556},"3":{"d":"34,-212r132,0v0,74,33,108,107,108v68,0,105,-45,105,-107v0,-81,-46,-112,-146,-113r0,-114v93,0,129,-26,129,-93v0,-50,-33,-87,-93,-87v-49,0,-85,35,-87,84r-132,0v1,-133,99,-198,220,-198v130,0,224,68,224,196v0,63,-30,128,-87,157v77,30,104,93,104,174v0,143,-105,215,-235,215v-162,0,-241,-86,-241,-222","w":556},"4":{"d":"110,-292r207,0r0,-282r-2,0xm0,-306r306,-416r137,0r0,430r101,0r0,102r-101,0r0,190r-126,0r0,-190r-317,0r0,-116","w":556},"5":{"d":"35,-207r132,0v-3,67,38,103,103,103v86,0,112,-56,112,-157v0,-89,-30,-139,-105,-139v-45,0,-81,22,-106,56r-109,0r0,-378r417,0r0,114r-303,0r0,150v38,-27,78,-44,131,-44v154,0,207,96,207,244v0,167,-69,268,-242,268v-180,0,-237,-108,-237,-217","w":556},"6":{"d":"168,-295r0,40v0,117,36,151,110,151v69,0,104,-50,104,-133v0,-80,-43,-117,-104,-117v-42,0,-76,28,-110,59xm501,-533r-132,0v-2,-49,-42,-85,-91,-85v-74,0,-110,34,-110,151r0,67v45,-34,98,-56,155,-56v126,0,191,98,191,214v0,148,-72,252,-236,252v-156,0,-242,-96,-242,-250r0,-242v0,-154,86,-250,242,-250v125,0,213,69,223,199","w":556},"7":{"d":"30,-608r0,-114r456,0r0,66r-195,656r-144,0r200,-608r-317,0","w":556},"8":{"d":"388,-209v0,-67,-43,-111,-110,-111v-67,0,-110,44,-110,111v0,62,29,105,110,105v81,0,110,-43,110,-105xm370,-525v0,-51,-38,-93,-92,-93v-54,0,-92,42,-92,93v0,51,41,91,92,91v51,0,92,-40,92,-91xm520,-205v0,143,-105,215,-242,215v-137,0,-242,-72,-242,-215v0,-81,28,-144,105,-174v-57,-29,-87,-94,-87,-157v0,-134,99,-196,224,-196v125,0,224,62,224,196v0,63,-30,128,-87,157v77,30,105,93,105,174","w":556},"9":{"d":"388,-427r0,-40v0,-117,-36,-151,-110,-151v-69,0,-104,50,-104,133v0,80,43,117,104,117v42,0,76,-28,110,-59xm55,-189r132,0v2,49,42,85,91,85v74,0,110,-34,110,-151r0,-67v-45,34,-98,56,-155,56v-126,0,-191,-98,-191,-214v0,-148,72,-252,236,-252v156,0,242,96,242,250r0,242v0,154,-86,250,-242,250v-125,0,-213,-69,-223,-199","w":556},":":{"d":"210,0r-142,0r0,-142r142,0r0,142xm210,-300r-142,0r0,-142r142,0r0,142","w":278},";":{"d":"77,148r51,-148r-60,0r0,-142r142,0r0,142r-63,148r-70,0xm210,-300r-142,0r0,-142r142,0r0,142","w":278},"<":{"d":"572,-108r0,117r-544,-233r0,-96r544,-233r0,117r-389,164","w":600},"=":{"d":"572,-455r0,122r-544,0r0,-122r544,0xm572,-211r0,122r-544,0r0,-122r544,0","w":600},">":{"d":"28,9r0,-117r389,-164r-389,-164r0,-117r544,233r0,96","w":600},"?":{"d":"398,-562v0,89,-142,189,-144,272r0,50r-110,0r0,-98v0,-48,128,-176,128,-234v0,-34,-31,-58,-63,-58v-41,0,-81,44,-84,88r-115,-32v25,-99,99,-158,201,-158v95,0,187,59,187,170xm270,0r-142,0r0,-142r142,0r0,142","w":444},"@":{"d":"411,-452v-62,0,-107,60,-107,117v0,48,29,83,77,83v65,0,109,-59,109,-119v0,-48,-32,-81,-79,-81xm518,-492r12,-50r90,0r-50,244v-3,17,-18,58,8,58v46,0,101,-55,101,-162v0,-160,-113,-246,-265,-246v-167,0,-275,123,-275,288v0,175,121,286,291,286v77,0,147,-28,197,-70r92,0v-69,99,-174,154,-297,154v-211,0,-385,-156,-385,-370v0,-211,171,-372,380,-372v176,0,346,118,346,302v0,220,-191,288,-253,288v-28,0,-53,-18,-54,-52r-2,-1v-25,28,-64,53,-100,53v-86,0,-160,-82,-160,-176v0,-120,80,-236,205,-236v49,0,91,19,119,62","w":800},"A":{"d":"278,-566r-68,292r137,0r-67,-292r-2,0xm146,0r-133,0r179,-722r177,0r174,722r-132,0r-35,-152r-191,0","w":556},"B":{"d":"62,0r0,-722r194,0v148,0,233,62,233,186v0,63,-31,115,-89,150v76,48,106,88,106,178v0,143,-96,208,-242,208r-202,0xm200,-322r0,208r58,0v72,0,110,-42,110,-105v0,-69,-48,-103,-120,-103r-48,0xm200,-608r0,172r48,0v62,0,103,-36,103,-85v0,-53,-31,-87,-96,-87r-55,0","w":556},"C":{"d":"188,-508r0,294v0,80,35,102,90,102v55,0,90,-22,90,-102r0,-48r138,0r0,30v0,178,-94,242,-228,242v-134,0,-228,-64,-228,-242r0,-258v0,-178,94,-242,228,-242v135,0,229,65,228,244r-138,0r0,-20v0,-80,-35,-102,-90,-102v-55,0,-90,22,-90,102","w":556},"D":{"d":"62,0r0,-722r192,0v158,0,252,68,252,250r0,222v-6,182,-94,250,-252,250r-192,0xm200,-600r0,478v110,6,168,-14,168,-144r0,-190v0,-102,-34,-144,-120,-144r-48,0","w":556},"E":{"d":"450,0r-388,0r0,-722r378,0r0,122r-240,0r0,166r183,0r0,122r-183,0r0,190r250,0r0,122"},"F":{"d":"200,0r-138,0r0,-722r360,0r0,122r-222,0r0,166r174,0r0,122r-174,0r0,312","w":444},"G":{"d":"428,0r-21,-60v-37,42,-77,70,-129,70v-134,0,-228,-64,-228,-242r0,-258v0,-178,94,-242,228,-242v141,0,217,81,222,245r-138,0v0,-93,-34,-123,-84,-123v-55,0,-90,22,-90,102r0,294v0,80,35,102,90,102v52,0,84,-38,84,-100r0,-44r-97,0r0,-114r235,0r0,370r-72,0","w":556},"H":{"d":"208,0r-138,0r0,-722r138,0r0,288r195,0r0,-288r138,0r0,722r-138,0r0,-312r-195,0r0,312","w":611},"I":{"d":"208,0r-138,0r0,-722r138,0r0,722","w":278},"J":{"d":"125,-722r138,0r0,569v0,97,-65,163,-185,163v-30,0,-48,-1,-68,-3r0,-122v14,1,25,3,37,3v63,0,78,-17,78,-69r0,-541","w":333},"K":{"d":"200,0r-138,0r0,-722r138,0r0,298r2,0r179,-298r151,0r-186,291r207,431r-155,0r-144,-303r-54,82r0,221","w":556},"L":{"d":"422,0r-360,0r0,-722r138,0r0,600r222,0r0,122","w":444},"M":{"d":"188,0r-118,0r0,-722r193,0r125,474r2,0r125,-474r193,0r0,722r-118,0r0,-568r-2,0r-147,568r-104,0r-147,-568r-2,0r0,568","w":778},"N":{"d":"196,0r-126,0r0,-722r151,0r192,428r2,0r0,-428r126,0r0,722r-132,0r-211,-466r-2,0r0,466","w":611},"O":{"d":"50,-232r0,-258v0,-178,94,-242,228,-242v134,0,228,64,228,242r0,258v0,178,-94,242,-228,242v-134,0,-228,-64,-228,-242xm188,-508r0,294v0,80,35,102,90,102v55,0,90,-22,90,-102r0,-294v0,-80,-35,-102,-90,-102v-55,0,-90,22,-90,102","w":556},"P":{"d":"208,0r-138,0r0,-722r199,0v170,0,253,80,253,216v0,136,-83,216,-253,216r-61,0r0,290xm208,-608r0,204r74,0v68,0,102,-34,102,-102v0,-68,-34,-102,-102,-102r-74,0","w":556},"Q":{"d":"549,-67r0,120v-67,0,-111,-31,-145,-71v-36,20,-78,28,-126,28v-134,0,-228,-64,-228,-242r0,-258v0,-178,94,-242,228,-242v134,0,228,64,228,242r0,258v0,59,-10,105,-29,141v19,14,42,23,72,24xm269,-180r0,-120v45,6,74,32,97,66r2,0r0,-274v0,-80,-35,-102,-90,-102v-55,0,-90,22,-90,102r0,294v0,80,35,102,90,102v21,0,38,-3,52,-11v-19,-27,-38,-49,-61,-57","w":556},"R":{"d":"534,0r-148,0r-120,-294r-66,0r0,294r-138,0r0,-722r200,0v166,0,245,80,245,216v0,90,-32,155,-109,184xm200,-608r0,200r71,0v61,0,98,-30,98,-100v0,-70,-37,-100,-98,-100r-71,0","w":556},"S":{"d":"491,-557r-124,36v-23,-68,-53,-97,-101,-97v-49,0,-76,30,-76,79v0,109,308,117,308,343v0,124,-85,206,-230,206v-112,0,-199,-61,-236,-203r136,-29v16,87,66,118,107,118v48,0,85,-32,85,-86v0,-136,-308,-138,-308,-340v0,-124,74,-202,217,-202v123,0,198,73,222,175","w":556},"T":{"d":"20,-722r460,0r0,122r-161,0r0,600r-138,0r0,-600r-161,0r0,-122"},"U":{"d":"70,-722r138,0r0,505v0,69,30,105,97,105v67,0,98,-36,98,-105r0,-505r138,0r0,506v0,159,-94,226,-236,226v-142,0,-235,-67,-235,-226r0,-506","w":611},"V":{"d":"200,0r-185,-722r136,0r127,516r2,0r126,-516r135,0r-184,722r-157,0","w":556},"W":{"d":"174,0r-151,-722r128,0r97,472r2,0r99,-472r133,0r100,472r2,0r96,-472r129,0r-158,722r-133,0r-101,-494r-2,0r-109,494r-132,0","w":833},"X":{"d":"174,-722r104,216r104,-216r148,0r-175,342r192,380r-149,0r-120,-255r-120,255r-149,0r194,-380r-177,-342r148,0","w":556},"Y":{"d":"159,-722r121,291r117,-291r147,0r-197,430r0,292r-138,0r0,-292r-197,-430r147,0","w":556},"Z":{"d":"61,-600r0,-122r400,0r0,116r-273,484r279,0r0,122r-434,0r0,-117r273,-483r-245,0"},"[":{"d":"284,74r-234,0r0,-796r234,0r0,60r-124,0r0,676r124,0r0,60","w":333},"\\":{"d":"214,10r-272,-742r122,0r272,742r-122,0","w":278},"]":{"d":"49,-722r234,0r0,796r-234,0r0,-60r124,0r0,-676r-124,0r0,-60","w":333},"^":{"d":"169,-320r-117,0r194,-402r108,0r194,402r-119,0r-129,-282","w":600},"_":{"d":"500,125r-500,0r0,-50r500,0r0,50"},"`":{"d":"-24,-756r155,0r93,146r-101,0","w":278},"a":{"d":"48,-385v8,-113,90,-169,202,-169v134,0,185,68,185,165r0,345v0,15,3,30,7,44r-126,0v-3,-14,-5,-31,-9,-53v-37,37,-87,63,-150,63v-76,0,-125,-42,-125,-130v0,-126,120,-180,277,-227r0,-40v0,-47,-29,-65,-65,-65v-38,0,-70,28,-70,67r-126,0xm309,-134r0,-132v-75,26,-151,68,-151,125v0,36,22,57,56,57v38,0,65,-20,95,-50"},"b":{"d":"186,-421r0,298v25,27,48,39,76,39v34,0,62,-22,62,-130r0,-116v0,-108,-28,-130,-62,-130v-28,0,-51,12,-76,39xm176,0r-116,0r0,-722r126,0r0,228v60,-44,92,-60,126,-60v98,0,138,76,138,216r0,132v0,140,-40,216,-138,216v-56,0,-112,-42,-134,-76r-2,0r0,66"},"c":{"d":"449,-356r-125,0v6,-58,-20,-88,-74,-88v-44,0,-74,22,-74,64r0,216v0,42,30,64,74,64v44,0,74,-22,74,-64r0,-34r126,0v1,145,-73,208,-200,208v-126,0,-200,-62,-200,-206r0,-152v0,-144,74,-206,200,-206v123,0,197,60,199,198"},"d":{"d":"314,-123r0,-298v-25,-27,-48,-39,-76,-39v-34,0,-62,22,-62,130r0,116v0,108,28,130,62,130v28,0,51,-12,76,-39xm440,0r-116,0r0,-66r-2,0v-22,34,-78,76,-134,76v-98,0,-138,-76,-138,-216r0,-132v0,-140,40,-216,138,-216v34,0,66,16,126,60r0,-228r126,0r0,722"},"e":{"d":"450,-242r-274,0r0,72v0,54,32,78,74,78v53,0,74,-34,74,-76r126,0v-6,112,-73,178,-200,178v-120,0,-200,-74,-200,-193r0,-178v0,-119,80,-193,200,-193v117,0,200,74,200,185r0,127xm176,-344r148,0v4,-64,-11,-109,-74,-108v-62,0,-79,44,-74,108"},"f":{"d":"270,-726r0,104r-36,0v-52,-1,-43,53,-43,102r75,0r0,102r-75,0r0,418r-126,0r0,-418r-57,0r0,-102r57,0r0,-52v-2,-152,84,-173,205,-154","w":278},"g":{"d":"292,-347v0,-70,-22,-105,-66,-105v-48,0,-66,33,-66,118v0,68,22,102,60,102v54,0,72,-20,72,-115xm478,-554r0,110v-10,-2,-29,-8,-39,-8v-13,0,-26,7,-43,12v8,36,16,63,16,96v0,136,-58,214,-182,214v-18,0,-33,-1,-52,-7v-7,10,-22,19,-22,32v0,68,316,-37,316,160v0,93,-96,137,-242,137v-134,0,-208,-38,-208,-99v0,-41,46,-66,76,-85v-30,-18,-52,-42,-52,-77v0,-43,45,-72,76,-91v-61,-40,-82,-98,-82,-189v0,-117,45,-205,186,-205v52,0,110,24,142,63v32,-40,63,-63,110,-63xm306,36r-138,-12v-13,13,-26,24,-26,44v0,28,41,40,115,40v60,0,95,-15,95,-43v0,-18,-8,-26,-46,-29"},"h":{"d":"186,0r-126,0r0,-722r126,0r0,240v42,-40,85,-72,137,-72v77,0,117,39,117,140r0,414r-126,0r0,-400v0,-36,-12,-60,-46,-60v-26,0,-55,25,-82,49r0,411"},"i":{"d":"76,-544r126,0r0,544r-126,0r0,-544xm202,-638r-126,0r0,-114r126,0r0,114","w":278},"j":{"d":"76,-544r126,0r0,588v-2,121,-90,160,-200,145r0,-111v54,0,74,-16,74,-50r0,-572xm202,-638r-126,0r0,-114r126,0r0,114","w":278},"k":{"d":"192,0r-126,0r0,-722r126,0r0,389r2,0r134,-211r141,0r-125,184r136,360r-133,0r-92,-255r-63,89r0,166"},"l":{"d":"76,0r0,-722r126,0r0,722r-126,0","w":278},"m":{"d":"60,0r0,-544r122,0r0,62v41,-37,82,-72,135,-72v47,0,81,32,96,82v39,-43,79,-82,134,-82v76,0,115,46,115,144r0,410r-126,0r0,-414v0,-36,-13,-46,-33,-46v-24,0,-63,28,-79,49r0,411r-126,0r0,-414v-3,-89,-90,-29,-112,3r0,411r-126,0","w":722},"n":{"d":"186,0r-126,0r0,-544r122,0r0,62v46,-40,89,-72,141,-72v77,0,117,39,117,140r0,414r-126,0r0,-400v0,-36,-12,-60,-46,-60v-26,0,-55,25,-82,49r0,411"},"o":{"d":"50,-196r0,-152v0,-144,74,-206,200,-206v126,0,200,62,200,206r0,152v0,144,-74,206,-200,206v-126,0,-200,-62,-200,-206xm176,-380r0,216v0,42,30,64,74,64v44,0,74,-22,74,-64r0,-216v0,-42,-30,-64,-74,-64v-44,0,-74,22,-74,64"},"p":{"d":"186,-421r0,298v25,27,48,39,76,39v34,0,62,-22,62,-130r0,-116v0,-108,-28,-130,-62,-130v-28,0,-51,12,-76,39xm60,-544r116,0r0,66r2,0v22,-34,78,-76,134,-76v98,0,138,76,138,216r0,132v0,140,-40,216,-138,216v-34,0,-66,-16,-126,-60r0,242r-126,0r0,-736"},"q":{"d":"314,-123r0,-298v-25,-27,-48,-39,-76,-39v-34,0,-62,22,-62,130r0,116v0,108,28,130,62,130v28,0,51,-12,76,-39xm324,-544r116,0r0,736r-126,0r0,-242v-60,44,-92,60,-126,60v-98,0,-138,-76,-138,-216r0,-132v0,-140,40,-216,138,-216v56,0,112,42,134,76r2,0r0,-66"},"r":{"d":"186,0r-126,0r0,-544r123,0r0,72r2,0v29,-54,67,-82,130,-82r0,136v-21,-6,-45,-14,-67,-14v-41,0,-62,31,-62,60r0,372","w":333},"s":{"d":"404,-418r-104,40v-17,-50,-49,-74,-87,-74v-29,0,-51,21,-51,49v0,84,246,86,246,248v0,108,-76,165,-181,165v-76,0,-144,-19,-205,-155r113,-31v11,51,42,84,92,84v38,0,61,-18,61,-48v0,-104,-246,-79,-246,-262v0,-103,83,-152,172,-152v94,0,159,54,190,136","w":444},"t":{"d":"56,-418r-50,0r0,-102r50,0r0,-148r126,0r0,148r81,0r0,102r-81,0r0,278v-2,35,42,44,82,39r0,106v-24,4,-48,5,-72,5v-82,0,-136,-30,-136,-108r0,-320","w":278},"u":{"d":"314,-544r126,0r0,544r-122,0r0,-62v-46,40,-89,72,-141,72v-77,0,-117,-39,-117,-140r0,-414r126,0r0,400v0,36,12,60,46,60v26,0,55,-25,82,-49r0,-411"},"v":{"d":"138,-544r83,350r2,0r83,-350r126,0r-148,544r-124,0r-148,-544r126,0","w":444},"w":{"d":"143,0r-130,-544r118,0r73,340r2,0r73,-340r108,0r77,340r2,0r69,-340r118,0r-128,544r-118,0r-77,-340r-2,0r-67,340r-118,0","w":667},"x":{"d":"155,-280r-138,-264r134,0r71,156r73,-156r134,0r-138,265r147,279r-134,0r-82,-176r-82,176r-134,0","w":444},"y":{"d":"32,190r0,-110v12,2,24,2,37,2v55,0,91,-48,91,-72v0,-32,-10,-69,-23,-115r-126,-439r128,0r85,360r2,0r79,-360r128,0r-145,542v-42,162,-102,203,-256,192","w":444},"z":{"d":"51,-434r0,-110r362,0r0,108r-231,326r231,0r0,110r-382,0r0,-108r227,-326r-207,0","w":444},"{":{"d":"261,-732r0,60v-53,-3,-84,3,-84,61r0,194v0,57,-31,83,-79,91r0,2v48,8,79,34,79,91r0,196v-1,58,31,64,84,61r0,60r-79,0v-55,0,-115,-37,-115,-119r0,-197v0,-50,-31,-63,-71,-63r0,-60v40,0,71,-13,71,-63r0,-195v0,-82,60,-119,115,-119r79,0","w":333},"|":{"d":"50,10r0,-742r122,0r0,742r-122,0","w":222},"}":{"d":"72,84r0,-60v53,3,84,-3,84,-61r0,-194v0,-57,31,-83,79,-91r0,-2v-48,-8,-79,-34,-79,-91r0,-196v1,-58,-31,-64,-84,-61r0,-60r79,0v55,0,115,37,115,119r0,197v0,50,31,63,71,63r0,60v-40,0,-71,13,-71,63r0,195v0,82,-60,119,-115,119r-79,0","w":333},"~":{"d":"414,-179v-91,0,-138,-73,-238,-73v-42,0,-68,40,-85,77r-39,-96v24,-46,63,-93,135,-93v75,0,174,73,234,73v38,0,64,-40,89,-78r38,98v-31,45,-67,92,-134,92","w":600},"\u00a0":{"w":278},"\u00a1":{"d":"212,178r-146,0r28,-478r90,0xm68,-544r142,0r0,142r-142,0r0,-142","w":278},"\u00a2":{"d":"193,-135r77,-309v-53,-1,-84,21,-84,64r0,216v0,10,2,20,7,29xm479,-356r-125,0v1,-28,0,-50,-16,-64r-82,319v57,6,101,-18,98,-63r0,-34r126,0v3,157,-91,219,-246,206r-36,132r-89,0r42,-154v-58,-31,-91,-90,-91,-182r0,-152v-2,-155,90,-217,239,-204r34,-124r89,0r-39,144v61,26,95,84,96,176","w":556},"\u00a3":{"d":"112,-318r-96,0r0,-88r83,0v-8,-43,-15,-89,-15,-131v0,-129,95,-195,204,-195v162,0,233,81,233,214r-126,0v-5,-62,-27,-104,-95,-104v-52,0,-84,36,-84,90v0,45,8,86,15,126r132,0r0,88r-120,0v0,26,-6,126,-25,170v37,24,74,44,124,44v50,0,67,-41,71,-114r120,0v0,118,-30,228,-181,228v-68,0,-100,-10,-188,-65v-52,46,-84,65,-141,65r0,-122v74,2,102,-108,89,-206","w":556},"\u00a4":{"d":"537,-160r-58,58r-57,-58v-63,64,-225,65,-288,0r-57,58r-58,-58r56,-56v-59,-69,-60,-221,0,-290r-56,-56r58,-58r57,58v63,-64,225,-65,288,0r57,-58r58,58r-56,56v59,69,60,221,0,290xm414,-361v0,-82,-51,-148,-136,-148v-85,0,-136,66,-136,148v0,82,51,148,136,148v85,0,136,-66,136,-148","w":556},"\u00a5":{"d":"499,-452r0,88r-126,0r-32,72r158,0r0,88r-162,0r0,204r-118,0r0,-204r-162,0r0,-88r158,0r-32,-72r-126,0r0,-88r86,0r-125,-270r122,0r140,322r136,-322r122,0r-125,270r86,0","w":556},"\u00a6":{"d":"50,10r0,-284r122,0r0,284r-122,0xm50,-448r0,-284r122,0r0,284r-122,0","w":222},"\u00a7":{"d":"402,-652r-68,54v-21,-25,-47,-50,-82,-50v-27,0,-47,18,-47,42v0,78,243,196,243,331v0,66,-48,103,-109,114v30,32,52,72,52,117v0,83,-68,128,-144,128v-85,0,-120,-37,-161,-85r68,-53v14,28,46,54,90,54v27,0,51,-18,51,-48v0,-84,-243,-220,-243,-326v0,-90,42,-120,104,-130v-30,-36,-47,-65,-47,-112v0,-64,57,-116,134,-116v69,0,115,25,159,80xm352,-271v0,-17,-13,-34,-67,-92v-46,-50,-81,-75,-98,-75v-20,0,-38,15,-39,37v0,19,12,42,62,94v54,57,85,80,103,80v25,0,39,-20,39,-44"},"\u00a8":{"d":"-16,-732r120,0r0,114r-120,0r0,-114xm174,-732r120,0r0,114r-120,0r0,-114","w":278},"\u00a9":{"d":"400,10v-200,0,-383,-138,-383,-371v0,-233,183,-371,383,-371v200,0,383,138,383,371v0,233,-183,371,-383,371xm669,-361v0,-168,-122,-283,-269,-283v-150,0,-269,115,-269,283v0,168,119,283,269,283v147,0,269,-115,269,-283xm504,-305r90,0v-16,102,-93,157,-179,157v-126,0,-207,-94,-207,-216v0,-124,77,-216,205,-216v89,0,161,52,177,152r-86,0v-9,-46,-48,-64,-91,-64v-65,0,-101,49,-101,126v0,74,41,130,103,130v49,0,84,-21,89,-69","w":800},"\u00aa":{"d":"16,-627v4,-75,63,-105,135,-105v88,0,121,40,121,99r0,207v0,9,2,18,4,26r-86,0v-2,-8,-3,-19,-5,-32v-20,22,-53,38,-94,38v-49,0,-81,-25,-81,-78v0,-76,78,-110,172,-138v2,-31,-1,-53,-34,-52v-25,0,-42,16,-42,35r-90,0xm182,-490r0,-58v-41,16,-82,33,-82,63v0,18,14,25,28,25v25,0,42,-12,54,-30","w":300},"\u00ab":{"d":"386,-112r-122,-160r122,-160r110,0r-122,160r122,160r-110,0xm182,-112r-122,-160r122,-160r110,0r-122,160r122,160r-110,0","w":556},"\u00ac":{"d":"450,-89r0,-244r-422,0r0,-122r544,0r0,366r-122,0","w":600},"\u00ad":{"d":"289,-217r-246,0r0,-110r246,0r0,110","w":333},"\u00ae":{"d":"337,-325r0,167r-88,0r0,-407r153,0v106,0,167,30,167,123v0,75,-44,104,-101,108r94,176r-97,0r-87,-167r-41,0xm337,-493r0,96r77,0v49,0,63,-13,63,-54v0,-31,-18,-42,-78,-42r-62,0xm400,10v-200,0,-383,-138,-383,-371v0,-233,183,-371,383,-371v200,0,383,138,383,371v0,233,-183,371,-383,371xm669,-361v0,-168,-122,-283,-269,-283v-150,0,-269,115,-269,283v0,168,119,283,269,283v147,0,269,-115,269,-283","w":800},"\u00af":{"d":"313,-640r-348,0r0,-74r348,0r0,74","w":278},"\u00b0":{"d":"200,-502v48,0,82,-39,82,-87v0,-48,-34,-87,-82,-87v-48,0,-82,39,-82,87v0,48,34,87,82,87xm200,-446v-81,0,-144,-63,-144,-143v0,-80,63,-143,144,-143v81,0,144,63,144,143v0,80,-63,143,-144,143","w":400},"\u00b1":{"d":"239,-410r0,-134r122,0r0,134r211,0r0,122r-211,0r0,134r-122,0r0,-134r-211,0r0,-122r211,0xm28,0r0,-122r544,0r0,122r-544,0","w":600},"\u00b2":{"d":"311,-292r-296,0r0,-75v183,-161,213,-192,213,-237v0,-29,-17,-54,-58,-54v-51,0,-66,26,-63,67r-90,0r0,-21v0,-63,55,-120,146,-120v92,0,155,43,155,126v0,100,-119,177,-186,240r179,0r0,74","w":333},"\u00b3":{"d":"20,-609v1,-83,62,-123,143,-123v84,0,145,41,145,117v0,38,-19,77,-56,95v50,18,68,55,68,104v0,86,-69,130,-153,130v-106,0,-157,-53,-157,-134r90,0v0,42,19,60,65,60v41,0,65,-24,65,-60v0,-48,-30,-64,-91,-64r0,-74v55,0,79,-13,79,-54v0,-24,-21,-46,-56,-46v-30,0,-51,21,-52,49r-90,0","w":333},"\u00b4":{"d":"147,-756r155,0r-147,146r-101,0","w":278},"\u00b5":{"d":"314,-544r126,0r0,544r-122,0r0,-62v-43,37,-83,68,-132,72r0,182r-126,0r0,-736r126,0r0,400v0,36,12,60,46,60v26,0,55,-25,82,-49r0,-411"},"\u00b6":{"d":"190,84r0,-454v-112,0,-180,-66,-180,-173v0,-119,62,-179,214,-179r322,0r0,84r-68,0r0,722r-110,0r0,-722r-68,0r0,722r-110,0","w":556},"\u00b7":{"d":"139,-348v45,0,76,37,76,76v0,39,-31,76,-76,76v-45,0,-76,-37,-76,-76v0,-39,31,-76,76,-76","w":278},"\u00b8":{"d":"2,203r19,-42v24,8,50,17,75,17v24,0,56,-10,56,-39v0,-41,-52,-42,-86,-29r-21,-20r59,-90r53,0r-42,61r2,2v54,-23,121,14,121,71v0,68,-69,94,-127,94v-38,0,-74,-11,-109,-25","w":278},"\u00b9":{"d":"143,-292r0,-330r-67,0r0,-54v62,-12,77,-30,95,-56r62,0r0,440r-90,0","w":333},"\u00ba":{"d":"20,-518r0,-91v0,-86,48,-123,130,-123v81,0,130,37,130,123r0,91v0,87,-49,124,-130,124v-82,0,-130,-37,-130,-124xm110,-620r0,114v0,25,11,38,40,38v28,0,40,-13,40,-38r0,-114v0,-25,-12,-38,-40,-38v-29,0,-40,13,-40,38","w":300},"\u00bb":{"d":"292,-272r-122,160r-110,0r122,-160r-122,-160r110,0xm496,-272r-122,160r-110,0r122,-160r-122,-160r110,0","w":556},"\u00bc":{"d":"540,-184r102,0r0,-131r-2,0xm444,-184r199,-249r89,0r0,249r66,0r0,70r-66,0r0,114r-90,0r0,-114r-198,0r0,-70xm147,-292r0,-330r-67,0r0,-54v62,-12,77,-30,95,-56r62,0r0,440r-90,0xm153,10r405,-742r96,0r-405,742r-96,0","w":834},"\u00bd":{"d":"147,-292r0,-330r-67,0r0,-54v62,-12,77,-30,95,-56r62,0r0,440r-90,0xm791,0r-296,0r0,-75v183,-161,213,-192,213,-237v0,-29,-17,-54,-58,-54v-51,0,-66,26,-63,67r-90,0r0,-21v0,-63,55,-120,146,-120v92,0,155,43,155,126v0,100,-119,177,-186,240r179,0r0,74xm135,10r405,-742r96,0r-405,742r-96,0","w":834},"\u00be":{"d":"540,-184r102,0r0,-131r-2,0xm444,-184r199,-249r89,0r0,249r66,0r0,70r-66,0r0,114r-90,0r0,-114r-198,0r0,-70xm46,-609v1,-83,62,-123,143,-123v84,0,145,41,145,117v0,38,-19,77,-56,95v50,18,68,55,68,104v0,86,-69,130,-153,130v-106,0,-157,-53,-157,-134r90,0v0,42,19,60,65,60v41,0,65,-24,65,-60v0,-48,-30,-64,-91,-64r0,-74v55,0,79,-13,79,-54v0,-24,-21,-46,-56,-46v-30,0,-51,21,-52,49r-90,0xm173,10r405,-742r96,0r-405,742r-96,0","w":834},"\u00bf":{"d":"46,18v0,-89,142,-189,144,-272r0,-50r110,0r0,98v0,48,-128,176,-128,234v0,34,31,58,63,58v41,0,81,-44,84,-88r115,32v-25,99,-99,158,-201,158v-95,0,-187,-59,-187,-170xm174,-544r142,0r0,142r-142,0r0,-142","w":444},"\u00c0":{"d":"278,-566r-68,292r137,0r-67,-292r-2,0xm146,0r-133,0r179,-722r177,0r174,722r-132,0r-35,-152r-191,0xm115,-909r155,0r93,146r-101,0","w":556},"\u00c1":{"d":"278,-566r-68,292r137,0r-67,-292r-2,0xm146,0r-133,0r179,-722r177,0r174,722r-132,0r-35,-152r-191,0xm286,-909r155,0r-147,146r-101,0","w":556},"\u00c2":{"d":"278,-566r-68,292r137,0r-67,-292r-2,0xm146,0r-133,0r179,-722r177,0r174,722r-132,0r-35,-152r-191,0xm215,-909r126,0r114,146r-113,0r-64,-82r-64,82r-113,0","w":556},"\u00c3":{"d":"278,-566r-68,292r137,0r-67,-292r-2,0xm146,0r-133,0r179,-722r177,0r174,722r-132,0r-35,-152r-191,0xm396,-897r65,0v-13,63,-39,121,-111,121v-54,0,-102,-35,-147,-35v-25,0,-40,19,-45,42r-63,0v10,-63,44,-122,115,-122v53,0,107,37,139,37v24,0,42,-19,47,-43","w":556},"\u00c4":{"d":"278,-566r-68,292r137,0r-67,-292r-2,0xm146,0r-133,0r179,-722r177,0r174,722r-132,0r-35,-152r-191,0xm123,-885r120,0r0,114r-120,0r0,-114xm313,-885r120,0r0,114r-120,0r0,-114","w":556},"\u00c5":{"d":"278,-566r-68,292r137,0r-67,-292r-2,0xm146,0r-133,0r179,-722r177,0r174,722r-132,0r-35,-152r-191,0xm277,-757v-59,0,-106,-48,-106,-107v0,-58,47,-107,106,-107v58,0,108,49,108,107v0,59,-50,107,-108,107xm277,-917v-30,0,-52,24,-52,53v0,30,22,53,52,53v29,0,54,-23,54,-53v0,-29,-25,-53,-54,-53","w":556},"\u00c6":{"d":"466,-612r-156,314r174,0r0,-314r-18,0xm162,0r-148,0r370,-722r532,0r0,122r-294,0r0,166r221,0r0,122r-221,0r0,190r306,0r0,122r-444,0r0,-176r-236,0","w":1000},"\u00c7":{"d":"188,-508r0,294v0,80,35,102,90,102v55,0,90,-22,90,-102r0,-48r138,0r0,30v0,173,-89,238,-217,242r-35,51r2,2v54,-23,121,14,121,71v0,68,-69,94,-127,94v-38,0,-74,-11,-109,-25r19,-42v24,8,50,17,75,17v24,0,56,-10,56,-39v0,-41,-52,-42,-86,-29r-21,-20r54,-82v-112,-12,-188,-80,-188,-240r0,-258v0,-178,94,-242,228,-242v135,0,229,65,228,244r-138,0r0,-20v0,-80,-35,-102,-90,-102v-55,0,-90,22,-90,102","w":556},"\u00c8":{"d":"450,0r-388,0r0,-722r378,0r0,122r-240,0r0,166r183,0r0,122r-183,0r0,190r250,0r0,122xm87,-909r155,0r93,146r-101,0"},"\u00c9":{"d":"450,0r-388,0r0,-722r378,0r0,122r-240,0r0,166r183,0r0,122r-183,0r0,190r250,0r0,122xm258,-909r155,0r-147,146r-101,0"},"\u00ca":{"d":"450,0r-388,0r0,-722r378,0r0,122r-240,0r0,166r183,0r0,122r-183,0r0,190r250,0r0,122xm187,-909r126,0r114,146r-113,0r-64,-82r-64,82r-113,0"},"\u00cb":{"d":"450,0r-388,0r0,-722r378,0r0,122r-240,0r0,166r183,0r0,122r-183,0r0,190r250,0r0,122xm95,-885r120,0r0,114r-120,0r0,-114xm285,-885r120,0r0,114r-120,0r0,-114"},"\u00cc":{"d":"208,0r-138,0r0,-722r138,0r0,722xm-24,-909r155,0r93,146r-101,0","w":278},"\u00cd":{"d":"208,0r-138,0r0,-722r138,0r0,722xm147,-909r155,0r-147,146r-101,0","w":278},"\u00ce":{"d":"208,0r-138,0r0,-722r138,0r0,722xm76,-909r126,0r114,146r-113,0r-64,-82r-64,82r-113,0","w":278},"\u00cf":{"d":"208,0r-138,0r0,-722r138,0r0,722xm-16,-885r120,0r0,114r-120,0r0,-114xm174,-885r120,0r0,114r-120,0r0,-114","w":278},"\u00d0":{"d":"8,-312r0,-122r54,0r0,-288r192,0v158,0,252,68,252,250r0,222v-6,182,-94,250,-252,250r-192,0r0,-312r-54,0xm288,-434r0,122r-88,0r0,190v110,6,168,-14,168,-144r0,-190v0,-102,-34,-144,-120,-144r-48,0r0,166r88,0","w":556},"\u00d1":{"d":"196,0r-126,0r0,-722r151,0r192,428r2,0r0,-428r126,0r0,722r-132,0r-211,-466r-2,0r0,466xm424,-897r65,0v-13,63,-39,121,-111,121v-54,0,-102,-35,-147,-35v-25,0,-40,19,-45,42r-63,0v10,-63,44,-122,115,-122v53,0,107,37,139,37v24,0,42,-19,47,-43","w":611},"\u00d2":{"d":"50,-232r0,-258v0,-178,94,-242,228,-242v134,0,228,64,228,242r0,258v0,178,-94,242,-228,242v-134,0,-228,-64,-228,-242xm188,-508r0,294v0,80,35,102,90,102v55,0,90,-22,90,-102r0,-294v0,-80,-35,-102,-90,-102v-55,0,-90,22,-90,102xm115,-909r155,0r93,146r-101,0","w":556},"\u00d3":{"d":"50,-232r0,-258v0,-178,94,-242,228,-242v134,0,228,64,228,242r0,258v0,178,-94,242,-228,242v-134,0,-228,-64,-228,-242xm188,-508r0,294v0,80,35,102,90,102v55,0,90,-22,90,-102r0,-294v0,-80,-35,-102,-90,-102v-55,0,-90,22,-90,102xm286,-909r155,0r-147,146r-101,0","w":556},"\u00d4":{"d":"50,-232r0,-258v0,-178,94,-242,228,-242v134,0,228,64,228,242r0,258v0,178,-94,242,-228,242v-134,0,-228,-64,-228,-242xm188,-508r0,294v0,80,35,102,90,102v55,0,90,-22,90,-102r0,-294v0,-80,-35,-102,-90,-102v-55,0,-90,22,-90,102xm215,-909r126,0r114,146r-113,0r-64,-82r-64,82r-113,0","w":556},"\u00d5":{"d":"50,-232r0,-258v0,-178,94,-242,228,-242v134,0,228,64,228,242r0,258v0,178,-94,242,-228,242v-134,0,-228,-64,-228,-242xm188,-508r0,294v0,80,35,102,90,102v55,0,90,-22,90,-102r0,-294v0,-80,-35,-102,-90,-102v-55,0,-90,22,-90,102xm396,-897r65,0v-13,63,-39,121,-111,121v-54,0,-102,-35,-147,-35v-25,0,-40,19,-45,42r-63,0v10,-63,44,-122,115,-122v53,0,107,37,139,37v24,0,42,-19,47,-43","w":556},"\u00d6":{"d":"50,-232r0,-258v0,-178,94,-242,228,-242v134,0,228,64,228,242r0,258v0,178,-94,242,-228,242v-134,0,-228,-64,-228,-242xm188,-508r0,294v0,80,35,102,90,102v55,0,90,-22,90,-102r0,-294v0,-80,-35,-102,-90,-102v-55,0,-90,22,-90,102xm123,-885r120,0r0,114r-120,0r0,-114xm313,-885r120,0r0,114r-120,0r0,-114","w":556},"\u00d7":{"d":"214,-272r-186,-187r87,-85r185,185r186,-185r86,85r-186,187r186,186r-86,86r-186,-186r-185,186r-87,-86","w":600},"\u00d8":{"d":"190,-262r162,-316v-15,-24,-41,-32,-74,-32v-55,0,-90,22,-90,102r0,246r2,0xm366,-433r-154,299v14,16,38,22,66,22v55,0,90,-22,90,-102r0,-219r-2,0xm446,-770r104,0r-73,140v19,36,29,82,29,140r0,258v0,178,-94,242,-228,242v-45,0,-86,-7,-120,-25r-48,93r-104,0r81,-156v-24,-37,-37,-87,-37,-154r0,-258v0,-178,94,-242,228,-242v50,0,95,9,132,30","w":556},"\u00d9":{"d":"70,-722r138,0r0,505v0,69,30,105,97,105v67,0,98,-36,98,-105r0,-505r138,0r0,506v0,159,-94,226,-236,226v-142,0,-235,-67,-235,-226r0,-506xm143,-909r155,0r93,146r-101,0","w":611},"\u00da":{"d":"70,-722r138,0r0,505v0,69,30,105,97,105v67,0,98,-36,98,-105r0,-505r138,0r0,506v0,159,-94,226,-236,226v-142,0,-235,-67,-235,-226r0,-506xm314,-909r155,0r-147,146r-101,0","w":611},"\u00db":{"d":"70,-722r138,0r0,505v0,69,30,105,97,105v67,0,98,-36,98,-105r0,-505r138,0r0,506v0,159,-94,226,-236,226v-142,0,-235,-67,-235,-226r0,-506xm243,-909r126,0r114,146r-113,0r-64,-82r-64,82r-113,0","w":611},"\u00dc":{"d":"70,-722r138,0r0,505v0,69,30,105,97,105v67,0,98,-36,98,-105r0,-505r138,0r0,506v0,159,-94,226,-236,226v-142,0,-235,-67,-235,-226r0,-506xm151,-885r120,0r0,114r-120,0r0,-114xm341,-885r120,0r0,114r-120,0r0,-114","w":611},"\u00dd":{"d":"159,-722r121,291r117,-291r147,0r-197,430r0,292r-138,0r0,-292r-197,-430r147,0xm286,-909r155,0r-147,146r-101,0","w":556},"\u00de":{"d":"208,0r-138,0r0,-722r138,0r0,132r61,0v170,0,253,80,253,216v0,136,-83,216,-253,216r-61,0r0,158xm208,-476r0,204r74,0v68,0,102,-34,102,-102v0,-68,-34,-102,-102,-102r-74,0","w":556},"\u00df":{"d":"186,0r-126,0r0,-523v0,-118,42,-199,189,-199v115,0,179,71,179,201v0,48,-21,104,-65,128v73,39,94,101,94,201v-1,166,-95,235,-221,187r0,-114v60,24,95,2,95,-90v0,-76,-15,-125,-94,-125r0,-102v45,-2,71,-34,71,-88v0,-51,-17,-88,-66,-88v-39,0,-56,28,-56,59r0,553"},"\u00e0":{"d":"48,-385v8,-113,90,-169,202,-169v134,0,185,68,185,165r0,345v0,15,3,30,7,44r-126,0v-3,-14,-5,-31,-9,-53v-37,37,-87,63,-150,63v-76,0,-125,-42,-125,-130v0,-126,120,-180,277,-227r0,-40v0,-47,-29,-65,-65,-65v-38,0,-70,28,-70,67r-126,0xm309,-134r0,-132v-75,26,-151,68,-151,125v0,36,22,57,56,57v38,0,65,-20,95,-50xm87,-756r155,0r93,146r-101,0"},"\u00e1":{"d":"48,-385v8,-113,90,-169,202,-169v134,0,185,68,185,165r0,345v0,15,3,30,7,44r-126,0v-3,-14,-5,-31,-9,-53v-37,37,-87,63,-150,63v-76,0,-125,-42,-125,-130v0,-126,120,-180,277,-227r0,-40v0,-47,-29,-65,-65,-65v-38,0,-70,28,-70,67r-126,0xm309,-134r0,-132v-75,26,-151,68,-151,125v0,36,22,57,56,57v38,0,65,-20,95,-50xm258,-756r155,0r-147,146r-101,0"},"\u00e2":{"d":"48,-385v8,-113,90,-169,202,-169v134,0,185,68,185,165r0,345v0,15,3,30,7,44r-126,0v-3,-14,-5,-31,-9,-53v-37,37,-87,63,-150,63v-76,0,-125,-42,-125,-130v0,-126,120,-180,277,-227r0,-40v0,-47,-29,-65,-65,-65v-38,0,-70,28,-70,67r-126,0xm309,-134r0,-132v-75,26,-151,68,-151,125v0,36,22,57,56,57v38,0,65,-20,95,-50xm187,-756r126,0r114,146r-113,0r-64,-82r-64,82r-113,0"},"\u00e3":{"d":"48,-385v8,-113,90,-169,202,-169v134,0,185,68,185,165r0,345v0,15,3,30,7,44r-126,0v-3,-14,-5,-31,-9,-53v-37,37,-87,63,-150,63v-76,0,-125,-42,-125,-130v0,-126,120,-180,277,-227r0,-40v0,-47,-29,-65,-65,-65v-38,0,-70,28,-70,67r-126,0xm309,-134r0,-132v-75,26,-151,68,-151,125v0,36,22,57,56,57v38,0,65,-20,95,-50xm368,-744r65,0v-13,63,-39,121,-111,121v-54,0,-102,-35,-147,-35v-25,0,-40,19,-45,42r-63,0v10,-63,44,-122,115,-122v53,0,107,37,139,37v24,0,42,-19,47,-43"},"\u00e4":{"d":"48,-385v8,-113,90,-169,202,-169v134,0,185,68,185,165r0,345v0,15,3,30,7,44r-126,0v-3,-14,-5,-31,-9,-53v-37,37,-87,63,-150,63v-76,0,-125,-42,-125,-130v0,-126,120,-180,277,-227r0,-40v0,-47,-29,-65,-65,-65v-38,0,-70,28,-70,67r-126,0xm309,-134r0,-132v-75,26,-151,68,-151,125v0,36,22,57,56,57v38,0,65,-20,95,-50xm95,-732r120,0r0,114r-120,0r0,-114xm285,-732r120,0r0,114r-120,0r0,-114"},"\u00e5":{"d":"48,-385v8,-113,90,-169,202,-169v134,0,185,68,185,165r0,345v0,15,3,30,7,44r-126,0v-3,-14,-5,-31,-9,-53v-37,37,-87,63,-150,63v-76,0,-125,-42,-125,-130v0,-126,120,-180,277,-227r0,-40v0,-47,-29,-65,-65,-65v-38,0,-70,28,-70,67r-126,0xm309,-134r0,-132v-75,26,-151,68,-151,125v0,36,22,57,56,57v38,0,65,-20,95,-50xm249,-604v-59,0,-106,-48,-106,-107v0,-58,47,-107,106,-107v58,0,108,49,108,107v0,59,-50,107,-108,107xm249,-764v-30,0,-52,24,-52,53v0,30,22,53,52,53v29,0,54,-23,54,-53v0,-29,-25,-53,-54,-53"},"\u00e6":{"d":"316,-134r0,-132v-68,26,-144,68,-144,125v0,36,22,57,56,57v38,0,65,-20,88,-50xm716,-242r-274,0r0,72v0,54,32,78,74,78v53,0,74,-34,74,-76r126,0v-6,112,-73,178,-200,178v-90,0,-144,-45,-165,-70v-84,64,-131,70,-180,70v-76,0,-125,-42,-125,-130v0,-126,120,-180,270,-227r0,-40v0,-47,-22,-65,-58,-65v-38,0,-70,28,-70,67r-126,0v9,-121,101,-169,186,-169v63,0,114,24,144,62v32,-36,79,-62,134,-62v107,0,190,74,190,185r0,127xm442,-344r148,0v4,-64,-11,-109,-74,-108v-62,0,-79,44,-74,108","w":778},"\u00e7":{"d":"449,-356r-125,0v6,-58,-20,-88,-74,-88v-44,0,-74,22,-74,64r0,216v0,42,30,64,74,64v44,0,74,-22,74,-64r0,-34r126,0v1,141,-69,204,-189,208r-35,51r2,2v54,-23,121,14,121,71v0,68,-69,94,-127,94v-38,0,-74,-11,-109,-25r19,-42v24,8,50,17,75,17v24,0,56,-10,56,-39v0,-41,-52,-42,-86,-29r-21,-20r54,-82v-101,-12,-160,-76,-160,-204r0,-152v0,-144,74,-206,200,-206v123,0,197,60,199,198"},"\u00e8":{"d":"450,-242r-274,0r0,72v0,54,32,78,74,78v53,0,74,-34,74,-76r126,0v-6,112,-73,178,-200,178v-120,0,-200,-74,-200,-193r0,-178v0,-119,80,-193,200,-193v117,0,200,74,200,185r0,127xm176,-344r148,0v4,-64,-11,-109,-74,-108v-62,0,-79,44,-74,108xm87,-756r155,0r93,146r-101,0"},"\u00e9":{"d":"450,-242r-274,0r0,72v0,54,32,78,74,78v53,0,74,-34,74,-76r126,0v-6,112,-73,178,-200,178v-120,0,-200,-74,-200,-193r0,-178v0,-119,80,-193,200,-193v117,0,200,74,200,185r0,127xm176,-344r148,0v4,-64,-11,-109,-74,-108v-62,0,-79,44,-74,108xm258,-756r155,0r-147,146r-101,0"},"\u00ea":{"d":"450,-242r-274,0r0,72v0,54,32,78,74,78v53,0,74,-34,74,-76r126,0v-6,112,-73,178,-200,178v-120,0,-200,-74,-200,-193r0,-178v0,-119,80,-193,200,-193v117,0,200,74,200,185r0,127xm176,-344r148,0v4,-64,-11,-109,-74,-108v-62,0,-79,44,-74,108xm187,-756r126,0r114,146r-113,0r-64,-82r-64,82r-113,0"},"\u00eb":{"d":"450,-242r-274,0r0,72v0,54,32,78,74,78v53,0,74,-34,74,-76r126,0v-6,112,-73,178,-200,178v-120,0,-200,-74,-200,-193r0,-178v0,-119,80,-193,200,-193v117,0,200,74,200,185r0,127xm176,-344r148,0v4,-64,-11,-109,-74,-108v-62,0,-79,44,-74,108xm95,-732r120,0r0,114r-120,0r0,-114xm285,-732r120,0r0,114r-120,0r0,-114"},"\u00ec":{"d":"202,0r-126,0r0,-544r126,0r0,544xm-24,-756r155,0r93,146r-101,0","w":278},"\u00ed":{"d":"202,0r-126,0r0,-544r126,0r0,544xm147,-756r155,0r-147,146r-101,0","w":278},"\u00ee":{"d":"202,0r-126,0r0,-544r126,0r0,544xm76,-756r126,0r114,146r-113,0r-64,-82r-64,82r-113,0","w":278},"\u00ef":{"d":"202,0r-126,0r0,-544r126,0r0,544xm-16,-732r120,0r0,114r-120,0r0,-114xm174,-732r120,0r0,114r-120,0r0,-114","w":278},"\u00f0":{"d":"176,-350r0,190v0,39,30,60,74,60v44,0,74,-21,74,-60r0,-190v0,-40,-30,-60,-74,-60v-44,0,-74,20,-74,60xm176,-708r118,-14v11,12,21,24,32,37r108,-37r30,74r-91,32v51,87,77,184,77,290r0,143v0,135,-74,193,-200,193v-126,0,-200,-58,-200,-193r0,-143v0,-135,74,-194,200,-194v14,0,25,0,43,4v-5,-22,-14,-43,-25,-64r-110,38r-30,-74r95,-33v-15,-20,-31,-39,-47,-59"},"\u00f1":{"d":"186,0r-126,0r0,-544r122,0r0,62v46,-40,89,-72,141,-72v77,0,117,39,117,140r0,414r-126,0r0,-400v0,-36,-12,-60,-46,-60v-26,0,-55,25,-82,49r0,411xm368,-744r65,0v-13,63,-39,121,-111,121v-54,0,-102,-35,-147,-35v-25,0,-40,19,-45,42r-63,0v10,-63,44,-122,115,-122v53,0,107,37,139,37v24,0,42,-19,47,-43"},"\u00f2":{"d":"50,-196r0,-152v0,-144,74,-206,200,-206v126,0,200,62,200,206r0,152v0,144,-74,206,-200,206v-126,0,-200,-62,-200,-206xm176,-380r0,216v0,42,30,64,74,64v44,0,74,-22,74,-64r0,-216v0,-42,-30,-64,-74,-64v-44,0,-74,22,-74,64xm87,-756r155,0r93,146r-101,0"},"\u00f3":{"d":"50,-196r0,-152v0,-144,74,-206,200,-206v126,0,200,62,200,206r0,152v0,144,-74,206,-200,206v-126,0,-200,-62,-200,-206xm176,-380r0,216v0,42,30,64,74,64v44,0,74,-22,74,-64r0,-216v0,-42,-30,-64,-74,-64v-44,0,-74,22,-74,64xm258,-756r155,0r-147,146r-101,0"},"\u00f4":{"d":"50,-196r0,-152v0,-144,74,-206,200,-206v126,0,200,62,200,206r0,152v0,144,-74,206,-200,206v-126,0,-200,-62,-200,-206xm176,-380r0,216v0,42,30,64,74,64v44,0,74,-22,74,-64r0,-216v0,-42,-30,-64,-74,-64v-44,0,-74,22,-74,64xm187,-756r126,0r114,146r-113,0r-64,-82r-64,82r-113,0"},"\u00f5":{"d":"50,-196r0,-152v0,-144,74,-206,200,-206v126,0,200,62,200,206r0,152v0,144,-74,206,-200,206v-126,0,-200,-62,-200,-206xm176,-380r0,216v0,42,30,64,74,64v44,0,74,-22,74,-64r0,-216v0,-42,-30,-64,-74,-64v-44,0,-74,22,-74,64xm368,-744r65,0v-13,63,-39,121,-111,121v-54,0,-102,-35,-147,-35v-25,0,-40,19,-45,42r-63,0v10,-63,44,-122,115,-122v53,0,107,37,139,37v24,0,42,-19,47,-43"},"\u00f6":{"d":"50,-196r0,-152v0,-144,74,-206,200,-206v126,0,200,62,200,206r0,152v0,144,-74,206,-200,206v-126,0,-200,-62,-200,-206xm176,-380r0,216v0,42,30,64,74,64v44,0,74,-22,74,-64r0,-216v0,-42,-30,-64,-74,-64v-44,0,-74,22,-74,64xm95,-732r120,0r0,114r-120,0r0,-114xm285,-732r120,0r0,114r-120,0r0,-114"},"\u00f7":{"d":"572,-211r-544,0r0,-122r544,0r0,122xm204,-495v0,-52,44,-95,96,-95v50,0,94,44,94,95v0,48,-44,95,-93,95v-53,0,-97,-43,-97,-95xm204,-49v0,-53,44,-95,96,-95v50,0,94,43,94,95v0,47,-44,95,-93,95v-53,0,-97,-44,-97,-95","w":600},"\u00f8":{"d":"178,-209r118,-223v-12,-8,-28,-12,-46,-12v-44,0,-74,22,-74,64r0,171r2,0xm322,-317r-111,209v10,5,23,8,39,8v44,0,74,-22,74,-64r0,-153r-2,0xm156,-6r-63,118r-89,0r88,-164v-28,-33,-42,-80,-42,-144r0,-152v0,-144,74,-206,200,-206v39,0,73,6,102,19r51,-95r89,0r-78,146v49,57,36,183,36,288v0,144,-74,206,-200,206v-36,0,-68,-5,-94,-16"},"\u00f9":{"d":"314,-544r126,0r0,544r-122,0r0,-62v-46,40,-89,72,-141,72v-77,0,-117,-39,-117,-140r0,-414r126,0r0,400v0,36,12,60,46,60v26,0,55,-25,82,-49r0,-411xm78,-756r155,0r93,146r-101,0"},"\u00fa":{"d":"314,-544r126,0r0,544r-122,0r0,-62v-46,40,-89,72,-141,72v-77,0,-117,-39,-117,-140r0,-414r126,0r0,400v0,36,12,60,46,60v26,0,55,-25,82,-49r0,-411xm249,-756r155,0r-147,146r-101,0"},"\u00fb":{"d":"314,-544r126,0r0,544r-122,0r0,-62v-46,40,-89,72,-141,72v-77,0,-117,-39,-117,-140r0,-414r126,0r0,400v0,36,12,60,46,60v26,0,55,-25,82,-49r0,-411xm178,-756r126,0r114,146r-113,0r-64,-82r-64,82r-113,0"},"\u00fc":{"d":"314,-544r126,0r0,544r-122,0r0,-62v-46,40,-89,72,-141,72v-77,0,-117,-39,-117,-140r0,-414r126,0r0,400v0,36,12,60,46,60v26,0,55,-25,82,-49r0,-411xm86,-732r120,0r0,114r-120,0r0,-114xm276,-732r120,0r0,114r-120,0r0,-114"},"\u00fd":{"d":"32,190r0,-110v12,2,24,2,37,2v55,0,91,-48,91,-72v0,-32,-10,-69,-23,-115r-126,-439r128,0r85,360r2,0r79,-360r128,0r-145,542v-42,162,-102,203,-256,192xm230,-756r155,0r-147,146r-101,0","w":444},"\u00fe":{"d":"186,-421r0,298v25,27,48,39,76,39v34,0,62,-22,62,-130r0,-116v0,-108,-28,-130,-62,-130v-28,0,-51,12,-76,39xm60,-722r124,0r0,234r2,0v14,-24,70,-66,126,-66v98,0,138,76,138,216r0,132v0,140,-40,216,-138,216v-34,0,-66,-16,-126,-60r0,242r-126,0r0,-914"},"\u00ff":{"d":"32,190r0,-110v12,2,24,2,37,2v55,0,91,-48,91,-72v0,-32,-10,-69,-23,-115r-126,-439r128,0r85,360r2,0r79,-360r128,0r-145,542v-42,162,-102,203,-256,192xm67,-732r120,0r0,114r-120,0r0,-114xm257,-732r120,0r0,114r-120,0r0,-114","w":444},"\u0131":{"d":"202,0r-126,0r0,-544r126,0r0,544","w":278},"\u0141":{"d":"200,-316r0,194r222,0r0,122r-360,0r0,-260r-62,25r0,-116r62,-25r0,-346r138,0r0,290r163,-66r-1,116","w":444},"\u0142":{"d":"202,-377r0,377r-126,0r0,-313r-74,37r0,-94r74,-37r0,-315r126,0r0,251r74,-37r0,94","w":278},"\u0152":{"d":"196,-436r0,150v0,132,38,174,142,174v89,0,112,-46,112,-130r0,-238v0,-84,-23,-130,-112,-130v-104,0,-142,42,-142,174xm342,-732v92,0,128,9,216,10r327,0r0,122r-297,0r0,166r223,0r0,122r-223,0r0,190r306,0r0,122r-413,0v-74,0,-98,10,-176,10v-149,0,-247,-105,-247,-283r0,-191v0,-182,116,-268,284,-268","w":944},"\u0153":{"d":"176,-380r0,216v0,42,30,64,74,64v44,0,74,-22,74,-64r0,-216v0,-42,-30,-64,-74,-64v-44,0,-74,22,-74,64xm728,-242r-278,0r0,72v0,54,36,78,78,78v53,0,74,-34,74,-76r126,0v-6,112,-73,178,-200,178v-62,0,-111,-30,-140,-72v-28,42,-75,72,-144,72v-120,0,-194,-62,-194,-206r0,-152v0,-144,74,-206,194,-206v69,0,116,30,144,72v29,-42,78,-72,146,-72v111,0,194,74,194,185r0,127xm450,-344r152,0v4,-64,-11,-109,-74,-108v-62,0,-84,42,-78,108","w":778},"\u0160":{"d":"491,-557r-124,36v-23,-68,-53,-97,-101,-97v-49,0,-76,30,-76,79v0,109,308,117,308,343v0,124,-85,206,-230,206v-112,0,-199,-61,-236,-203r136,-29v16,87,66,118,107,118v48,0,85,-32,85,-86v0,-136,-308,-138,-308,-340v0,-124,74,-202,217,-202v123,0,198,73,222,175xm341,-763r-126,0r-114,-146r113,0r64,82r64,-82r113,0","w":556},"\u0161":{"d":"404,-418r-104,40v-17,-50,-49,-74,-87,-74v-29,0,-51,21,-51,49v0,84,246,86,246,248v0,108,-76,165,-181,165v-76,0,-144,-19,-205,-155r113,-31v11,51,42,84,92,84v38,0,61,-18,61,-48v0,-104,-246,-79,-246,-262v0,-103,83,-152,172,-152v94,0,159,54,190,136xm285,-610r-126,0r-114,-146r113,0r64,82r64,-82r113,0","w":444},"\u0178":{"d":"159,-722r121,291r117,-291r147,0r-197,430r0,292r-138,0r0,-292r-197,-430r147,0xm123,-885r120,0r0,114r-120,0r0,-114xm313,-885r120,0r0,114r-120,0r0,-114","w":556},"\u017d":{"d":"61,-600r0,-122r400,0r0,116r-273,484r279,0r0,122r-434,0r0,-117r273,-483r-245,0xm313,-763r-126,0r-114,-146r113,0r64,82r64,-82r113,0"},"\u017e":{"d":"51,-434r0,-110r362,0r0,108r-231,326r231,0r0,110r-382,0r0,-108r227,-326r-207,0xm285,-610r-126,0r-114,-146r113,0r64,82r64,-82r113,0","w":444},"\u0192":{"d":"26,181r16,-103v60,23,99,19,117,-73r71,-371r-98,0r0,-88r119,0v35,-204,81,-278,195,-278v27,0,51,5,74,12r-18,100v-11,-5,-28,-10,-44,-10v-44,2,-66,44,-85,176r99,0r0,88r-116,0r-64,329v-22,112,-57,229,-193,229v-24,0,-50,-2,-73,-11","w":556},"\u02c6":{"d":"76,-756r126,0r114,146r-113,0r-64,-82r-64,82r-113,0","w":278},"\u02c7":{"d":"202,-610r-126,0r-114,-146r113,0r64,82r64,-82r113,0","w":278},"\u02c9":{"d":"313,-640r-348,0r0,-74r348,0r0,74","w":278},"\u02d8":{"d":"241,-754r66,0v-13,100,-76,146,-175,146v-95,0,-154,-49,-161,-146r64,0v6,56,55,70,104,70v53,0,92,-15,102,-70","w":278},"\u02d9":{"d":"79,-732r120,0r0,114r-120,0r0,-114","w":278},"\u02da":{"d":"138,-604v-59,0,-106,-48,-106,-107v0,-58,47,-107,106,-107v58,0,108,49,108,107v0,59,-50,107,-108,107xm138,-764v-30,0,-52,24,-52,53v0,30,22,53,52,53v29,0,54,-23,54,-53v0,-29,-25,-53,-54,-53","w":278},"\u02db":{"d":"258,-21r0,12v-53,20,-142,58,-142,125v0,33,24,52,53,52v32,0,70,-26,96,-43r20,34v-45,30,-95,59,-151,59v-57,0,-104,-31,-104,-91v0,-105,149,-135,228,-148","w":278},"\u02dc":{"d":"257,-744r65,0v-13,63,-39,121,-111,121v-54,0,-102,-35,-147,-35v-25,0,-40,19,-45,42r-63,0v10,-63,44,-122,115,-122v53,0,107,37,139,37v24,0,42,-19,47,-43","w":278},"\u02dd":{"d":"59,-756r151,0r-141,146r-97,0xm239,-756r155,0r-147,146r-101,0","w":278},"\u03a9":{"d":"177,-97r0,-3v-63,-60,-124,-162,-124,-294v0,-184,124,-332,302,-332v191,0,295,169,295,325v0,135,-62,243,-125,301r0,3r139,0r0,97r-258,0r0,-71v64,-43,125,-141,125,-304v0,-128,-61,-251,-177,-251v-110,0,-181,109,-181,255v0,150,60,259,124,300r0,71r-258,0r0,-97r138,0","w":706},"\u03bc":{"d":"314,-544r126,0r0,544r-122,0r0,-62v-43,37,-83,68,-132,72r0,182r-126,0r0,-736r126,0r0,400v0,36,12,60,46,60v26,0,55,-25,82,-49r0,-411"},"\u03c0":{"d":"571,-435r-72,0v3,133,-9,334,13,435r-114,0v-11,-21,-17,-71,-17,-145r0,-290r-145,0v-5,114,-30,328,-66,435r-115,0v35,-119,62,-318,64,-435v-50,0,-78,4,-99,11r-14,-80v25,-19,76,-32,160,-32r414,0","w":595},"\u2013":{"d":"500,-230r-500,0r0,-84r500,0r0,84"},"\u2014":{"d":"1000,-230r-1000,0r0,-84r1000,0r0,84","w":1000},"\u2018":{"d":"173,-732r-51,148r60,0r0,142r-142,0r0,-142r63,-148r70,0","w":222},"\u2019":{"d":"49,-432r51,-148r-60,0r0,-142r142,0r0,142r-63,148r-70,0","w":222},"\u201a":{"d":"49,148r51,-148r-60,0r0,-142r142,0r0,142r-63,148r-70,0","w":222},"\u201c":{"d":"173,-732r-51,148r60,0r0,142r-142,0r0,-142r63,-148r70,0xm395,-732r-51,148r60,0r0,142r-142,0r0,-142r63,-148r70,0","w":444},"\u201d":{"d":"49,-432r51,-148r-60,0r0,-142r142,0r0,142r-63,148r-70,0xm271,-432r51,-148r-60,0r0,-142r142,0r0,142r-63,148r-70,0","w":444},"\u201e":{"d":"49,148r51,-148r-60,0r0,-142r142,0r0,142r-63,148r-70,0xm271,148r51,-148r-60,0r0,-142r142,0r0,142r-63,148r-70,0","w":444},"\u2020":{"d":"66,-467r0,-96r162,27r-26,-196r96,0r-26,196r162,-27r0,96r-159,-27r25,170v-14,114,-22,268,-31,398r-38,0v-9,-130,-17,-284,-31,-398r25,-170"},"\u2021":{"d":"200,-329r25,-177r-159,27r0,-96r162,27r-26,-184r96,0r-26,184r162,-27r0,96r-159,-27r25,177r-25,177r159,-27r0,96r-162,-27r26,184r-96,0r26,-184r-162,27r0,-96r159,27"},"\u2022":{"d":"69,-361v0,-100,80,-180,180,-180v100,0,181,80,181,180v0,100,-81,181,-181,181v-100,0,-180,-81,-180,-181"},"\u2026":{"d":"238,0r-142,0r0,-142r142,0r0,142xm904,0r-142,0r0,-142r142,0r0,142xm571,0r-142,0r0,-142r142,0r0,142","w":1000},"\u2030":{"d":"162,-722v82,0,148,67,148,148v0,81,-66,148,-148,148v-82,0,-148,-67,-148,-148v0,-81,66,-148,148,-148xm162,-640v-38,0,-66,29,-66,66v0,37,28,66,66,66v38,0,66,-29,66,-66v0,-37,-28,-66,-66,-66xm477,-214v-38,0,-66,29,-66,66v0,37,28,66,66,66v38,0,66,-29,66,-66v0,-37,-28,-66,-66,-66xm477,-296v82,0,148,67,148,148v0,81,-66,148,-148,148v-82,0,-148,-67,-148,-148v0,-81,66,-148,148,-148xm838,-214v-38,0,-66,29,-66,66v0,37,28,66,66,66v38,0,66,-29,66,-66v0,-37,-28,-66,-66,-66xm838,-296v82,0,148,67,148,148v0,81,-66,148,-148,148v-82,0,-148,-67,-148,-148v0,-81,66,-148,148,-148xm76,10r408,-742r77,0r-408,742r-77,0","w":1000},"\u2039":{"d":"38,-272r122,-160r110,0r-122,160r122,160r-110,0","w":333},"\u203a":{"d":"295,-272r-122,160r-110,0r122,-160r-122,-160r110,0","w":333},"\u2044":{"d":"-167,10r405,-742r96,0r-405,742r-96,0","w":167},"\u20ac":{"d":"446,-391r-214,0r0,72r190,0r-28,88r-162,0v-2,79,39,127,116,127v59,0,106,-7,157,-41r0,118v-50,26,-114,35,-167,35v-150,0,-239,-91,-229,-239r-79,0r28,-88r51,0r0,-72r-79,0r28,-88r51,0r0,-48v0,-124,108,-205,242,-205v65,0,133,19,185,60r-36,113v-43,-39,-101,-59,-155,-59v-83,0,-120,60,-113,139r242,0","w":556},"\u2113":{"d":"440,-182r49,50v-51,100,-125,138,-203,138v-124,0,-175,-81,-179,-185r-53,43r-30,-64v30,-25,57,-46,82,-71r0,-263v0,-181,81,-256,175,-256v94,0,136,79,136,179v0,121,-77,238,-197,357r0,44v1,82,42,122,92,122v56,0,101,-48,128,-94xm220,-534r0,170v71,-83,123,-173,123,-251v0,-55,-15,-89,-57,-89v-32,0,-66,38,-66,170","w":507},"\u2122":{"d":"592,-722r94,250r93,-250r153,0r0,412r-106,0r0,-280r-2,0r-98,280r-81,0r-98,-280r-2,0r0,280r-106,0r0,-412r153,0xm373,-722r0,84r-115,0r0,328r-112,0r0,-328r-114,0r0,-84r341,0","w":1000},"\u2126":{"d":"177,-97r0,-3v-63,-60,-124,-162,-124,-294v0,-184,124,-332,302,-332v191,0,295,169,295,325v0,135,-62,243,-125,301r0,3r139,0r0,97r-258,0r0,-71v64,-43,125,-141,125,-304v0,-128,-61,-251,-177,-251v-110,0,-181,109,-181,255v0,150,60,259,124,300r0,71r-258,0r0,-97r138,0","w":706},"\u212e":{"d":"859,-351r-667,0v-4,0,-6,1,-6,5r0,202v0,9,3,16,9,23v65,67,154,110,252,110v107,0,201,-49,266,-123r59,0v-73,86,-193,143,-326,143v-227,0,-411,-165,-411,-369v0,-206,184,-372,411,-372v232,0,417,166,413,381xm707,-377r0,-203v0,-9,-3,-18,-9,-24v-65,-64,-153,-106,-251,-106v-97,0,-186,43,-251,109v-7,7,-10,15,-10,25r0,199v0,2,2,7,6,7r511,0v3,0,4,-5,4,-7","w":895},"\u2202":{"d":"104,-662r-34,-89v31,-25,88,-58,179,-58v143,0,271,127,271,388v0,255,-100,426,-277,426v-138,0,-204,-128,-204,-241v0,-164,98,-267,216,-267v82,0,133,56,148,83r2,0v9,-154,-59,-291,-171,-291v-60,0,-104,27,-130,49xm156,-232v0,78,38,138,100,138v78,0,127,-117,138,-224v-11,-34,-53,-89,-117,-89v-70,0,-121,83,-121,175","w":570},"\u2206":{"d":"28,0r0,-71r232,-660r139,0r226,658r0,73r-597,0xm148,-96r351,0r-114,-316v-16,-56,-47,-141,-58,-186r-4,0v-8,37,-33,115,-53,171","w":653},"\u220f":{"d":"691,-607r-102,0r0,706r-117,0r0,-706r-228,0r0,706r-116,0r0,-706r-103,0r0,-108r666,0r0,108","w":718},"\u2211":{"d":"537,99r-514,0r0,-77r247,-331r-237,-323r0,-83r487,0r0,101r-329,0r0,3r211,283r-234,313r0,3r369,0r0,111","w":557},"\u2212":{"d":"572,-211r-544,0r0,-122r544,0r0,122","w":600},"\u2215":{"d":"-167,10r405,-742r96,0r-405,742r-96,0","w":167},"\u2219":{"d":"139,-348v45,0,76,37,76,76v0,39,-31,76,-76,76v-45,0,-76,-37,-76,-76v0,-39,31,-76,76,-76","w":278},"\u221a":{"d":"596,-857r-224,1001r-95,0r-150,-453r-75,29r-19,-67r164,-66r108,333r20,87v4,-21,9,-57,16,-92r173,-772r82,0","w":591},"\u221e":{"d":"581,-461v88,0,155,66,155,166v0,108,-79,172,-161,172v-59,0,-113,-28,-181,-115v-53,64,-106,115,-188,115v-83,0,-157,-69,-157,-167v0,-101,71,-171,166,-171v75,0,130,47,182,113v44,-49,95,-114,184,-113xm117,-289v0,55,41,100,99,100v58,0,102,-53,141,-99v-42,-55,-79,-109,-146,-109v-59,0,-94,47,-94,108xm668,-290v0,-63,-38,-107,-95,-107v-62,0,-109,67,-142,103v62,76,95,105,147,105v58,0,90,-55,90,-101","w":785},"\u222b":{"d":"370,-870r-13,82v-29,-15,-65,-12,-86,17v-21,29,-28,86,-28,174v0,165,14,316,14,496v0,100,-17,165,-38,206v-37,72,-131,83,-199,53r16,-85v22,12,69,18,87,-10v16,-26,29,-68,29,-163v0,-183,-15,-336,-15,-508v0,-118,18,-182,59,-229v39,-44,118,-56,174,-33","w":393},"\u2248":{"d":"183,-457v87,0,127,74,196,74v39,0,63,-29,90,-73r43,38v-30,60,-76,103,-134,103v-41,0,-68,-12,-114,-40v-30,-18,-55,-34,-87,-34v-45,0,-70,36,-94,73r-44,-38v30,-60,83,-103,144,-103xm183,-272v90,1,123,74,196,74v39,0,63,-28,90,-73r43,39v-30,58,-76,103,-135,103v-40,0,-68,-14,-113,-41v-30,-19,-55,-35,-87,-35v-45,0,-70,37,-94,74r-44,-38v30,-60,83,-103,144,-103","w":553},"\u2260":{"d":"404,-520r-40,91r140,0r0,69r-166,0r-61,139r227,0r0,70r-253,0r-51,115r-54,-23r41,-92r-138,0r0,-70r164,0r61,-139r-225,0r0,-69r251,0r49,-113","w":553},"\u2264":{"d":"501,-101r-447,-227r0,-75r447,-226r0,82r-378,180r0,2r378,182r0,82xm505,8r-455,0r0,-70r455,0r0,70","w":553},"\u2265":{"d":"56,-629r447,227r0,74r-447,227r0,-82r377,-181r0,-2r-377,-181r0,-82xm504,8r-453,0r0,-70r453,0r0,70","w":553},"\u25ca":{"d":"539,-357r-199,406r-95,0r-194,-406r199,-406r95,0xm434,-354r-118,-251v-7,-19,-15,-43,-19,-61r-3,0v-5,19,-11,41,-20,61r-118,245r119,255v7,20,14,44,17,58r4,0v4,-15,13,-45,18,-57","w":589}}});
