/*!
 * The following copyright notice may not be removed under any circumstances.
 * 
 * Copyright:
 * Copyright © 1989, 1990, 2002 Adobe Systems Incorporated.  All Rights Reserved.
 * © 1981, 2002 Heidelberger Druckmaschinen AG. All rights reserved.
 * 
 * Trademark:
 * Trade Gothic is a trademark of Heidelberger Druckmaschinen AG, exclusively
 * licensed through Linotype Library GmbH, and may be registered in certain
 * jurisdictions.
 * 
 * Full name:
 * Trade Gothic LT Std Bold
 * 
 * Designer:
 * Jackson Burke
 * 
 * Vendor URL:
 * http://www.adobe.com/type
 * 
 * License information:
 * http://www.adobe.com/type/legal.html
 */
Cufon.registerFont({"w":611,"face":{"font-family":"Trade Gothic LT Std","font-weight":700,"font-stretch":"normal","units-per-em":"1000","panose-1":"0 0 8 0 0 0 0 0 0 0","ascent":"722","descent":"-278","x-height":"10","bbox":"-167 -977 1000 229","underline-thickness":"50","underline-position":"-50","stemh":"84","stemv":"124","unicode-range":"U+0020-U+FB02"},"glyphs":{" ":{"w":305},"!":{"d":"240,-722r-26,478r-96,0r-26,-478r148,0xm235,0r-138,0r0,-142r138,0r0,142","w":333},"\"":{"d":"197,-450r0,-272r112,0r0,272r-112,0xm24,-450r0,-272r112,0r0,272r-112,0","w":333},"#":{"d":"520,-301r0,90r-93,0r-28,211r-94,0r27,-211r-96,0r-28,211r-94,0r27,-211r-80,0r0,-90r93,0r17,-120r-80,0r0,-90r92,0r28,-211r94,0r-27,211r96,0r28,-211r94,0r-27,211r80,0r0,90r-92,0r-17,120r80,0xm362,-421r-96,0r-17,120r96,0"},"$":{"d":"337,-295r0,195v52,0,109,-20,109,-91v0,-58,-44,-87,-109,-104xm263,-442r0,-180v-61,4,-102,30,-102,95v0,46,31,65,102,85xm263,-100r0,-217v-113,-25,-214,-89,-214,-201v0,-134,101,-202,214,-204r0,-72r74,0r0,72v77,2,139,34,205,99r-78,77v-40,-39,-74,-68,-127,-76r0,200v141,42,221,102,221,228v0,132,-100,188,-221,194r0,120r-74,0r0,-120v-88,-9,-166,-45,-221,-119r86,-74v37,56,77,80,135,93"},"%":{"d":"214,-722v101,0,180,82,180,180v0,98,-79,180,-180,180v-101,0,-180,-82,-180,-180v0,-98,79,-180,180,-180xm214,-624v-45,0,-82,39,-82,82v0,43,37,82,82,82v45,0,82,-39,82,-82v0,-43,-37,-82,-82,-82xm675,-360v101,0,180,82,180,180v0,98,-79,180,-180,180v-101,0,-180,-82,-180,-180v0,-98,79,-180,180,-180xm675,-262v-45,0,-82,39,-82,82v0,43,37,82,82,82v45,0,82,-39,82,-82v0,-43,-37,-82,-82,-82xm197,10r415,-742r85,0r-415,742r-85,0","w":889},"&":{"d":"215,-573v0,42,15,82,38,117v42,-31,85,-73,85,-120v0,-40,-21,-74,-62,-74v-28,0,-61,28,-61,77xm510,-362r110,30v-23,61,-49,122,-88,177v31,28,66,48,102,49r0,116v-69,0,-98,-10,-180,-76v-49,51,-112,76,-183,76v-135,0,-231,-66,-231,-210v0,-89,50,-143,120,-190v-40,-58,-61,-103,-61,-174v0,-102,77,-168,183,-168v95,0,172,70,172,161v0,94,-72,149,-139,202v39,53,82,103,127,143v29,-42,51,-88,68,-136xm170,-206v0,53,50,100,106,100v35,0,70,-14,96,-40v-58,-45,-105,-97,-144,-155v-34,28,-58,48,-58,95","w":667},"'":{"d":"55,-450r0,-272r112,0r0,272r-112,0","w":222},"(":{"d":"186,-732r121,0v-194,240,-193,576,0,816r-121,0v-86,-134,-136,-238,-136,-408v0,-170,50,-274,136,-408","w":333},")":{"d":"147,84r-121,0v194,-240,193,-576,0,-816r121,0v86,134,136,238,136,408v0,170,-50,274,-136,408","w":333},"*":{"d":"225,-572r4,-5r-31,-145r99,0r-26,146r5,5r128,-74r30,90r-146,23r107,106r-74,58r-67,-133r-7,1r-64,131r-75,-53r106,-105r-2,-6r-146,-18r26,-89","w":500},"+":{"d":"354,-314r206,0r0,108r-206,0r0,206r-108,0r0,-206r-206,0r0,-108r206,0r0,-206r108,0r0,206","w":600},",":{"d":"92,150r51,-150r-60,0r0,-142r138,0r0,142r-64,150r-65,0","w":305},"-":{"d":"289,-206r-245,0r0,-108r245,0r0,108","w":333},".":{"d":"221,0r-138,0r0,-142r138,0r0,142","w":305},"\/":{"d":"306,-732r-225,742r-109,0r225,-742r109,0","w":278},"0":{"d":"42,-361v0,-207,72,-371,263,-371v191,0,263,164,263,371v0,207,-72,371,-263,371v-191,0,-263,-164,-263,-371xm172,-361v0,197,54,263,133,263v79,0,133,-66,133,-263v0,-197,-54,-263,-133,-263v-79,0,-133,66,-133,263"},"1":{"d":"499,0r-353,0r0,-100r112,0r0,-498r-128,0r0,-84v66,-3,124,-18,157,-50r101,0r0,632r111,0r0,100"},"2":{"d":"542,0r-486,0r0,-119v22,-113,356,-273,356,-405v0,-63,-41,-100,-107,-100v-72,0,-114,48,-130,114r-116,-25v15,-111,119,-197,248,-197v127,0,235,73,235,208v0,176,-162,248,-342,412r342,0r0,112"},"3":{"d":"194,-329r0,-108v106,0,194,-15,194,-101v0,-52,-44,-86,-104,-86v-61,0,-102,34,-138,72r-86,-78v70,-74,146,-102,220,-102v132,0,238,64,238,186v0,72,-40,126,-109,156v86,27,133,93,133,183v0,151,-128,217,-256,217v-102,0,-205,-48,-255,-140r104,-59v35,59,83,91,152,91v64,0,125,-39,125,-109v0,-118,-131,-122,-218,-122"},"4":{"d":"124,-266r225,0r0,-322r-2,0xm24,-166r0,-127r308,-429r141,0r0,456r102,0r0,100r-102,0r0,166r-124,0r0,-166r-325,0"},"5":{"d":"88,-338r27,-384r390,0r0,112r-292,0r-10,164v23,-24,57,-42,135,-42v130,0,216,122,216,240v0,158,-92,258,-266,258v-114,0,-194,-54,-234,-135r108,-56v22,51,79,81,128,82v92,3,134,-59,134,-149v0,-74,-47,-132,-123,-132v-51,0,-89,26,-109,62"},"6":{"d":"433,-223v0,-80,-43,-131,-124,-131v-58,0,-102,28,-130,82v0,122,69,174,139,174v69,0,115,-50,115,-125xm538,-678r-57,104v-30,-26,-70,-50,-122,-50v-98,0,-178,98,-180,220v47,-41,96,-58,162,-58v127,0,222,96,222,234v0,151,-110,238,-255,238v-151,0,-259,-108,-259,-328v0,-252,114,-414,310,-414v70,0,124,20,179,54"},"7":{"d":"58,-610r0,-112r495,0r0,75r-297,647r-143,0r292,-610r-347,0"},"8":{"d":"546,-552v0,85,-47,130,-118,168v88,38,145,98,145,198v0,118,-115,196,-268,196v-153,0,-268,-78,-268,-196v0,-100,57,-160,145,-198v-71,-38,-118,-83,-118,-168v0,-110,94,-180,241,-180v147,0,241,70,241,180xm305,-90v91,0,138,-42,138,-105v0,-65,-115,-131,-147,-131v-32,0,-129,58,-129,131v0,63,47,105,138,105xm304,-632v-80,0,-110,34,-110,82v0,66,74,110,111,110v37,0,111,-58,111,-110v0,-48,-30,-82,-112,-82"},"9":{"d":"166,-499v0,80,43,131,124,131v58,0,102,-28,130,-82v0,-122,-69,-174,-139,-174v-69,0,-115,50,-115,125xm61,-44r57,-104v30,26,70,50,122,50v98,0,178,-98,180,-220v-47,41,-96,58,-162,58v-127,0,-222,-96,-222,-234v0,-151,110,-238,255,-238v151,0,259,108,259,328v0,252,-114,414,-310,414v-70,0,-124,-20,-179,-54"},":":{"d":"221,-300r-138,0r0,-142r138,0r0,142xm221,0r-138,0r0,-142r138,0r0,142","w":305},";":{"d":"92,150r51,-150r-60,0r0,-142r138,0r0,142r-64,150r-65,0xm221,-300r-138,0r0,-142r138,0r0,142","w":305},"<":{"d":"560,-103r0,111r-520,-222r0,-92r520,-222r0,111r-372,157","w":600},"=":{"d":"560,-424r0,108r-520,0r0,-108r520,0xm560,-204r0,108r-520,0r0,-108r520,0","w":600},">":{"d":"40,8r0,-111r372,-157r-372,-157r0,-111r520,222r0,92","w":600},"?":{"d":"397,-572v0,127,-141,175,-144,292r0,37r-110,0r0,-55v-4,-106,128,-188,128,-280v0,-30,-30,-54,-63,-54v-47,0,-77,46,-83,88r-115,-32v25,-99,99,-156,206,-156v98,0,181,56,181,160xm269,0r-138,0r0,-142r138,0r0,142","w":444},"@":{"d":"381,-249v63,0,106,-60,106,-120v0,-48,-31,-82,-77,-82v-60,0,-104,53,-104,118v0,48,28,84,75,84xm515,-492r11,-50r88,0r-49,244v-3,16,-15,58,8,58v45,0,98,-55,98,-162v0,-160,-110,-246,-258,-246v-163,0,-268,123,-268,288v0,175,118,286,284,286v75,0,143,-28,192,-70r90,0v-68,99,-170,154,-290,154v-206,0,-376,-156,-376,-370v0,-211,167,-372,371,-372v172,0,338,118,338,302v0,220,-187,287,-247,287v-28,0,-52,-17,-53,-51r-2,-1v-24,28,-62,52,-97,52v-84,0,-158,-81,-158,-175v0,-120,79,-236,201,-236v48,0,89,19,117,62","w":800},"A":{"d":"308,-584r-85,314r168,0r-81,-314r-2,0xm13,0r208,-723r172,0r205,723r-137,0r-40,-156r-228,0r-43,156r-137,0"},"B":{"d":"78,0r0,-722r268,0v144,0,245,48,245,177v0,75,-31,133,-110,164v94,38,126,81,126,191v0,112,-79,190,-263,190r-266,0xm216,-322r0,210r138,0v80,0,115,-36,115,-105v0,-69,-35,-105,-115,-105r-138,0xm216,-610r0,176r138,0v66,0,99,-38,99,-88v0,-50,-33,-88,-99,-88r-138,0","w":667},"C":{"d":"572,-542r-125,30v-20,-61,-63,-104,-131,-104v-92,0,-148,86,-148,255v0,169,48,255,152,255v62,0,100,-22,141,-107r128,34v-43,125,-137,189,-269,189v-184,0,-290,-135,-290,-371v0,-236,106,-371,290,-371v138,0,218,62,252,190"},"D":{"d":"78,0r0,-722r239,0v191,0,324,106,324,361v0,255,-133,361,-324,361r-239,0xm216,-606r0,490r92,0v158,0,195,-116,195,-245v0,-129,-37,-245,-195,-245r-92,0","w":667},"E":{"d":"573,0r-489,0r0,-722r478,0r0,116r-340,0r0,172r247,0r0,116r-247,0r0,202r351,0r0,116"},"F":{"d":"216,0r-138,0r0,-722r460,0r0,116r-322,0r0,172r241,0r0,116r-241,0r0,318","w":556},"G":{"d":"593,-548r-128,34v-33,-72,-73,-102,-145,-102v-102,0,-152,102,-152,262v0,152,57,248,153,248v90,0,148,-60,151,-143r-137,0r0,-116r270,0r0,365r-100,0r0,-74v-58,64,-112,84,-188,84v-196,0,-287,-156,-287,-360v0,-184,70,-382,301,-382v144,0,228,78,262,184","w":667},"H":{"d":"222,0r-138,0r0,-722r138,0r0,288r278,0r0,-288r138,0r0,722r-138,0r0,-310r-278,0r0,310","w":722},"I":{"d":"235,0r-138,0r0,-722r138,0r0,722","w":333},"J":{"d":"-5,-87r95,-71v24,40,44,52,75,52v33,0,57,-22,57,-86r0,-530r138,0r0,527v0,135,-67,205,-195,205v-76,0,-130,-36,-170,-97","w":444},"K":{"d":"216,0r-138,0r0,-722r138,0r0,321r241,-321r159,0r-205,271r238,451r-153,0r-179,-343r-101,126r0,217","w":667},"L":{"d":"530,0r-452,0r0,-722r138,0r0,606r314,0r0,116","w":556},"M":{"d":"201,0r-120,0r0,-722r194,0r139,504r2,0r140,-504r196,0r0,722r-120,0r0,-568r-2,0r-162,568r-105,0r-160,-568r-2,0r0,568","w":833},"N":{"d":"211,0r-130,0r0,-722r144,0r284,492r2,0r0,-492r130,0r0,722r-133,0r-295,-514r-2,0r0,514","w":722},"O":{"d":"498,-361v0,-169,-52,-255,-165,-255v-113,0,-165,86,-165,255v0,169,51,255,165,255v113,0,165,-86,165,-255xm636,-361v0,236,-106,371,-303,371v-197,0,-303,-135,-303,-371v0,-236,106,-371,303,-371v197,0,303,135,303,371","w":667},"P":{"d":"206,0r-138,0r0,-722r264,0v156,0,255,65,255,215v0,150,-99,215,-255,215r-126,0r0,292xm206,-610r0,206r110,0v104,0,133,-39,133,-103v0,-64,-29,-103,-133,-103r-110,0"},"Q":{"d":"333,-193r0,-123v71,7,112,39,148,92v12,-36,17,-82,17,-137v0,-169,-52,-255,-165,-255v-113,0,-165,86,-165,255v0,169,51,255,165,255v34,0,63,-8,86,-24v-21,-31,-46,-55,-86,-63xm655,-62r0,116v-92,0,-109,-15,-169,-80v-42,24,-93,36,-153,36v-197,0,-303,-135,-303,-371v0,-236,106,-371,303,-371v197,0,303,135,303,371v0,112,-24,201,-72,266v25,20,55,32,91,33","w":667},"R":{"d":"216,0r-138,0r0,-722r288,0v164,0,230,95,231,214v1,89,-44,161,-132,186r159,322r-153,0r-136,-294r-119,0r0,294xm216,-610r0,204r102,0v108,0,141,-34,141,-102v0,-68,-41,-102,-117,-102r-126,0","w":667},"S":{"d":"545,-569r-126,39v-21,-56,-64,-94,-129,-94v-60,0,-103,24,-103,80v0,124,372,98,372,332v0,148,-93,222,-253,222v-118,0,-229,-66,-270,-171r114,-50v33,68,76,113,157,113v69,0,122,-26,122,-96v0,-142,-372,-114,-372,-336v0,-129,108,-202,233,-202v116,0,212,58,255,163"},"T":{"d":"20,-723r516,0r0,116r-189,0r0,607r-138,0r0,-607r-189,0r0,-116","w":556},"U":{"d":"500,-264r0,-458r138,0r0,452v0,211,-130,280,-277,280v-147,0,-277,-69,-277,-280r0,-452r138,0r0,458v0,117,46,158,139,158v93,0,139,-41,139,-158","w":722},"V":{"d":"201,0r-191,-722r136,0r128,532r2,0r134,-532r136,0r-191,722r-154,0","w":556},"W":{"d":"171,0r-151,-722r129,0r91,487r2,0r103,-487r142,0r95,487r2,0r99,-487r129,0r-150,722r-140,0r-105,-514r-2,0r-104,514r-140,0","w":833},"X":{"d":"203,-370r-183,-352r150,0r108,223r108,-223r150,0r-183,352r195,370r-150,0r-120,-245r-120,245r-150,0","w":556},"Y":{"d":"154,-722r124,286r124,-286r144,0r-199,434r0,288r-138,0r0,-288r-199,-434r144,0","w":556},"Z":{"d":"530,-116r0,116r-514,0r0,-117r337,-489r-314,0r0,-116r488,0r0,110r-349,496r352,0","w":556},"[":{"d":"287,74r-235,0r0,-796r233,0r0,60r-125,0r0,676r127,0r0,60","w":333},"\\":{"d":"197,10r-225,-742r109,0r225,742r-109,0","w":278},"]":{"d":"281,74r-235,0r0,-60r127,0r0,-676r-125,0r0,-60r233,0r0,796","w":333},"^":{"d":"179,-347r-109,0r180,-375r100,0r180,375r-110,0r-120,-263","w":600},"_":{"d":"500,125r-500,0r0,-50r500,0r0,50","w":500},"`":{"d":"-28,-732r154,0r94,146r-102,0","w":278},"a":{"d":"450,0r-121,0r-8,-45v-50,34,-97,55,-162,55v-94,0,-141,-67,-141,-138v0,-118,96,-180,298,-204r0,-44v0,-40,-32,-62,-76,-62v-58,0,-90,31,-114,64r-80,-61v32,-55,118,-97,194,-95v140,3,200,54,200,210r0,245v0,26,2,52,10,75xm316,-137r0,-112v-83,16,-174,33,-174,106v0,39,25,61,60,61v39,0,88,-33,114,-55","w":500},"b":{"d":"64,0r0,-722r124,0r0,250r2,0v25,-33,84,-58,126,-58v134,0,208,128,208,256v0,162,-70,284,-208,284v-56,0,-97,-23,-141,-66r-14,56r-97,0xm188,-386r0,250v26,20,43,46,96,46v74,0,116,-60,116,-170v0,-110,-42,-170,-116,-170v-40,0,-71,21,-96,44","w":556},"c":{"d":"455,-391r-103,40v-20,-44,-42,-79,-102,-79v-69,0,-102,54,-102,170v0,116,33,170,106,170v54,0,85,-37,110,-83r94,53v-50,93,-113,130,-208,130v-141,0,-226,-105,-226,-270v0,-165,85,-270,226,-270v98,0,176,52,205,139","w":500},"d":{"d":"492,-722r0,722r-105,0r-6,-56v-44,43,-85,66,-141,66v-138,0,-208,-122,-208,-284v0,-128,74,-256,208,-256v42,0,101,25,126,58r2,0r0,-250r124,0xm368,-136r0,-250v-25,-23,-56,-44,-96,-44v-74,0,-116,60,-116,170v0,110,42,170,116,170v53,0,70,-26,96,-46","w":556},"e":{"d":"148,-324r200,0v-2,-72,-40,-114,-100,-114v-60,0,-98,42,-100,114xm462,-240r-314,0v2,108,50,150,108,150v58,0,85,-26,116,-62r90,56v-48,74,-118,106,-218,106v-135,0,-220,-105,-220,-270v0,-165,85,-270,226,-270v136,0,212,114,212,239r0,51","w":500},"f":{"d":"313,-420r-105,0r0,420r-124,0r0,-420r-72,0r0,-100r71,0r0,-64v0,-112,45,-148,147,-148r82,0r0,100r-34,0v-52,0,-70,16,-70,56r0,56r105,0r0,100","w":333},"g":{"d":"214,-10v-68,0,-88,38,-88,60v0,40,34,58,138,58v80,0,107,-40,107,-58v0,-24,-37,-60,-157,-60xm322,-352v0,-48,-38,-86,-85,-86v-53,0,-90,38,-90,86v0,48,37,86,90,86v47,0,85,-38,85,-86xm488,-530r0,84v-29,0,-61,0,-80,12v16,22,28,52,28,92v0,98,-66,168,-196,168v-54,0,-97,2,-97,32v0,84,342,-30,342,178v0,74,-75,154,-241,154v-140,0,-232,-42,-232,-124v0,-65,49,-96,94,-96r0,-2v-24,-15,-77,-28,-77,-84v0,-50,58,-88,81,-95v-43,-35,-77,-75,-77,-138v0,-91,70,-181,205,-181v44,0,96,18,128,46v24,-32,63,-48,122,-46","w":500},"h":{"d":"188,0r-124,0r0,-722r124,0r0,258v38,-32,89,-66,150,-66v104,0,154,68,154,174r0,356r-124,0r0,-338v0,-70,-22,-92,-64,-92v-54,0,-95,31,-116,55r0,375","w":556},"i":{"d":"201,-520r0,520r-124,0r0,-520r124,0xm201,-616r-124,0r0,-116r124,0r0,116","w":278},"j":{"d":"3,182r0,-101v48,6,87,10,87,-61r0,-540r124,0r0,560v0,106,-44,150,-146,150v-25,0,-46,-3,-65,-8xm214,-616r-124,0r0,-116r124,0r0,116","w":278},"k":{"d":"188,0r-124,0r0,-722r124,0r0,403r4,0r153,-201r142,0r-153,194r164,326r-132,0r-115,-233r-63,73r0,160","w":500},"l":{"d":"201,0r-124,0r0,-722r124,0r0,722","w":278},"m":{"d":"188,0r-124,0r0,-520r113,0r0,56v47,-43,85,-66,156,-66v54,0,105,26,128,76v43,-43,93,-76,179,-76v54,0,128,32,128,156r0,374r-124,0r0,-363v0,-42,-17,-67,-62,-67v-32,0,-75,29,-104,56r0,374r-124,0r0,-363v0,-42,-17,-67,-62,-67v-32,0,-75,29,-104,56r0,374","w":833},"n":{"d":"188,0r-124,0r0,-520r114,0r0,56v46,-32,99,-66,160,-66v104,0,154,68,154,174r0,356r-124,0r0,-338v0,-70,-22,-92,-64,-92v-54,0,-95,31,-116,55r0,375","w":556},"o":{"d":"352,-260v0,-116,-33,-170,-102,-170v-69,0,-102,54,-102,170v0,116,33,170,102,170v69,0,102,-54,102,-170xm24,-260v0,-165,85,-270,226,-270v141,0,226,105,226,270v0,165,-85,270,-226,270v-141,0,-226,-105,-226,-270","w":500},"p":{"d":"64,190r0,-710r119,0r0,48v36,-35,77,-58,133,-58v138,0,208,122,208,284v0,128,-74,256,-208,256v-42,0,-101,-25,-126,-58r-2,0r0,238r-124,0xm188,-384r0,250v25,23,56,44,96,44v74,0,116,-60,116,-170v0,-110,-42,-170,-116,-170v-53,0,-70,26,-96,46","w":556},"q":{"d":"492,-520r0,710r-124,0r0,-238r-2,0v-25,33,-84,58,-126,58v-134,0,-208,-128,-208,-256v0,-162,70,-284,208,-284v56,0,97,23,141,66r14,-56r97,0xm368,-134r0,-250v-26,-20,-43,-46,-96,-46v-74,0,-116,60,-116,170v0,110,42,170,116,170v40,0,71,-21,96,-44","w":556},"r":{"d":"180,0r-124,0r0,-520r114,0r0,89r2,0v30,-62,72,-97,146,-99r0,131v-71,-15,-138,67,-138,83r0,316","w":333},"s":{"d":"395,-451r-78,68v-25,-27,-58,-55,-97,-55v-48,0,-70,20,-70,51v0,89,260,51,260,241v0,108,-82,156,-191,156v-83,0,-151,-37,-197,-105r83,-62v29,40,68,75,121,75v44,0,74,-24,74,-59v0,-89,-260,-57,-260,-238v0,-97,82,-151,172,-151v69,0,138,26,183,79","w":444},"t":{"d":"12,-520r72,0r0,-172r124,0r0,172r102,0r0,100r-102,0r0,294v-3,51,67,35,102,26r0,102v-34,4,-64,8,-98,8v-92,0,-128,-46,-128,-120r0,-310r-72,0r0,-100","w":333},"u":{"d":"368,-520r124,0r0,520r-114,0r0,-56v-46,32,-99,66,-160,66v-104,0,-154,-68,-154,-174r0,-356r124,0r0,338v0,70,22,92,64,92v54,0,95,-31,116,-55r0,-375","w":556},"v":{"d":"155,0r-145,-520r124,0r86,352r2,0r88,-352r124,0r-149,520r-130,0","w":444},"w":{"d":"144,0r-134,-520r118,0r71,324r2,0r75,-324r115,0r72,324r2,0r74,-324r118,0r-134,520r-112,0r-77,-324r-2,0r-76,324r-112,0","w":667},"x":{"d":"4,0r153,-270r-147,-250r137,0r73,144r74,-144r134,0r-146,250r158,270r-132,0r-87,-162r-84,162r-133,0","w":444},"y":{"d":"10,186r0,-102v57,10,116,5,134,-37v11,-25,20,-40,20,-61v0,-19,-10,-41,-16,-62r-139,-444r125,0r86,320r2,0r89,-320r124,0r-164,521v-64,173,-111,201,-261,185","w":444},"z":{"d":"39,-420r0,-100r385,0r0,88r-250,332r252,0r0,100r-408,0r0,-88r251,-332r-230,0","w":444},"{":{"d":"8,-294r0,-60v40,0,70,-25,70,-65r0,-194v0,-82,54,-119,128,-119r71,0r0,60r-49,0v-28,0,-42,24,-42,50r0,190v0,66,-22,94,-76,107r0,2v54,13,76,41,76,107r0,190v0,26,14,50,42,50r49,0r0,60r-71,0v-74,0,-128,-37,-128,-119r0,-194v0,-40,-30,-65,-70,-65","w":333},"|":{"d":"57,10r0,-742r108,0r0,742r-108,0","w":222},"}":{"d":"325,-354r0,60v-40,0,-70,25,-70,65r0,194v0,82,-54,119,-128,119r-71,0r0,-60r49,0v28,0,42,-24,42,-50r0,-190v0,-66,22,-94,76,-107r0,-2v-54,-13,-76,-41,-76,-107r0,-190v0,-26,-14,-50,-42,-50r-49,0r0,-60r71,0v74,0,128,37,128,119r0,194v0,40,30,65,70,65","w":333},"~":{"d":"400,-173v-78,-1,-122,-71,-208,-69v-47,0,-71,37,-87,72r-35,-90v21,-42,57,-86,124,-86v74,0,162,68,213,68v40,0,65,-37,88,-72r35,90v-29,42,-62,87,-130,87","w":600},"\u00a0":{"w":305},"\u00a1":{"d":"93,180r26,-478r96,0r26,478r-148,0xm98,-542r138,0r0,142r-138,0r0,-142","w":333},"\u00a2":{"d":"231,-126r108,-300v-94,-19,-143,37,-143,166v0,63,13,107,35,134xm386,-394r-107,299v71,20,115,-23,143,-78r94,53v-59,111,-144,148,-272,122r-45,123r-58,0r52,-145v-71,-41,-111,-127,-111,-240v-1,-189,114,-301,292,-262r38,-106r58,0r-46,128v42,23,73,61,89,109r-103,40v-7,-16,-15,-30,-24,-43"},"\u00a3":{"d":"391,-314r-116,0v0,44,-7,126,-28,166v38,23,74,42,119,42v70,0,73,-58,78,-112r120,0v0,124,-54,228,-168,228v-96,0,-139,-21,-204,-62v-31,36,-81,64,-140,62r0,-124v75,-6,93,-83,93,-142v0,-20,-1,-39,-4,-58r-95,0r0,-94r81,0v-7,-38,-13,-78,-13,-125v0,-129,76,-199,220,-199v132,0,213,82,213,213r-120,0v-7,-63,-29,-105,-100,-105v-108,0,-88,136,-66,216r130,0r0,94"},"\u00a4":{"d":"565,-558r-52,52v60,82,61,208,0,290r52,52r-62,64r-55,-51v-78,57,-208,58,-286,0r-55,51r-62,-64r52,-52v-60,-82,-61,-208,0,-290r-52,-52r62,-64r55,51v78,-57,208,-58,286,0r55,-51xm165,-361v0,85,59,148,140,148v81,0,140,-63,140,-148v0,-85,-59,-148,-140,-148v-81,0,-140,63,-140,148"},"\u00a5":{"d":"362,-202r0,202r-114,0r0,-202r-180,0r0,-94r176,0r-34,-68r-142,0r0,-94r95,0r-135,-264r124,0r153,310r154,-310r124,0r-135,264r94,0r0,94r-141,0r-35,68r176,0r0,94r-180,0"},"\u00a6":{"d":"57,10r0,-282r108,0r0,282r-108,0xm57,-450r0,-282r108,0r0,282r-108,0","w":222},"\u00a7":{"d":"405,-652r-68,55v-21,-25,-47,-53,-82,-53v-27,0,-49,18,-49,42v0,80,244,198,244,333v0,44,-26,100,-108,114v30,32,51,72,51,117v0,83,-67,128,-144,128v-66,0,-119,-37,-160,-85r68,-53v19,29,47,56,83,56v34,0,59,-14,59,-50v0,-92,-249,-216,-249,-340v0,-65,46,-112,109,-116v-30,-36,-47,-65,-47,-112v0,-72,56,-116,134,-116v71,0,107,18,159,80xm144,-398v0,17,19,43,67,93v49,51,82,76,101,76v26,0,44,-16,44,-40v0,-24,-26,-50,-71,-98v-54,-58,-77,-71,-98,-71v-22,0,-43,17,-43,40","w":500},"\u00a8":{"d":"-16,-712r120,0r0,116r-120,0r0,-116xm174,-712r120,0r0,116r-120,0r0,-116","w":278},"\u00a9":{"d":"400,10v-200,0,-382,-138,-382,-371v0,-233,182,-371,382,-371v200,0,382,138,382,371v0,233,-182,371,-382,371xm684,-361v0,-177,-129,-299,-284,-299v-158,0,-284,122,-284,299v0,177,126,299,284,299v155,0,284,-122,284,-299xm504,-305r90,0v-16,102,-93,157,-179,157v-126,0,-209,-94,-209,-216v0,-124,79,-216,207,-216v89,0,161,52,177,152r-86,0v-9,-46,-48,-64,-91,-64v-65,0,-101,49,-101,126v0,74,41,130,103,130v49,0,84,-21,89,-69","w":800},"\u00aa":{"d":"287,-414r-84,0r-5,-28v-28,21,-58,34,-101,34v-61,0,-91,-40,-91,-83v0,-71,62,-108,188,-122v3,-36,-4,-56,-44,-55v-38,0,-58,12,-74,30r-52,-37v21,-33,77,-58,126,-57v91,2,130,32,130,126r0,147v0,16,1,31,7,45xm194,-496r0,-67v-49,9,-102,19,-102,63v0,20,11,28,33,28v26,0,58,-11,69,-24","w":300},"\u00ab":{"d":"60,-257r120,-163r112,0r-123,163r123,157r-112,0xm264,-257r120,-163r112,0r-123,163r123,157r-112,0","w":556},"\u00ac":{"d":"452,-96r0,-220r-412,0r0,-108r520,0r0,328r-108,0","w":600},"\u00ad":{"d":"289,-206r-245,0r0,-108r245,0r0,108","w":333},"\u00ae":{"d":"337,-329r0,171r-88,0r0,-407r153,0v106,0,166,30,166,123v0,75,-43,104,-112,108r106,176r-89,0r-95,-171r-41,0xm337,-497r0,100r77,0v48,0,66,-23,66,-54v0,-61,-84,-43,-143,-46xm400,10v-200,0,-382,-138,-382,-371v0,-233,182,-371,382,-371v200,0,382,138,382,371v0,233,-182,371,-382,371xm684,-361v0,-177,-129,-299,-284,-299v-158,0,-284,122,-284,299v0,177,126,299,284,299v155,0,284,-122,284,-299","w":800},"\u00af":{"d":"312,-618r-346,0r0,-74r346,0r0,74","w":278},"\u00b0":{"d":"200,-446v-80,0,-143,-63,-143,-143v0,-80,63,-143,143,-143v80,0,143,63,143,143v0,80,-63,143,-143,143xm121,-589v0,44,35,83,79,83v44,0,79,-39,79,-83v0,-44,-35,-83,-79,-83v-44,0,-79,39,-79,83","w":400},"\u00b1":{"d":"246,-388r0,-132r108,0r0,132r206,0r0,108r-206,0r0,133r-108,0r0,-133r-206,0r0,-108r206,0xm40,0r0,-108r520,0r0,108r-520,0","w":600},"\u00b2":{"d":"336,-292r-316,0r0,-72v14,-68,228,-164,228,-237v0,-38,-23,-59,-66,-59v-47,0,-74,28,-85,67r-75,-15v10,-72,77,-124,161,-124v83,0,153,44,153,125v0,105,-106,149,-216,243r216,0r0,72","w":366},"\u00b3":{"d":"120,-490r0,-66v67,0,120,-9,120,-55v0,-28,-24,-49,-63,-49v-40,0,-67,20,-90,43r-56,-48v46,-50,89,-67,149,-67v86,0,148,38,148,111v0,44,-25,76,-70,93r0,2v56,15,86,55,86,109v0,90,-83,131,-166,131v-66,0,-133,-30,-166,-91r68,-35v23,35,54,54,99,54v41,0,77,-23,77,-65v0,-65,-81,-67,-136,-67","w":366},"\u00b4":{"d":"152,-732r154,0r-146,146r-102,0","w":278},"\u00b5":{"d":"368,-520r124,0r0,520r-114,0r0,-56v-54,37,-110,75,-190,64r0,182r-124,0r0,-710r124,0r0,338v0,70,22,92,64,92v54,0,95,-31,116,-55r0,-375","w":556},"\u00b6":{"d":"220,68r0,-437v-118,0,-198,-66,-198,-173v0,-142,105,-180,210,-180r354,0r0,84r-73,0r0,706r-102,0r0,-706r-89,0r0,706r-102,0","w":620},"\u00b7":{"d":"228,-260v0,43,-35,76,-78,76v-42,0,-74,-34,-74,-76v0,-41,33,-76,74,-76v42,0,78,34,78,76","w":305},"\u00b8":{"d":"21,203r18,-42v33,12,132,40,130,-26v-2,-42,-56,-31,-85,-25r-20,-20r59,-90r53,0r-43,63v59,-16,124,5,124,71v0,67,-70,95,-127,95v-38,0,-74,-12,-109,-26","w":278},"\u00b9":{"d":"304,-292r-229,0r0,-66r67,0r0,-288r-77,0r0,-56v42,-2,80,-11,102,-30r67,0r0,374r70,0r0,66","w":366},"\u00ba":{"d":"210,-570v0,-67,-20,-98,-60,-98v-41,0,-61,31,-61,98v0,67,20,98,61,98v40,0,60,-31,60,-98xm3,-570v0,-99,55,-162,147,-162v91,0,146,63,146,162v0,99,-55,162,-146,162v-92,0,-147,-63,-147,-162","w":300},"\u00bb":{"d":"496,-263r-120,163r-112,0r123,-163r-123,-157r112,0xm292,-263r-120,163r-112,0r123,-163r-123,-157r112,0","w":556},"\u00bc":{"d":"733,-166r0,-176r-2,0r-125,176r127,0xm530,-100r0,-84r192,-250r103,0r0,268r63,0r0,66r-63,0r0,100r-92,0r0,-100r-203,0xm211,10r413,-742r88,0r-412,742r-89,0xm314,-292r-229,0r0,-66r67,0r0,-288r-77,0r0,-56v42,-2,80,-11,102,-30r67,0r0,374r70,0r0,66","w":916},"\u00bd":{"d":"195,10r413,-742r88,0r-412,742r-89,0xm314,-292r-229,0r0,-66r67,0r0,-288r-77,0r0,-56v42,-2,80,-11,102,-30r67,0r0,374r70,0r0,66xm848,0r-316,0r0,-72v14,-68,228,-164,228,-237v0,-38,-23,-59,-66,-59v-47,0,-74,28,-85,67r-75,-15v10,-72,77,-124,161,-124v83,0,153,44,153,125v0,105,-106,149,-216,243r216,0r0,72","w":916},"\u00be":{"d":"136,-490r0,-66v67,0,120,-9,120,-55v0,-28,-24,-49,-63,-49v-40,0,-67,20,-90,43r-56,-48v46,-50,89,-67,149,-67v86,0,148,38,148,111v0,44,-25,76,-70,93r0,2v56,15,86,55,86,109v0,90,-83,131,-166,131v-66,0,-133,-30,-166,-91r68,-35v23,35,54,54,99,54v41,0,77,-23,77,-65v0,-65,-81,-67,-136,-67xm225,10r413,-742r88,0r-412,742r-89,0xm530,-100r0,-84r192,-250r103,0r0,268r63,0r0,66r-63,0r0,100r-92,0r0,-100r-203,0xm733,-166r0,-176r-2,0r-125,176r127,0","w":916},"\u00bf":{"d":"47,30v0,-127,141,-175,144,-292r0,-37r110,0r0,55v4,106,-128,188,-128,280v0,30,30,54,63,54v47,0,77,-46,83,-88r115,32v-25,99,-99,156,-206,156v-98,0,-181,-56,-181,-160xm175,-542r138,0r0,142r-138,0r0,-142","w":444},"\u00c0":{"d":"308,-584r-85,314r168,0r-81,-314r-2,0xm13,0r208,-723r172,0r205,723r-137,0r-40,-156r-228,0r-43,156r-137,0xm139,-908r154,0r94,146r-102,0"},"\u00c1":{"d":"308,-584r-85,314r168,0r-81,-314r-2,0xm13,0r208,-723r172,0r205,723r-137,0r-40,-156r-228,0r-43,156r-137,0xm319,-908r154,0r-146,146r-102,0"},"\u00c2":{"d":"308,-584r-85,314r168,0r-81,-314r-2,0xm13,0r208,-723r172,0r205,723r-137,0r-40,-156r-228,0r-43,156r-137,0xm243,-908r124,0r115,146r-113,0r-63,-82r-64,82r-112,0"},"\u00c3":{"d":"308,-584r-85,314r168,0r-81,-314r-2,0xm13,0r208,-723r172,0r205,723r-137,0r-40,-156r-228,0r-43,156r-137,0xm424,-898r65,0v-13,62,-40,122,-111,122v-50,0,-107,-35,-147,-35v-27,0,-38,18,-46,41r-62,0v9,-62,45,-122,114,-122v54,0,108,37,140,37v24,0,42,-20,47,-43"},"\u00c4":{"d":"308,-584r-85,314r168,0r-81,-314r-2,0xm13,0r208,-723r172,0r205,723r-137,0r-40,-156r-228,0r-43,156r-137,0xm151,-888r120,0r0,116r-120,0r0,-116xm341,-888r120,0r0,116r-120,0r0,-116"},"\u00c5":{"d":"308,-584r-85,314r168,0r-81,-314r-2,0xm13,0r208,-723r172,0r205,723r-137,0r-40,-156r-228,0r-43,156r-137,0xm198,-869v0,-60,48,-108,108,-108v60,0,108,48,108,108v0,60,-48,108,-108,108v-60,0,-108,-48,-108,-108xm252,-869v0,30,24,54,54,54v30,0,54,-24,54,-54v0,-30,-24,-54,-54,-54v-30,0,-54,24,-54,54"},"\u00c6":{"d":"154,0r-147,0r363,-722r525,0r0,116r-303,0r0,172r210,0r0,116r-210,0r0,202r314,0r0,116r-452,0r0,-169r-220,0xm291,-285r163,0r0,-337r-2,0","w":944},"\u00c7":{"d":"572,-542r-125,30v-20,-61,-63,-104,-131,-104v-92,0,-147,86,-148,255v-1,169,48,255,152,255v62,0,100,-22,141,-107r128,34v-40,117,-125,180,-243,188r-37,54v59,-16,124,5,124,71v0,67,-70,95,-127,95v-38,0,-74,-12,-109,-26r18,-42v33,12,132,40,130,-26v-2,-42,-56,-31,-85,-25r-20,-20r53,-81v-167,-13,-263,-146,-263,-370v0,-236,106,-371,290,-371v138,0,218,62,252,190"},"\u00c8":{"d":"573,0r-489,0r0,-722r478,0r0,116r-340,0r0,172r247,0r0,116r-247,0r0,202r351,0r0,116xm158,-908r154,0r94,146r-102,0"},"\u00c9":{"d":"573,0r-489,0r0,-722r478,0r0,116r-340,0r0,172r247,0r0,116r-247,0r0,202r351,0r0,116xm338,-908r154,0r-146,146r-102,0"},"\u00ca":{"d":"573,0r-489,0r0,-722r478,0r0,116r-340,0r0,172r247,0r0,116r-247,0r0,202r351,0r0,116xm262,-908r124,0r115,146r-113,0r-63,-82r-64,82r-112,0"},"\u00cb":{"d":"573,0r-489,0r0,-722r478,0r0,116r-340,0r0,172r247,0r0,116r-247,0r0,202r351,0r0,116xm170,-888r120,0r0,116r-120,0r0,-116xm360,-888r120,0r0,116r-120,0r0,-116"},"\u00cc":{"d":"235,0r-138,0r0,-722r138,0r0,722xm-3,-908r154,0r94,146r-102,0","w":333},"\u00cd":{"d":"235,0r-138,0r0,-722r138,0r0,722xm177,-908r154,0r-146,146r-102,0","w":333},"\u00ce":{"d":"235,0r-138,0r0,-722r138,0r0,722xm101,-908r124,0r115,146r-113,0r-63,-82r-64,82r-112,0","w":333},"\u00cf":{"d":"235,0r-138,0r0,-722r138,0r0,722xm9,-888r120,0r0,116r-120,0r0,-116xm199,-888r120,0r0,116r-120,0r0,-116","w":333},"\u00d0":{"d":"78,0r0,-310r-67,0r0,-124r67,0r0,-288r239,0v191,0,324,106,324,361v0,255,-133,361,-324,361r-239,0xm216,-606r0,172r149,0r0,124r-149,0r0,194r92,0v158,0,195,-116,195,-245v0,-129,-37,-245,-195,-245r-92,0","w":667},"\u00d1":{"d":"211,0r-130,0r0,-722r144,0r284,492r2,0r0,-492r130,0r0,722r-133,0r-295,-514r-2,0r0,514xm479,-898r65,0v-13,62,-40,122,-111,122v-50,0,-107,-35,-147,-35v-27,0,-38,18,-46,41r-62,0v9,-62,45,-122,114,-122v54,0,108,37,140,37v24,0,42,-20,47,-43","w":722},"\u00d2":{"d":"498,-361v0,-169,-52,-255,-165,-255v-113,0,-165,86,-165,255v0,169,51,255,165,255v113,0,165,-86,165,-255xm636,-361v0,236,-106,371,-303,371v-197,0,-303,-135,-303,-371v0,-236,106,-371,303,-371v197,0,303,135,303,371xm167,-908r154,0r94,146r-102,0","w":667},"\u00d3":{"d":"498,-361v0,-169,-52,-255,-165,-255v-113,0,-165,86,-165,255v0,169,51,255,165,255v113,0,165,-86,165,-255xm636,-361v0,236,-106,371,-303,371v-197,0,-303,-135,-303,-371v0,-236,106,-371,303,-371v197,0,303,135,303,371xm347,-908r154,0r-146,146r-102,0","w":667},"\u00d4":{"d":"498,-361v0,-169,-52,-255,-165,-255v-113,0,-165,86,-165,255v0,169,51,255,165,255v113,0,165,-86,165,-255xm636,-361v0,236,-106,371,-303,371v-197,0,-303,-135,-303,-371v0,-236,106,-371,303,-371v197,0,303,135,303,371xm271,-908r124,0r115,146r-113,0r-63,-82r-64,82r-112,0","w":667},"\u00d5":{"d":"498,-361v0,-169,-52,-255,-165,-255v-113,0,-165,86,-165,255v0,169,51,255,165,255v113,0,165,-86,165,-255xm636,-361v0,236,-106,371,-303,371v-197,0,-303,-135,-303,-371v0,-236,106,-371,303,-371v197,0,303,135,303,371xm452,-898r65,0v-13,62,-40,122,-111,122v-50,0,-107,-35,-147,-35v-27,0,-38,18,-46,41r-62,0v9,-62,45,-122,114,-122v54,0,108,37,140,37v24,0,42,-20,47,-43","w":667},"\u00d6":{"d":"498,-361v0,-169,-52,-255,-165,-255v-113,0,-165,86,-165,255v0,169,51,255,165,255v113,0,165,-86,165,-255xm636,-361v0,236,-106,371,-303,371v-197,0,-303,-135,-303,-371v0,-236,106,-371,303,-371v197,0,303,135,303,371xm179,-888r120,0r0,116r-120,0r0,-116xm369,-888r120,0r0,116r-120,0r0,-116","w":667},"\u00d7":{"d":"300,-184r-183,184r-77,-78r183,-183r-183,-183r77,-76r183,182r183,-182r77,76r-183,183r183,183r-77,78","w":600},"\u00d8":{"d":"480,-499r-242,363v25,20,56,30,95,30v113,0,165,-86,165,-255v0,-56,-6,-102,-18,-138xm183,-226r242,-362v-25,-19,-55,-28,-92,-28v-113,0,-165,86,-165,255v0,54,4,100,15,135xm656,-762r-91,136v47,63,71,153,71,265v0,236,-106,371,-303,371v-65,0,-120,-14,-164,-43r-66,99r-114,0r110,-165v-46,-63,-69,-151,-69,-262v0,-236,106,-371,303,-371v63,0,117,14,161,42r47,-72r115,0","w":667},"\u00d9":{"d":"500,-264r0,-458r138,0r0,452v0,211,-130,280,-277,280v-147,0,-277,-69,-277,-280r0,-452r138,0r0,458v0,117,46,158,139,158v93,0,139,-41,139,-158xm191,-908r154,0r94,146r-102,0","w":722},"\u00da":{"d":"500,-264r0,-458r138,0r0,452v0,211,-130,280,-277,280v-147,0,-277,-69,-277,-280r0,-452r138,0r0,458v0,117,46,158,139,158v93,0,139,-41,139,-158xm371,-908r154,0r-146,146r-102,0","w":722},"\u00db":{"d":"500,-264r0,-458r138,0r0,452v0,211,-130,280,-277,280v-147,0,-277,-69,-277,-280r0,-452r138,0r0,458v0,117,46,158,139,158v93,0,139,-41,139,-158xm295,-908r124,0r115,146r-113,0r-63,-82r-64,82r-112,0","w":722},"\u00dc":{"d":"500,-264r0,-458r138,0r0,452v0,211,-130,280,-277,280v-147,0,-277,-69,-277,-280r0,-452r138,0r0,458v0,117,46,158,139,158v93,0,139,-41,139,-158xm203,-888r120,0r0,116r-120,0r0,-116xm393,-888r120,0r0,116r-120,0r0,-116","w":722},"\u00dd":{"d":"154,-722r124,286r124,-286r144,0r-199,434r0,288r-138,0r0,-288r-199,-434r144,0xm291,-908r154,0r-146,146r-102,0","w":556},"\u00de":{"d":"206,0r-138,0r0,-722r138,0r0,133r126,0v156,0,255,65,255,215v0,150,-99,215,-255,215r-126,0r0,159xm206,-477r0,206r110,0v104,0,133,-39,133,-103v0,-64,-29,-103,-133,-103r-110,0"},"\u00df":{"d":"177,0r-124,0r0,-550v0,-98,61,-172,187,-172v132,0,196,68,196,176v0,70,-16,118,-76,148r0,2v70,20,120,82,120,198v0,158,-72,208,-179,208v-21,0,-63,-10,-81,-24r30,-88v66,32,106,-1,106,-102v0,-74,-18,-132,-90,-132r-26,0r0,-100v53,4,76,-21,76,-89v0,-65,-26,-97,-74,-97v-44,0,-65,24,-65,76r0,546","w":500},"\u00e0":{"d":"450,0r-121,0r-8,-45v-50,34,-97,55,-162,55v-94,0,-141,-67,-141,-138v0,-118,96,-180,298,-204r0,-44v0,-40,-32,-62,-76,-62v-58,0,-90,31,-114,64r-80,-61v32,-55,118,-97,194,-95v140,3,200,54,200,210r0,245v0,26,2,52,10,75xm316,-137r0,-112v-83,16,-174,33,-174,106v0,39,25,61,60,61v39,0,88,-33,114,-55xm83,-732r154,0r94,146r-102,0","w":500},"\u00e1":{"d":"450,0r-121,0r-8,-45v-50,34,-97,55,-162,55v-94,0,-141,-67,-141,-138v0,-118,96,-180,298,-204r0,-44v0,-40,-32,-62,-76,-62v-58,0,-90,31,-114,64r-80,-61v32,-55,118,-97,194,-95v140,3,200,54,200,210r0,245v0,26,2,52,10,75xm316,-137r0,-112v-83,16,-174,33,-174,106v0,39,25,61,60,61v39,0,88,-33,114,-55xm263,-732r154,0r-146,146r-102,0","w":500},"\u00e2":{"d":"450,0r-121,0r-8,-45v-50,34,-97,55,-162,55v-94,0,-141,-67,-141,-138v0,-118,96,-180,298,-204r0,-44v0,-40,-32,-62,-76,-62v-58,0,-90,31,-114,64r-80,-61v32,-55,118,-97,194,-95v140,3,200,54,200,210r0,245v0,26,2,52,10,75xm316,-137r0,-112v-83,16,-174,33,-174,106v0,39,25,61,60,61v39,0,88,-33,114,-55xm187,-732r124,0r115,146r-113,0r-63,-82r-64,82r-112,0","w":500},"\u00e3":{"d":"450,0r-121,0r-8,-45v-50,34,-97,55,-162,55v-94,0,-141,-67,-141,-138v0,-118,96,-180,298,-204r0,-44v0,-40,-32,-62,-76,-62v-58,0,-90,31,-114,64r-80,-61v32,-55,118,-97,194,-95v140,3,200,54,200,210r0,245v0,26,2,52,10,75xm316,-137r0,-112v-83,16,-174,33,-174,106v0,39,25,61,60,61v39,0,88,-33,114,-55xm368,-722r65,0v-13,62,-40,122,-111,122v-50,0,-107,-35,-147,-35v-27,0,-38,18,-46,41r-62,0v9,-62,45,-122,114,-122v54,0,108,37,140,37v24,0,42,-20,47,-43","w":500},"\u00e4":{"d":"450,0r-121,0r-8,-45v-50,34,-97,55,-162,55v-94,0,-141,-67,-141,-138v0,-118,96,-180,298,-204r0,-44v0,-40,-32,-62,-76,-62v-58,0,-90,31,-114,64r-80,-61v32,-55,118,-97,194,-95v140,3,200,54,200,210r0,245v0,26,2,52,10,75xm316,-137r0,-112v-83,16,-174,33,-174,106v0,39,25,61,60,61v39,0,88,-33,114,-55xm95,-712r120,0r0,116r-120,0r0,-116xm285,-712r120,0r0,116r-120,0r0,-116","w":500},"\u00e5":{"d":"450,0r-121,0r-8,-45v-50,34,-97,55,-162,55v-94,0,-141,-67,-141,-138v0,-118,96,-180,298,-204r0,-44v0,-40,-32,-62,-76,-62v-58,0,-90,31,-114,64r-80,-61v32,-55,118,-97,194,-95v140,3,200,54,200,210r0,245v0,26,2,52,10,75xm316,-137r0,-112v-83,16,-174,33,-174,106v0,39,25,61,60,61v39,0,88,-33,114,-55xm142,-693v0,-60,48,-108,108,-108v60,0,108,48,108,108v0,60,-48,108,-108,108v-60,0,-108,-48,-108,-108xm196,-693v0,30,24,54,54,54v30,0,54,-24,54,-54v0,-30,-24,-54,-54,-54v-30,0,-54,24,-54,54","w":500},"\u00e6":{"d":"320,-137r0,-112v-87,16,-178,33,-178,106v0,39,25,61,60,61v39,0,88,-33,118,-55xm434,-324r202,0v-2,-72,-40,-114,-100,-114v-62,0,-100,42,-102,114xm750,-240r-316,0r0,52v0,58,44,98,108,98v60,0,87,-26,118,-62r90,56v-48,74,-118,106,-218,106v-56,0,-122,-17,-163,-81v-99,71,-155,81,-210,81v-94,0,-141,-67,-141,-138v0,-118,96,-180,302,-204r0,-44v0,-40,-36,-62,-80,-62v-58,0,-90,31,-114,64r-80,-61v32,-55,118,-97,194,-95v77,2,123,22,151,56v34,-36,82,-56,141,-56v142,-1,218,114,218,239r0,51","w":778},"\u00e7":{"d":"455,-391r-103,40v-20,-44,-42,-79,-102,-79v-69,0,-102,54,-102,170v0,116,33,170,106,170v54,0,85,-37,110,-83r94,53v-44,82,-99,122,-177,129r-37,54v59,-16,124,5,124,71v0,67,-70,95,-127,95v-38,0,-74,-12,-109,-26r18,-42v33,12,132,40,130,-26v-2,-42,-56,-31,-85,-25r-20,-20r53,-81v-128,-11,-204,-113,-204,-269v0,-165,85,-270,226,-270v98,0,176,52,205,139","w":500},"\u00e8":{"d":"148,-324r200,0v-2,-72,-40,-114,-100,-114v-60,0,-98,42,-100,114xm462,-240r-314,0v2,108,50,150,108,150v58,0,85,-26,116,-62r90,56v-48,74,-118,106,-218,106v-135,0,-220,-105,-220,-270v0,-165,85,-270,226,-270v136,0,212,114,212,239r0,51xm83,-732r154,0r94,146r-102,0","w":500},"\u00e9":{"d":"148,-324r200,0v-2,-72,-40,-114,-100,-114v-60,0,-98,42,-100,114xm462,-240r-314,0v2,108,50,150,108,150v58,0,85,-26,116,-62r90,56v-48,74,-118,106,-218,106v-135,0,-220,-105,-220,-270v0,-165,85,-270,226,-270v136,0,212,114,212,239r0,51xm263,-732r154,0r-146,146r-102,0","w":500},"\u00ea":{"d":"148,-324r200,0v-2,-72,-40,-114,-100,-114v-60,0,-98,42,-100,114xm462,-240r-314,0v2,108,50,150,108,150v58,0,85,-26,116,-62r90,56v-48,74,-118,106,-218,106v-135,0,-220,-105,-220,-270v0,-165,85,-270,226,-270v136,0,212,114,212,239r0,51xm187,-732r124,0r115,146r-113,0r-63,-82r-64,82r-112,0","w":500},"\u00eb":{"d":"148,-324r200,0v-2,-72,-40,-114,-100,-114v-60,0,-98,42,-100,114xm462,-240r-314,0v2,108,50,150,108,150v58,0,85,-26,116,-62r90,56v-48,74,-118,106,-218,106v-135,0,-220,-105,-220,-270v0,-165,85,-270,226,-270v136,0,212,114,212,239r0,51xm95,-712r120,0r0,116r-120,0r0,-116xm285,-712r120,0r0,116r-120,0r0,-116","w":500},"\u00ec":{"d":"201,-520r0,520r-124,0r0,-520r124,0xm-26,-732r154,0r94,146r-102,0","w":278},"\u00ed":{"d":"201,-520r0,520r-124,0r0,-520r124,0xm154,-732r154,0r-146,146r-102,0","w":278},"\u00ee":{"d":"201,-520r0,520r-124,0r0,-520r124,0xm78,-732r124,0r115,146r-113,0r-63,-82r-64,82r-112,0","w":278},"\u00ef":{"d":"201,-520r0,520r-124,0r0,-520r124,0xm-14,-712r120,0r0,116r-120,0r0,-116xm176,-712r120,0r0,116r-120,0r0,-116","w":278},"\u00f0":{"d":"250,-90v69,0,102,-54,102,-154v0,-100,-33,-154,-102,-154v-69,0,-102,54,-102,154v0,100,33,154,102,154xm138,-688r108,-34v20,14,38,30,56,48r100,-48r36,64r-88,43v78,105,126,246,126,371v0,149,-85,254,-226,254v-141,0,-226,-105,-226,-254v0,-149,85,-254,226,-254v13,0,25,1,42,5v-11,-27,-26,-52,-42,-74r-102,49r-36,-64r91,-44v-20,-23,-42,-43,-65,-62","w":500},"\u00f1":{"d":"188,0r-124,0r0,-520r114,0r0,56v46,-32,99,-66,160,-66v104,0,154,68,154,174r0,356r-124,0r0,-338v0,-70,-22,-92,-64,-92v-54,0,-95,31,-116,55r0,375xm391,-722r65,0v-13,62,-40,122,-111,122v-50,0,-107,-35,-147,-35v-27,0,-38,18,-46,41r-62,0v9,-62,45,-122,114,-122v54,0,108,37,140,37v24,0,42,-20,47,-43","w":556},"\u00f2":{"d":"352,-260v0,-116,-33,-170,-102,-170v-69,0,-102,54,-102,170v0,116,33,170,102,170v69,0,102,-54,102,-170xm24,-260v0,-165,85,-270,226,-270v141,0,226,105,226,270v0,165,-85,270,-226,270v-141,0,-226,-105,-226,-270xm80,-732r154,0r94,146r-102,0","w":500},"\u00f3":{"d":"352,-260v0,-116,-33,-170,-102,-170v-69,0,-102,54,-102,170v0,116,33,170,102,170v69,0,102,-54,102,-170xm24,-260v0,-165,85,-270,226,-270v141,0,226,105,226,270v0,165,-85,270,-226,270v-141,0,-226,-105,-226,-270xm260,-732r154,0r-146,146r-102,0","w":500},"\u00f4":{"d":"352,-260v0,-116,-33,-170,-102,-170v-69,0,-102,54,-102,170v0,116,33,170,102,170v69,0,102,-54,102,-170xm24,-260v0,-165,85,-270,226,-270v141,0,226,105,226,270v0,165,-85,270,-226,270v-141,0,-226,-105,-226,-270xm184,-732r124,0r115,146r-113,0r-63,-82r-64,82r-112,0","w":500},"\u00f5":{"d":"352,-260v0,-116,-33,-170,-102,-170v-69,0,-102,54,-102,170v0,116,33,170,102,170v69,0,102,-54,102,-170xm24,-260v0,-165,85,-270,226,-270v141,0,226,105,226,270v0,165,-85,270,-226,270v-141,0,-226,-105,-226,-270xm365,-722r65,0v-13,62,-40,122,-111,122v-50,0,-107,-35,-147,-35v-27,0,-38,18,-46,41r-62,0v9,-62,45,-122,114,-122v54,0,108,37,140,37v24,0,42,-20,47,-43","w":500},"\u00f6":{"d":"352,-260v0,-116,-33,-170,-102,-170v-69,0,-102,54,-102,170v0,116,33,170,102,170v69,0,102,-54,102,-170xm24,-260v0,-165,85,-270,226,-270v141,0,226,105,226,270v0,165,-85,270,-226,270v-141,0,-226,-105,-226,-270xm92,-712r120,0r0,116r-120,0r0,-116xm282,-712r120,0r0,116r-120,0r0,-116","w":500},"\u00f7":{"d":"560,-206r-520,0r0,-108r520,0r0,108xm389,-449v0,44,-41,88,-90,88v-46,0,-87,-44,-87,-88v0,-44,41,-89,87,-89v49,0,90,45,90,89xm389,-70v0,44,-41,88,-90,88v-46,0,-87,-44,-87,-88v0,-44,41,-89,87,-89v49,0,90,45,90,89","w":600},"\u00f8":{"d":"344,-342r-134,244v11,5,25,8,40,8v69,0,102,-54,102,-170v0,-32,-3,-59,-8,-82xm160,-7r-59,107r-91,0r84,-153v-46,-48,-70,-119,-70,-207v0,-165,85,-270,226,-270v36,0,69,7,96,20r56,-102r91,0r-82,149v42,47,65,117,65,203v0,165,-85,270,-226,270v-33,0,-63,-6,-90,-17xm158,-169r138,-250v-13,-7,-28,-11,-46,-11v-69,0,-102,54,-102,170v0,36,3,66,10,91","w":500},"\u00f9":{"d":"368,-520r124,0r0,520r-114,0r0,-56v-46,32,-99,66,-160,66v-104,0,-154,-68,-154,-174r0,-356r124,0r0,338v0,70,22,92,64,92v54,0,95,-31,116,-55r0,-375xm111,-732r154,0r94,146r-102,0","w":556},"\u00fa":{"d":"368,-520r124,0r0,520r-114,0r0,-56v-46,32,-99,66,-160,66v-104,0,-154,-68,-154,-174r0,-356r124,0r0,338v0,70,22,92,64,92v54,0,95,-31,116,-55r0,-375xm291,-732r154,0r-146,146r-102,0","w":556},"\u00fb":{"d":"368,-520r124,0r0,520r-114,0r0,-56v-46,32,-99,66,-160,66v-104,0,-154,-68,-154,-174r0,-356r124,0r0,338v0,70,22,92,64,92v54,0,95,-31,116,-55r0,-375xm215,-732r124,0r115,146r-113,0r-63,-82r-64,82r-112,0","w":556},"\u00fc":{"d":"368,-520r124,0r0,520r-114,0r0,-56v-46,32,-99,66,-160,66v-104,0,-154,-68,-154,-174r0,-356r124,0r0,338v0,70,22,92,64,92v54,0,95,-31,116,-55r0,-375xm123,-712r120,0r0,116r-120,0r0,-116xm313,-712r120,0r0,116r-120,0r0,-116","w":556},"\u00fd":{"d":"10,186r0,-102v57,10,116,5,134,-37v11,-25,20,-40,20,-61v0,-19,-10,-41,-16,-62r-139,-444r125,0r86,320r2,0r89,-320r124,0r-164,521v-64,173,-111,201,-261,185xm235,-732r154,0r-146,146r-102,0","w":444},"\u00fe":{"d":"64,190r0,-912r119,0r0,250v36,-35,77,-58,133,-58v138,0,208,122,208,284v0,128,-74,256,-208,256v-42,0,-101,-25,-126,-58r-2,0r0,238r-124,0xm188,-384r0,250v25,23,56,44,96,44v74,0,116,-60,116,-170v0,-110,-42,-170,-116,-170v-53,0,-70,26,-96,46","w":556},"\u00ff":{"d":"10,186r0,-102v57,10,116,5,134,-37v11,-25,20,-40,20,-61v0,-19,-10,-41,-16,-62r-139,-444r125,0r86,320r2,0r89,-320r124,0r-164,521v-64,173,-111,201,-261,185xm67,-712r120,0r0,116r-120,0r0,-116xm257,-712r120,0r0,116r-120,0r0,-116","w":444},"\u0131":{"d":"201,-520r0,520r-124,0r0,-520r124,0","w":278},"\u0141":{"d":"216,-346r0,230r314,0r0,116r-452,0r0,-290r-78,32r0,-100r78,-32r0,-332r138,0r0,276r158,-64r0,100","w":556},"\u0142":{"d":"201,-379r0,379r-124,0r0,-317r-77,39r0,-100r77,-39r0,-305r124,0r0,243r77,-39r0,100","w":278},"\u0152":{"d":"459,-266r0,-190v0,-128,-39,-160,-139,-160v-92,0,-169,38,-169,255v0,217,77,255,169,255v100,0,139,-32,139,-160xm342,-732v48,0,106,10,158,10r403,0r0,116r-306,0r0,172r216,0r0,116r-216,0r0,202r323,0r0,116r-403,0v-59,0,-116,10,-175,10v-233,0,-329,-129,-329,-371v0,-242,96,-371,329,-371","w":944},"\u0153":{"d":"136,-260v0,116,33,170,98,170v65,0,98,-54,98,-170v0,-116,-33,-170,-98,-170v-65,0,-98,54,-98,170xm446,-324r190,0v-2,-72,-40,-114,-95,-114v-55,0,-93,42,-95,114xm750,-240r-304,0v2,108,36,150,110,150v46,0,73,-26,104,-62r90,56v-48,74,-118,106,-202,106v-68,0,-119,-26,-153,-69v-36,47,-93,69,-163,69v-135,0,-220,-105,-220,-270v0,-165,85,-270,220,-270v68,0,124,21,161,67v35,-44,86,-67,147,-67v134,-1,210,114,210,239r0,51","w":778},"\u0160":{"d":"545,-569r-126,39v-21,-56,-64,-94,-129,-94v-60,0,-103,24,-103,80v0,124,372,98,372,332v0,148,-93,222,-253,222v-118,0,-229,-66,-270,-171r114,-50v33,68,76,113,157,113v69,0,122,-26,122,-96v0,-142,-372,-114,-372,-336v0,-129,108,-202,233,-202v116,0,212,58,255,163xm367,-762r-124,0r-113,-146r112,0r64,82r63,-82r113,0"},"\u0161":{"d":"395,-451r-78,68v-25,-27,-58,-55,-97,-55v-48,0,-70,20,-70,51v0,89,260,51,260,241v0,108,-82,156,-191,156v-83,0,-151,-37,-197,-105r83,-62v29,40,68,75,121,75v44,0,74,-24,74,-59v0,-89,-260,-57,-260,-238v0,-97,82,-151,172,-151v69,0,138,26,183,79xm283,-586r-124,0r-113,-146r112,0r64,82r63,-82r113,0","w":444},"\u0178":{"d":"154,-722r124,286r124,-286r144,0r-199,434r0,288r-138,0r0,-288r-199,-434r144,0xm123,-888r120,0r0,116r-120,0r0,-116xm313,-888r120,0r0,116r-120,0r0,-116","w":556},"\u017d":{"d":"530,-116r0,116r-514,0r0,-117r337,-489r-314,0r0,-116r488,0r0,110r-349,496r352,0xm339,-762r-124,0r-113,-146r112,0r64,82r63,-82r113,0","w":556},"\u017e":{"d":"39,-420r0,-100r385,0r0,88r-250,332r252,0r0,100r-408,0r0,-88r251,-332r-230,0xm283,-586r-124,0r-113,-146r112,0r64,82r63,-82r113,0","w":444},"\u0192":{"d":"58,182r19,-106v14,4,29,10,54,10v46,0,52,-28,131,-452r-97,0r0,-94r119,0v43,-230,85,-298,269,-263r-16,106v-95,-37,-114,24,-130,157r103,0r0,94r-120,0v-75,352,-65,549,-261,556v-28,1,-50,-4,-71,-8"},"\u02c6":{"d":"76,-732r124,0r115,146r-113,0r-63,-82r-64,82r-112,0","w":278},"\u02c7":{"d":"200,-586r-124,0r-113,-146r112,0r64,82r63,-82r113,0","w":278},"\u02c9":{"d":"312,-618r-346,0r0,-74r346,0r0,74","w":278},"\u02d8":{"d":"242,-732r66,0v-14,99,-77,146,-176,146v-94,0,-156,-50,-162,-146r66,0v6,55,57,70,104,70v54,0,90,-15,102,-70","w":278},"\u02d9":{"d":"79,-712r120,0r0,116r-120,0r0,-116","w":278},"\u02da":{"d":"31,-693v0,-60,48,-108,108,-108v60,0,108,48,108,108v0,60,-48,108,-108,108v-60,0,-108,-48,-108,-108xm85,-693v0,30,24,54,54,54v30,0,54,-24,54,-54v0,-30,-24,-54,-54,-54v-30,0,-54,24,-54,54","w":278},"\u02db":{"d":"258,-21r0,12v-53,20,-141,58,-141,125v0,31,23,48,52,48v32,0,70,-24,96,-41r20,36v-45,30,-95,57,-151,57v-57,0,-105,-29,-105,-89v0,-101,139,-137,229,-148","w":278},"\u02dc":{"d":"257,-722r65,0v-13,62,-40,122,-111,122v-50,0,-107,-35,-147,-35v-27,0,-38,18,-46,41r-62,0v9,-62,45,-122,114,-122v54,0,108,37,140,37v24,0,42,-20,47,-43","w":278},"\u02dd":{"d":"32,-732r154,0r-132,146r-98,0xm226,-732r154,0r-146,146r-102,0","w":278},"\u03a9":{"d":"202,-91r0,-3v-71,-58,-141,-160,-141,-297v0,-188,139,-335,334,-335v205,0,326,166,326,330v0,140,-70,245,-142,302r0,3r157,0r0,91r-280,0r0,-68v76,-46,149,-143,149,-306v0,-129,-74,-260,-211,-260v-130,0,-216,115,-216,264v0,150,72,259,149,302r0,68r-281,0r0,-91r156,0","w":785},"\u03bc":{"d":"368,-520r124,0r0,520r-114,0r0,-56v-54,37,-110,75,-190,64r0,182r-124,0r0,-710r124,0r0,338v0,70,22,92,64,92v54,0,95,-31,116,-55r0,-375","w":556},"\u03c0":{"d":"614,-440r-81,0v3,133,-9,345,15,440r-112,0v-12,-19,-19,-70,-19,-149r0,-291r-169,0v-5,121,-35,342,-73,440r-113,0v38,-113,69,-317,72,-440v-58,0,-90,4,-114,12r-14,-75v27,-19,79,-32,169,-32r449,0","w":641},"\u2013":{"d":"500,-218r-500,0r0,-84r500,0r0,84","w":500},"\u2014":{"d":"1000,-218r-1000,0r0,-84r1000,0r0,84","w":1000},"\u2018":{"d":"199,-732r-51,150r60,0r0,142r-138,0r0,-142r64,-150r65,0","w":278},"\u2019":{"d":"79,-430r51,-150r-60,0r0,-142r138,0r0,142r-64,150r-65,0","w":278},"\u201a":{"d":"79,150r51,-150r-60,0r0,-142r138,0r0,142r-64,150r-65,0","w":278},"\u201c":{"d":"394,-732r-51,150r60,0r0,142r-138,0r0,-142r64,-150r65,0xm171,-732r-51,150r60,0r0,142r-138,0r0,-142r64,-150r65,0","w":444},"\u201d":{"d":"50,-430r51,-150r-60,0r0,-142r138,0r0,142r-64,150r-65,0xm273,-430r51,-150r-60,0r0,-142r138,0r0,142r-64,150r-65,0","w":444},"\u201e":{"d":"50,150r51,-150r-60,0r0,-142r138,0r0,142r-64,150r-65,0xm273,150r51,-150r-60,0r0,-142r138,0r0,142r-64,150r-65,0","w":444},"\u2020":{"d":"432,-570r0,106r-158,-30r26,161r-32,407r-36,0r-32,-407r26,-161r-158,30r0,-106r158,30r-26,-192r100,0r-26,192","w":500},"\u2021":{"d":"200,-329r26,-173r-158,30r0,-106r158,30r-26,-184r100,0r-26,184r158,-30r0,106r-158,-30r26,173r-26,173r158,-30r0,106r-158,-30r26,184r-100,0r26,-184r-158,30r0,-106r158,30","w":500},"\u2022":{"d":"69,-361v0,-100,80,-180,180,-180v100,0,181,80,181,180v0,100,-81,181,-181,181v-100,0,-180,-81,-180,-181","w":500},"\u2026":{"d":"904,0r-142,0r0,-142r142,0r0,142xm571,0r-142,0r0,-142r142,0r0,142xm238,0r-142,0r0,-142r142,0r0,142","w":1000},"\u2030":{"d":"162,-722v82,0,148,67,148,148v0,81,-66,148,-148,148v-82,0,-148,-67,-148,-148v0,-81,66,-148,148,-148xm162,-640v-38,0,-66,29,-66,66v0,37,28,66,66,66v38,0,66,-29,66,-66v0,-37,-28,-66,-66,-66xm477,-214v-38,0,-66,29,-66,66v0,37,28,66,66,66v38,0,66,-29,66,-66v0,-37,-28,-66,-66,-66xm477,-296v82,0,148,67,148,148v0,81,-66,148,-148,148v-82,0,-148,-67,-148,-148v0,-81,66,-148,148,-148xm838,-214v-38,0,-66,29,-66,66v0,37,28,66,66,66v38,0,66,-29,66,-66v0,-37,-28,-66,-66,-66xm838,-296v82,0,148,67,148,148v0,81,-66,148,-148,148v-82,0,-148,-67,-148,-148v0,-81,66,-148,148,-148xm76,10r408,-742r77,0r-408,742r-77,0","w":1000},"\u2039":{"d":"41,-257r120,-163r112,0r-123,163r123,157r-112,0","w":333},"\u203a":{"d":"172,-420r120,163r-120,157r-112,0r123,-157r-123,-163r112,0","w":333},"\u2044":{"d":"-167,10r413,-742r88,0r-412,742r-89,0","w":167},"\u20ac":{"d":"58,-318r50,0r-1,-68r-75,0r25,-94r60,0v31,-162,130,-252,281,-252v85,0,145,28,185,65r-34,123v-48,-51,-89,-76,-156,-76v-70,0,-122,47,-145,140r284,0r-26,94r-270,0r0,68r251,0r-25,94r-213,0v19,72,62,122,155,122v45,0,102,-10,145,-47r0,125v-42,22,-97,34,-147,34v-166,0,-250,-98,-281,-234r-89,0"},"\u2113":{"d":"306,6v-128,0,-182,-82,-189,-186r-58,45r-31,-62v31,-25,61,-46,88,-70r0,-263v0,-188,86,-260,183,-260v101,0,147,81,147,178v0,126,-86,242,-220,365r0,35v2,86,50,127,106,127v63,0,115,-51,144,-99r49,48v-54,101,-134,142,-219,142xm226,-540r0,190v82,-88,143,-180,143,-263v0,-58,-18,-96,-66,-96v-36,0,-77,39,-77,169","w":549},"\u2122":{"d":"594,-722r93,258r2,0r92,-258r149,0r0,412r-100,0r0,-281r-4,-2r-100,283r-77,0r-100,-282r-4,0r0,282r-100,0r0,-412r149,0xm363,-722r0,84r-121,0r0,328r-100,0r0,-328r-120,0r0,-84r341,0","w":1000},"\u2126":{"d":"202,-91r0,-3v-71,-58,-141,-160,-141,-297v0,-188,139,-335,334,-335v205,0,326,166,326,330v0,140,-70,245,-142,302r0,3r157,0r0,91r-280,0r0,-68v76,-46,149,-143,149,-306v0,-129,-74,-260,-211,-260v-130,0,-216,115,-216,264v0,150,72,259,149,302r0,68r-281,0r0,-91r156,0","w":785},"\u212e":{"d":"859,-351r-667,0v-4,0,-6,1,-6,5r0,202v0,9,3,16,9,23v65,67,154,110,252,110v107,0,201,-49,266,-123r59,0v-73,86,-193,143,-326,143v-227,0,-411,-165,-411,-369v0,-206,184,-372,411,-372v232,0,417,166,413,381xm707,-377r0,-203v0,-9,-3,-18,-9,-24v-65,-64,-153,-106,-251,-106v-97,0,-186,43,-251,109v-7,7,-10,15,-10,25r0,199v0,2,2,7,6,7r511,0v3,0,4,-5,4,-7","w":895},"\u2202":{"d":"110,-666r-35,-81v34,-25,96,-60,193,-60v155,0,291,134,291,391v0,241,-107,422,-298,422v-150,0,-220,-133,-220,-242v0,-160,105,-264,233,-264v97,0,153,67,172,94v13,-168,-70,-310,-191,-309v-69,0,-117,28,-145,49xm155,-234v0,82,47,147,118,147v91,0,148,-114,161,-223v-12,-38,-62,-100,-138,-100v-80,0,-141,80,-141,176"},"\u2206":{"d":"30,0r0,-68r260,-664r137,0r254,663r0,69r-651,0xm149,-91r407,0r-136,-340v-17,-53,-52,-140,-65,-185r-4,0v-53,169,-137,360,-202,525","w":712},"\u220f":{"d":"746,-614r-116,0r0,713r-112,0r0,-713r-264,0r0,713r-113,0r0,-713r-115,0r0,-100r720,0r0,100","w":773},"\u2211":{"d":"583,99r-559,0r0,-71r274,-335r-263,-330r0,-77r531,0r0,96r-374,0r0,3r236,292r-258,315r0,4r413,0r0,103","w":605},"\u2212":{"d":"560,-206r-520,0r0,-108r520,0r0,108","w":600},"\u2215":{"d":"-167,10r413,-742r88,0r-412,742r-89,0","w":167},"\u2219":{"d":"228,-260v0,43,-35,76,-78,76v-42,0,-74,-34,-74,-76v0,-41,33,-76,74,-76v42,0,78,34,78,76","w":305},"\u221a":{"d":"639,-853r-243,1002r-94,0r-168,-459r-79,31r-21,-63r169,-68r125,355v7,28,15,57,20,80r2,0v3,-21,9,-53,16,-84r192,-794r81,0","w":631},"\u221e":{"d":"612,-466v92,0,160,68,160,171v0,110,-81,177,-167,177v-63,0,-120,-34,-192,-123v-55,66,-112,123,-198,123v-86,0,-163,-72,-163,-173v0,-102,74,-175,172,-175v79,0,138,53,193,121v49,-55,103,-122,195,-121xm118,-290v0,59,44,108,107,108v63,0,111,-60,153,-106v-45,-58,-87,-116,-159,-116v-62,0,-101,51,-101,114xm706,-291v0,-68,-42,-113,-102,-113v-67,0,-119,72,-154,110v67,79,104,112,158,112v62,0,98,-58,98,-109","w":824},"\u222b":{"d":"384,-866r-13,76v-30,-16,-72,-13,-94,15v-24,31,-32,87,-32,176v0,164,15,323,15,500v0,101,-18,166,-41,205v-27,47,-77,66,-125,66v-31,0,-64,-9,-79,-17r16,-79v25,14,76,19,97,-10v19,-26,33,-68,33,-165v0,-179,-16,-341,-16,-511v0,-116,19,-180,62,-226v41,-44,123,-55,177,-30","w":403},"\u2248":{"d":"198,-461v92,1,137,77,214,78v42,0,70,-28,100,-76r42,39v-33,60,-81,104,-143,104v-45,0,-74,-14,-124,-43v-31,-18,-60,-36,-96,-36v-49,0,-77,38,-105,77r-42,-39v32,-60,89,-104,154,-104xm197,-270v97,1,131,78,214,78v44,0,70,-28,101,-76r42,39v-33,59,-80,103,-144,103v-44,0,-74,-15,-123,-43v-32,-19,-61,-35,-96,-35v-49,0,-77,37,-105,77r-42,-39v32,-61,90,-104,153,-104","w":600},"\u2260":{"d":"435,-529r-45,98r157,0r0,67r-184,0r-67,147r251,0r0,67r-278,0r-56,124r-54,-23r46,-101r-152,0r0,-67r180,0r66,-147r-246,0r0,-67r273,0r55,-121","w":600},"\u2264":{"d":"544,-100r-486,-235r0,-72r486,-234r0,78r-416,191r0,2r416,192r0,78xm547,9r-494,0r0,-68r494,0r0,68","w":600},"\u2265":{"d":"59,-641r486,235r0,71r-485,235r0,-78r415,-192r0,-2r-416,-191r0,-78xm546,9r-492,0r0,-68r492,0r0,68","w":600},"\u25ca":{"d":"576,-357r-217,408r-91,0r-213,-408r217,-408r90,0xm474,-354r-137,-265v-8,-17,-17,-40,-20,-55r-3,0v-5,16,-11,37,-21,55r-137,260r139,268v8,19,15,40,18,53r4,0v4,-13,13,-40,19,-52","w":631}}});
