/*!
 * The following copyright notice may not be removed under any circumstances.
 * 
 * Copyright:
 * Copyright © 1989, 1990, 2002 Adobe Systems Incorporated.  All Rights Reserved.
 * © 1981, 2002 Heidelberger Druckmaschinen AG. All rights reserved.
 * 
 * Trademark:
 * Trade Gothic is a trademark of Heidelberger Druckmaschinen AG, exclusively
 * licensed through Linotype Library GmbH, and may be registered in certain
 * jurisdictions.
 * 
 * Full name:
 * Trade Gothic LT Std
 * 
 * Designer:
 * Jackson Burke
 * 
 * Vendor URL:
 * http://www.adobe.com/type
 * 
 * License information:
 * http://www.adobe.com/type/legal.html
 */
Cufon.registerFont({"w":500,"face":{"font-family":"Trade Gothic LT Std","font-weight":400,"font-stretch":"normal","units-per-em":"1000","panose-1":"0 0 5 0 0 0 0 0 0 0","ascent":"722","descent":"-278","x-height":"10","bbox":"-167 -960 1000 224","underline-thickness":"50","underline-position":"-50","stemh":"50","stemv":"72","unicode-range":"U+0020-U+FB02"},"glyphs":{" ":{"w":305},"!":{"d":"113,-722r106,0r-21,494r-64,0xm117,-110r98,0r0,110r-98,0r0,-110","w":333},"\"":{"d":"76,-452r0,-270r62,0r0,270r-62,0xm195,-452r0,-270r62,0r0,270r-62,0","w":333},"#":{"d":"250,-438r-20,152r135,0r21,-152r-136,0xm222,-230r-31,230r-62,0r31,-230r-99,0r0,-56r107,0r20,-152r-99,0r0,-56r107,0r31,-228r62,0r-31,228r136,0r30,-228r62,0r-30,228r94,0r0,56r-102,0r-21,152r95,0r0,56r-103,0r-31,230r-62,0r31,-230r-135,0","w":611},"$":{"d":"275,-417r0,-243v-80,-2,-130,44,-130,110v0,88,66,120,130,133xm343,-322r0,260v72,-4,140,-50,140,-122v0,-88,-72,-116,-140,-138xm275,-722r0,-77r68,0r0,77v82,6,150,64,185,118r-52,42v-29,-48,-79,-88,-133,-98r0,261v140,45,212,95,212,209v0,112,-98,190,-212,190r0,124r-68,0r0,-124v-96,-2,-170,-72,-220,-131r58,-44v32,47,94,109,162,113r0,-279v-72,-17,-202,-65,-202,-197v0,-124,100,-184,202,-184","w":611},"%":{"d":"662,-62v59,0,105,-42,105,-104v0,-62,-46,-104,-105,-104v-59,0,-105,42,-105,104v0,62,46,104,105,104xm662,0v-93,0,-167,-72,-167,-166v0,-94,74,-166,167,-166v93,0,167,72,167,166v0,94,-74,166,-167,166xm227,-390v-93,0,-167,-72,-167,-166v0,-94,74,-166,167,-166v93,0,167,72,167,166v0,94,-74,166,-167,166xm227,-452v59,0,105,-42,105,-104v0,-62,-46,-104,-105,-104v-59,0,-105,42,-105,104v0,62,46,104,105,104xm207,10r415,-742r59,0r-415,742r-59,0","w":889},"&":{"d":"224,-585v0,47,26,99,42,129v50,-32,108,-86,108,-141v0,-45,-36,-73,-72,-73v-53,0,-78,44,-78,85xm530,-364r66,16v-14,74,-46,164,-81,215v31,33,93,61,119,61r0,72r-26,0v-36,0,-100,-32,-142,-72v-48,52,-112,82,-206,82v-112,0,-216,-81,-216,-207v0,-98,81,-170,157,-218v-29,-43,-57,-115,-57,-173v0,-82,62,-144,162,-144v82,0,148,48,148,134v0,84,-86,150,-152,198v48,86,112,162,163,218v23,-30,52,-105,65,-182xm124,-192v0,91,76,134,146,134v64,0,111,-26,146,-60v-66,-76,-130,-158,-182,-242v-58,38,-110,80,-110,168","w":667},"'":{"d":"80,-452r0,-270r62,0r0,270r-62,0","w":222},"(":{"d":"203,-732r78,0v-95,128,-143,250,-143,411v0,152,55,282,142,405r-74,0v-91,-120,-140,-259,-140,-410v0,-147,48,-288,137,-406","w":333},")":{"d":"130,84r-78,0v95,-128,143,-250,143,-411v0,-152,-55,-282,-142,-405r74,0v91,120,140,259,140,410v0,147,-48,288,-137,406","w":333},"*":{"d":"222,-544r-148,-23r18,-65r137,65r6,-4r-22,-151r67,0r-18,149r7,6r132,-69r25,67r-149,31r-3,8r106,106r-54,42r-73,-134r-8,0r-73,132r-52,-39r104,-114"},"+":{"d":"269,-291r0,-229r62,0r0,229r229,0r0,62r-229,0r0,229r-62,0r0,-229r-229,0r0,-62r229,0","w":600},",":{"d":"201,-110r0,110r-63,148r-42,0r47,-148r-40,0r0,-110r98,0","w":305},"-":{"d":"292,-229r-252,0r0,-62r252,0r0,62","w":333},".":{"d":"103,-110r98,0r0,110r-98,0r0,-110","w":305},"\/":{"d":"225,-732r61,0r-234,742r-60,0","w":278},"0":{"d":"50,-361v0,-261,98,-371,255,-371v157,0,255,110,255,371v0,261,-98,371,-255,371v-157,0,-255,-110,-255,-371xm126,-361v0,219,62,309,179,309v117,0,179,-90,179,-309v0,-219,-62,-309,-179,-309v-117,0,-179,90,-179,309","w":611},"1":{"d":"475,0r-320,0r0,-62r125,0r0,-587r-139,14r0,-47v50,-15,107,-30,139,-50r72,0r0,670r123,0r0,62","w":611},"2":{"d":"535,-62r0,62r-469,0r0,-76v125,-253,394,-268,394,-462v0,-84,-54,-132,-146,-132v-104,0,-158,84,-170,157r-71,-16v23,-100,82,-203,243,-203v118,0,220,68,220,192v0,220,-316,280,-394,478r393,0","w":611},"3":{"d":"34,-132r58,-40v55,74,123,120,198,120v106,0,170,-54,170,-140v0,-101,-60,-162,-204,-162r-71,0r0,-62r43,0v144,0,206,-46,206,-135v0,-73,-63,-119,-132,-119v-88,0,-126,38,-174,100r-59,-40v49,-68,117,-122,233,-122v128,0,208,66,208,180v0,87,-56,138,-112,160v114,44,138,126,138,192v0,123,-95,210,-246,210v-138,0,-222,-86,-256,-142","w":611},"4":{"d":"566,-170r-124,0r0,170r-72,0r0,-170r-332,0r0,-62r298,-490r106,0r0,490r124,0r0,62xm367,-646r-253,414r256,0r0,-414r-3,0","w":611},"5":{"d":"501,-722r0,62r-310,0r-18,231v47,-43,97,-59,148,-59v120,0,231,82,231,244v0,110,-66,254,-250,254v-123,0,-185,-68,-230,-138r65,-34v35,65,91,110,167,110v95,0,172,-56,172,-192v0,-106,-62,-182,-162,-182v-70,0,-123,42,-152,109r-63,-14r32,-391r370,0","w":611},"6":{"d":"512,-690r-31,61v-33,-26,-67,-41,-123,-41v-114,0,-220,94,-222,302v44,-46,98,-86,198,-86v108,0,217,76,217,232v0,154,-113,232,-233,232v-150,0,-258,-88,-258,-334v0,-228,102,-408,296,-408v78,0,135,22,156,42xm475,-220v0,-112,-75,-172,-151,-172v-88,0,-186,72,-186,154v0,102,70,186,174,186v102,0,163,-70,163,-168","w":611},"7":{"d":"440,-660r-366,0r0,-62r458,0r0,44r-305,678r-84,0","w":611},"8":{"d":"568,-188v0,110,-86,198,-263,198v-177,0,-263,-88,-263,-198v0,-92,72,-156,158,-196r0,-2v-80,-30,-128,-91,-128,-166v0,-118,100,-180,233,-180v133,0,233,62,233,180v0,75,-48,136,-128,166r0,2v86,31,158,98,158,196xm118,-188v0,64,56,136,187,136v131,0,187,-72,187,-136v0,-84,-86,-126,-200,-164v-88,38,-174,80,-174,164xm462,-556v0,-80,-78,-114,-157,-114v-79,0,-157,34,-157,114v0,78,98,122,157,139v80,-20,157,-69,157,-139","w":611},"9":{"d":"99,-32r31,-61v33,26,67,41,123,41v114,0,213,-102,222,-302v-44,46,-98,86,-198,86v-108,0,-217,-76,-217,-232v0,-154,113,-232,233,-232v150,0,258,88,258,334v0,228,-102,408,-296,408v-78,0,-135,-22,-156,-42xm136,-502v0,112,75,172,151,172v88,0,156,-58,184,-134v-2,-126,-68,-206,-172,-206v-102,0,-163,70,-163,168","w":611},":":{"d":"201,0r-98,0r0,-110r98,0r0,110xm201,-290r-98,0r0,-110r98,0r0,110","w":305},";":{"d":"201,-110r0,110r-63,148r-42,0r47,-148r-40,0r0,-110r98,0xm201,-290r-98,0r0,-110r98,0r0,110","w":305},"<":{"d":"554,-62r0,62r-508,-232r0,-56r508,-232r0,62r-436,198","w":600},"=":{"d":"560,-393r0,62r-520,0r0,-62r520,0xm560,-189r0,62r-520,0r0,-62r520,0","w":600},">":{"d":"46,-62r436,-198r-436,-198r0,-62r508,231r0,58r-508,231r0,-62","w":600},"?":{"d":"220,-228r-68,0r0,-55v0,-151,150,-183,150,-301v0,-40,-24,-86,-84,-86v-46,0,-76,22,-105,77r-60,-29v33,-72,91,-110,163,-110v84,0,162,54,162,152v0,130,-158,186,-158,296r0,56xm135,-110r98,0r0,110r-98,0r0,-110","w":444},"@":{"d":"270,-308v0,58,22,98,68,98v92,0,162,-118,162,-199v0,-65,-37,-92,-72,-92v-96,0,-158,113,-158,193xm456,-202v-30,30,-73,63,-121,62v-85,0,-145,-72,-145,-158v0,-133,91,-273,222,-273v54,0,95,22,120,77r20,-60r67,0r-80,275v-5,19,-10,36,-10,49v0,15,6,25,22,25v75,0,141,-111,141,-209v0,-162,-127,-254,-277,-254v-175,0,-299,137,-299,310v0,176,133,304,299,304v100,0,191,-38,247,-108r76,0v-64,114,-191,172,-323,172v-206,0,-371,-163,-371,-368v0,-211,168,-374,371,-374v185,0,341,126,341,307v0,195,-140,285,-230,285v-40,0,-68,-28,-70,-62","w":800},"A":{"d":"300,-666r-104,372r219,0r-104,-372r-11,0xm108,0r-84,0r222,-722r119,0r222,722r-84,0r-68,-226r-259,0","w":611},"B":{"d":"108,0r0,-722r266,0v126,0,202,80,202,178v0,79,-35,136,-122,166r1,2v81,20,139,92,139,182v0,108,-66,194,-262,194r-224,0xm188,-344r0,276r150,0v118,0,176,-40,176,-130v0,-92,-74,-146,-188,-146r-138,0xm188,-654r0,242r140,0v121,0,168,-62,168,-123v0,-81,-44,-119,-136,-119r-172,0","w":667},"C":{"d":"500,-230r72,14v-32,134,-106,226,-254,226v-162,0,-276,-118,-276,-371v0,-235,102,-371,276,-371v134,0,212,78,244,210r-74,22v-26,-102,-72,-164,-180,-164v-104,0,-186,96,-186,303v0,209,82,303,202,303v111,0,154,-84,176,-172","w":611},"D":{"d":"180,-654r0,586r108,0v166,0,252,-99,252,-293v0,-211,-100,-293,-248,-293r-112,0xm100,0r0,-722r194,0v196,0,326,124,326,361v0,212,-114,361,-330,361r-190,0","w":667},"E":{"d":"108,-722r433,0r0,68r-353,0r0,242r251,0r0,68r-251,0r0,276r373,0r0,68r-453,0r0,-722","w":611},"F":{"d":"100,-722r428,0r0,68r-348,0r0,242r258,0r0,68r-258,0r0,344r-80,0r0,-722","w":556},"G":{"d":"344,-347r243,0r0,347r-66,0r0,-66r-2,0v-37,51,-109,76,-189,76v-164,0,-282,-118,-282,-371v0,-253,118,-371,282,-371v122,0,216,58,260,212r-76,15v-36,-115,-96,-159,-180,-159v-106,0,-206,72,-206,303v0,231,100,303,206,303v118,0,173,-72,173,-160r0,-61r-163,0r0,-68","w":667},"H":{"d":"534,-722r80,0r0,722r-80,0r0,-344r-346,0r0,344r-80,0r0,-722r80,0r0,310r346,0r0,-310","w":722},"I":{"d":"126,-722r80,0r0,722r-80,0r0,-722","w":333},"J":{"d":"264,-722r80,0r0,536v0,136,-58,196,-166,196v-84,0,-132,-44,-170,-93r60,-39v45,79,196,108,196,-43r0,-557","w":444},"K":{"d":"196,-242r0,242r-80,0r0,-722r80,0r0,375r2,0r299,-375r95,0r-224,272r251,450r-91,0r-215,-384","w":667},"L":{"d":"530,0r-422,0r0,-722r80,0r0,654r342,0r0,68","w":556},"M":{"d":"725,0r-72,0r0,-660r-3,0r-202,660r-62,0r-203,-660r-3,0r0,660r-72,0r0,-722r124,0r184,584r2,0r181,-584r126,0r0,722","w":833},"N":{"d":"180,0r-72,0r0,-722r115,0r315,556r4,0r0,-556r72,0r0,722r-66,0r-366,-644r-2,0r0,644","w":722},"O":{"d":"131,-361v0,205,75,303,202,303v127,0,202,-98,202,-303v0,-205,-75,-303,-202,-303v-127,0,-202,98,-202,303xm51,-361v0,-241,105,-371,282,-371v177,0,282,130,282,371v0,241,-105,371,-282,371v-177,0,-282,-130,-282,-371","w":667},"P":{"d":"180,-654r0,264r136,0v133,0,177,-46,177,-132v0,-86,-51,-132,-159,-132r-154,0xm180,0r-80,0r0,-722r252,0v154,0,221,88,221,202v0,120,-83,198,-265,198r-128,0r0,322","w":611},"Q":{"d":"650,-20r0,78v-90,0,-121,-32,-160,-95v-42,31,-95,47,-157,47v-177,0,-282,-130,-282,-371v0,-241,105,-371,282,-371v177,0,282,130,282,371v0,120,-26,213,-74,275v25,47,59,66,109,66xm362,-157r0,-77v65,9,103,28,135,74v25,-48,38,-115,38,-201v0,-205,-75,-303,-202,-303v-127,0,-202,98,-202,303v0,205,75,303,202,303v46,0,85,-13,117,-40v-24,-36,-46,-53,-88,-59","w":667},"R":{"d":"180,-654r0,258r145,0v110,0,168,-41,168,-132v0,-97,-66,-126,-169,-126r-144,0xm180,0r-80,0r0,-722r232,0v156,0,241,70,241,190v0,102,-59,160,-144,188r153,344r-87,0r-146,-328r-169,0r0,328","w":667},"S":{"d":"520,-554r-72,16v-18,-70,-75,-126,-168,-126v-84,0,-134,40,-135,112v-2,158,406,118,406,350v0,105,-59,212,-243,212v-158,0,-220,-102,-258,-188r73,-26v29,76,83,146,189,146v106,0,159,-56,159,-130v0,-184,-406,-130,-406,-358v0,-104,87,-186,217,-186v112,0,200,59,238,178","w":611},"T":{"d":"534,-654r-216,0r0,654r-80,0r0,-654r-216,0r0,-68r512,0r0,68","w":556},"U":{"d":"108,-722r80,0r0,510v0,84,60,154,173,154v113,0,173,-70,173,-154r0,-510r80,0r0,504v0,144,-104,228,-253,228v-149,0,-253,-84,-253,-228r0,-504","w":722},"V":{"d":"241,0r-223,-722r80,0r178,592r2,0r179,-592r81,0r-224,722r-73,0","w":556},"W":{"d":"202,0r-174,-722r76,0r134,576r2,0r140,-576r71,0r144,576r2,0r132,-576r76,0r-171,722r-71,0r-148,-584r-2,0r-140,584r-71,0","w":833},"X":{"d":"276,-298r-170,298r-92,0r216,-377r-202,-345r92,0r155,265r152,-265r92,0r-197,345r220,377r-92,0","w":556},"Y":{"d":"238,0r0,-304r-222,-418r88,0r174,331r174,-331r88,0r-222,418r0,304r-80,0","w":556},"Z":{"d":"511,-68r0,68r-466,0r0,-58r362,-596r-329,0r0,-68r429,0r0,52r-368,602r372,0","w":556},"[":{"d":"76,74r0,-796r204,0r0,42r-132,0r0,712r132,0r0,42r-204,0","w":333},"\\":{"d":"-8,-732r61,0r233,742r-60,0","w":278},"]":{"d":"257,-722r0,796r-204,0r0,-42r132,0r0,-712r-132,0r0,-42r204,0","w":333},"^":{"d":"111,-279r-64,0r224,-443r58,0r224,443r-63,0r-191,-375","w":600},"_":{"d":"500,125r-500,0r0,-50r500,0r0,50"},"`":{"d":"6,-722r109,0r89,142r-67,0","w":278},"a":{"d":"120,-387r-63,-33v33,-60,97,-110,195,-110v88,0,180,42,180,156r0,262v0,57,5,85,12,112r-74,0r-8,-72v-36,40,-94,82,-172,82v-80,0,-148,-48,-148,-143v0,-114,87,-171,318,-212r0,-28v0,-69,-45,-95,-107,-95v-80,0,-119,46,-133,81xm360,-138r0,-143v-165,29,-246,77,-246,149v0,48,46,80,86,80v52,0,118,-38,160,-86"},"b":{"d":"160,-470v42,-31,90,-60,141,-60v88,0,209,68,209,270v0,208,-121,270,-213,270v-62,0,-108,-26,-150,-65r-13,55r-50,0v6,-38,4,-76,4,-114r0,-608r72,0r0,252xm160,-396r0,274v51,50,85,70,131,70v90,0,147,-72,147,-204v0,-157,-63,-212,-147,-212v-43,0,-92,29,-131,72","w":556},"c":{"d":"443,-389r-67,24v-20,-63,-61,-103,-123,-103v-89,0,-141,76,-141,208v0,132,52,208,141,208v66,0,103,-22,143,-96r58,26v-52,88,-98,132,-201,132v-130,0,-213,-102,-213,-270v0,-168,83,-270,213,-270v107,0,157,60,190,141"},"d":{"d":"255,-530v51,0,99,29,141,60r0,-252r72,0r0,608v0,38,-2,76,4,114r-66,0r-10,-51v-24,33,-75,61,-137,61v-92,0,-213,-62,-213,-270v0,-202,121,-270,209,-270xm396,-122r0,-274v-39,-43,-88,-72,-131,-72v-84,0,-147,55,-147,212v0,132,57,204,147,204v46,0,80,-20,131,-70","w":556},"e":{"d":"410,-140r56,29v-34,59,-82,121,-200,121v-116,0,-226,-80,-226,-270v0,-168,84,-270,212,-270v108,0,198,70,198,236r0,48r-338,0v0,114,68,194,154,194v64,0,114,-34,144,-88xm114,-308r264,0v0,-96,-46,-160,-124,-160v-87,0,-134,64,-140,160"},"f":{"d":"187,0r-72,0r0,-458r-88,0r0,-62r88,0r0,-59v-3,-153,73,-162,191,-148r0,64v-17,-2,-36,-7,-52,-7v-49,0,-67,16,-67,74r0,76r113,0r0,62r-113,0r0,458","w":333},"g":{"d":"480,-540r0,72v-30,0,-62,5,-80,14v15,18,36,58,36,106v0,103,-85,182,-190,182v-42,0,-64,-6,-92,-14v-28,8,-41,25,-41,48v0,24,17,38,43,38v246,0,325,44,325,146v0,76,-75,140,-237,140v-146,0,-224,-40,-224,-126v0,-52,32,-77,88,-106v-40,-12,-65,-43,-65,-74v0,-45,30,-64,70,-89v-49,-37,-71,-88,-71,-145v0,-110,86,-182,197,-182v56,0,95,12,129,36v31,-22,73,-42,112,-46xm413,55v0,-51,-53,-77,-180,-77v-113,0,-145,50,-145,87v0,39,24,65,168,65v86,0,157,-24,157,-75xm368,-344v0,-76,-44,-124,-132,-124v-82,0,-126,52,-126,120v0,69,54,120,134,120v82,0,124,-54,124,-116"},"h":{"d":"89,-722r72,0r0,272r2,0v41,-46,95,-80,154,-80v77,0,150,40,150,152r0,378r-72,0r0,-376v0,-69,-33,-92,-85,-92v-54,0,-116,44,-149,79r0,389r-72,0r0,-722","w":556},"i":{"d":"103,0r0,-520r72,0r0,520r-72,0xm103,-732r72,0r0,86r-72,0r0,-86","w":278},"j":{"d":"117,-520r72,0r0,603v0,63,-41,109,-107,109v-24,0,-46,-4,-60,-12r0,-59v11,5,23,9,38,9v41,0,57,-13,57,-52r0,-598xm189,-732r0,86r-72,0r0,-86r72,0","w":278},"k":{"d":"84,0r0,-722r72,0r0,465r2,0r210,-263r87,0r-153,192r173,328r-85,0r-138,-266r-96,110r0,156r-72,0"},"l":{"d":"103,-722r72,0r0,722r-72,0r0,-722","w":278},"m":{"d":"154,-451v43,-48,104,-79,155,-79v67,0,114,34,133,82v46,-49,104,-82,165,-82v69,0,143,29,143,158r0,372r-72,0r0,-372v0,-70,-35,-96,-81,-96v-64,0,-106,42,-145,80r0,388r-72,0r0,-372v0,-70,-35,-96,-81,-96v-64,0,-106,42,-145,80r0,388r-72,0r0,-520r72,0r0,69","w":833},"n":{"d":"89,-520r72,0r0,70r2,0v41,-46,95,-80,154,-80v77,0,150,40,150,152r0,378r-72,0r0,-376v0,-69,-33,-92,-85,-92v-54,0,-116,44,-149,79r0,389r-72,0r0,-520","w":556},"o":{"d":"391,-260v0,-134,-55,-208,-141,-208v-86,0,-141,74,-141,208v0,134,55,208,141,208v86,0,141,-74,141,-208xm463,-260v0,150,-71,270,-213,270v-142,0,-213,-120,-213,-270v0,-150,71,-270,213,-270v142,0,213,120,213,270"},"p":{"d":"301,10v-51,0,-99,-29,-141,-60r0,242r-72,0r0,-712r72,0r0,61r2,0v27,-39,85,-71,135,-71v92,0,213,62,213,270v0,202,-121,270,-209,270xm160,-398r0,274v39,43,88,72,131,72v84,0,147,-55,147,-212v0,-132,-57,-204,-147,-204v-46,0,-80,20,-131,70","w":556},"q":{"d":"396,-50v-42,31,-90,60,-141,60v-88,0,-209,-68,-209,-270v0,-208,121,-270,213,-270v62,0,108,26,138,65r13,-55r58,0r0,712r-72,0r0,-242xm396,-124r0,-274v-51,-50,-85,-70,-131,-70v-90,0,-147,72,-147,204v0,157,63,212,147,212v43,0,92,-29,131,-72","w":556},"r":{"d":"70,0r0,-520r72,0r0,103r2,0v40,-71,83,-111,169,-111r0,72v-90,2,-137,61,-171,168r0,288r-72,0","w":333},"s":{"d":"24,-89r57,-43v34,49,84,80,149,80v78,0,112,-42,112,-86v0,-132,-308,-62,-302,-252v3,-90,72,-141,172,-140v68,1,143,38,178,91r-50,44v-40,-49,-78,-73,-134,-73v-61,0,-94,31,-94,77v0,113,302,55,302,249v0,101,-88,152,-182,152v-81,0,-160,-35,-208,-99","w":444},"t":{"d":"18,-520r85,0r0,-171r72,0r0,171r120,0r0,62r-120,0r0,370v0,24,17,36,59,36v24,0,45,-2,64,-5r0,59v-13,4,-42,8,-84,8v-78,0,-111,-20,-111,-86r0,-382r-85,0r0,-62","w":333},"u":{"d":"467,0r-72,0r0,-70r-2,0v-41,46,-95,80,-154,80v-77,0,-150,-40,-150,-152r0,-378r72,0r0,376v0,69,33,92,85,92v54,0,116,-44,149,-79r0,-389r72,0r0,520","w":556},"v":{"d":"428,-520r-156,520r-96,0r-160,-520r73,0r132,430r2,0r132,-430r73,0","w":444},"w":{"d":"157,0r-141,-520r73,0r105,400r2,0r102,-400r73,0r104,402r2,0r101,-402r73,0r-139,520r-73,0r-104,-402r-2,0r-103,402r-73,0","w":667},"x":{"d":"105,-520r114,185r109,-185r81,0r-146,247r169,273r-83,0r-130,-213r-126,213r-81,0r164,-273r-152,-247r81,0","w":444},"y":{"d":"352,-520r76,0r-183,566v-38,116,-107,146,-175,146v-24,0,-38,-4,-52,-6r0,-59v10,1,23,3,39,3v44,0,111,-10,136,-124r-181,-526r76,0r140,397r2,0","w":444},"z":{"d":"414,-62r0,62r-384,0r0,-52r284,-406r-256,0r0,-62r354,0r0,52r-284,406r286,0","w":444},"{":{"d":"48,-303r0,-42v41,0,62,-28,62,-78r0,-199v0,-68,30,-110,93,-110r62,0r0,42v-50,-2,-84,-2,-83,56r0,230v0,50,-29,72,-74,79r0,2v45,7,74,29,74,79r0,230v0,57,32,59,83,56r0,42r-62,0v-63,0,-93,-42,-93,-110r0,-199v0,-50,-21,-78,-62,-78","w":333},"|":{"d":"80,10r0,-742r62,0r0,742r-62,0","w":222},"}":{"d":"285,-345r0,42v-41,0,-62,28,-62,78r0,199v0,68,-30,110,-93,110r-62,0r0,-42v50,2,84,2,83,-56r0,-230v0,-50,29,-72,74,-79r0,-2v-45,-7,-74,-29,-74,-79r0,-230v0,-57,-32,-59,-83,-56r0,-42r62,0v63,0,93,42,93,110r0,199v0,50,21,78,62,78","w":333},"~":{"d":"194,-326v67,0,156,68,213,68v40,0,65,-37,88,-71r39,44v-33,45,-66,89,-128,89v-83,0,-129,-69,-217,-68v-44,0,-68,36,-84,73r-39,-45v25,-46,61,-90,128,-90","w":600},"\u00a0":{"w":305},"\u00a1":{"d":"220,202r-106,0r21,-494r64,0xm216,-410r-98,0r0,-110r98,0r0,110","w":333},"\u00a2":{"d":"212,-92r134,-368v-12,-5,-27,-8,-43,-8v-89,0,-141,76,-141,208v0,76,17,134,50,168xm391,-429r-133,369v14,6,29,8,45,8v66,0,103,-22,143,-96r58,26v-52,88,-98,132,-201,132v-24,0,-47,-3,-67,-11r-41,112r-57,0r49,-136v-62,-44,-97,-125,-97,-235v0,-193,109,-302,278,-261r32,-89r57,0r-41,113v35,25,59,63,77,108r-67,24v-8,-26,-20,-48,-35,-64","w":611},"\u00a3":{"d":"350,-390r0,62r-144,0v12,72,9,135,-22,203v68,33,122,73,174,73v94,0,137,-47,154,-128r64,12v-20,120,-90,178,-200,178v-100,0,-162,-42,-229,-78v-27,38,-63,70,-120,78r0,-78v56,-10,113,-75,113,-169v0,-35,-2,-64,-7,-91r-107,0r0,-62r98,0v-6,-38,-12,-74,-12,-118v0,-135,79,-224,220,-224v124,0,198,68,226,186r-68,12v-18,-56,-53,-136,-154,-136v-116,0,-148,76,-148,146v0,55,6,99,10,134r152,0","w":611},"\u00a4":{"d":"305,-171v104,0,186,-72,186,-190v0,-116,-82,-190,-186,-190v-104,0,-186,74,-186,190v0,118,82,190,186,190xm512,-612r42,42r-55,55v71,82,71,226,0,308r55,55r-42,42r-56,-56v-77,69,-225,70,-302,0r-56,56r-42,-42r55,-55v-71,-82,-71,-226,0,-308r-55,-55r42,-42r56,56v77,-69,225,-70,302,0","w":611},"\u00a5":{"d":"339,-234r0,234r-68,0r0,-234r-177,0r0,-62r177,0r0,-8r-42,-80r-135,0r0,-62r102,0r-147,-276r72,0r184,347r184,-347r72,0r-147,276r102,0r0,62r-134,0r-43,80r0,8r177,0r0,62r-177,0","w":611},"\u00a6":{"d":"80,10r0,-280r62,0r0,280r-62,0xm80,-452r0,-280r62,0r0,280r-62,0","w":222},"\u00a7":{"d":"97,-4r51,-32v23,35,54,66,102,66v40,0,69,-26,69,-64v0,-89,-261,-264,-261,-364v0,-62,40,-102,120,-106v-34,-44,-58,-62,-58,-116v0,-59,52,-112,128,-112v60,0,98,24,146,83r-48,27v-14,-16,-42,-56,-94,-56v-40,0,-64,28,-64,58v0,30,10,42,120,152v109,109,134,142,134,200v0,67,-50,100,-109,108v33,38,54,71,54,124v0,59,-45,120,-137,120v-68,0,-124,-36,-153,-88xm186,-456v-33,0,-60,25,-60,55v0,34,27,60,82,118v56,59,78,75,108,75v31,0,58,-22,58,-56v0,-27,-19,-59,-84,-124v-62,-62,-77,-68,-104,-68"},"\u00a8":{"d":"262,-590r-88,0r0,-94r88,0r0,94xm104,-590r-88,0r0,-94r88,0r0,94","w":278},"\u00a9":{"d":"529,-292r68,0v-20,97,-93,158,-184,158v-133,0,-218,-100,-218,-229v0,-130,81,-226,215,-226v94,0,171,54,186,153r-67,0v-11,-57,-56,-93,-118,-93v-94,0,-144,70,-144,165v0,92,55,170,146,170v63,0,108,-39,116,-98xm24,-362v0,-213,173,-370,377,-370v202,0,375,157,375,370v0,215,-173,372,-375,372v-204,0,-377,-157,-377,-372xm704,-362v0,-177,-133,-310,-303,-310v-172,0,-305,133,-305,310v0,181,133,312,305,312v170,0,303,-131,303,-312","w":800},"\u00aa":{"d":"66,-642r-41,-24v22,-36,63,-66,127,-66v57,0,118,25,118,94v0,71,-7,169,8,224r-53,0r-6,-35v-23,16,-57,41,-107,41v-53,0,-98,-29,-98,-86v0,-68,58,-106,202,-131v4,-43,-20,-60,-64,-61v-52,0,-77,23,-86,44xm216,-497r0,-82v-95,18,-148,43,-148,86v0,21,18,39,48,39v36,0,77,-22,100,-43","w":300},"\u00ab":{"d":"210,-418r70,0r-129,158r129,158r-68,0r-132,-158xm350,-418r70,0r-129,158r129,158r-68,0r-132,-158"},"\u00ac":{"d":"498,-127r0,-204r-458,0r0,-62r520,0r0,266r-62,0","w":600},"\u00ad":{"d":"292,-229r-252,0r0,-62r252,0r0,62","w":333},"\u00ae":{"d":"322,-333r0,186r-66,0r0,-428r164,0v102,0,152,38,152,122v0,77,-48,110,-112,118r122,188r-72,0r-114,-186r-74,0xm322,-521r0,134r78,0v80,0,106,-23,106,-70v0,-41,-20,-64,-95,-64r-89,0xm24,-362v0,-213,173,-370,377,-370v202,0,375,157,375,370v0,215,-173,372,-375,372v-204,0,-377,-157,-377,-372xm704,-362v0,-177,-133,-310,-303,-310v-172,0,-305,133,-305,310v0,181,133,312,305,312v170,0,303,-131,303,-312","w":800},"\u00af":{"d":"295,-612r-312,0r0,-60r312,0r0,60","w":278},"\u00b0":{"d":"56,-588v0,-80,64,-144,144,-144v80,0,144,64,144,144v0,80,-64,144,-144,144v-80,0,-144,-64,-144,-144xm104,-588v0,57,43,100,96,100v53,0,96,-43,96,-100v0,-57,-43,-100,-96,-100v-53,0,-96,43,-96,100","w":400},"\u00b1":{"d":"269,-341r0,-179r62,0r0,179r229,0r0,62r-229,0r0,179r-62,0r0,-179r-229,0r0,-62r229,0xm40,0r0,-62r520,0r0,62r-520,0","w":600},"\u00b2":{"d":"338,-292r-310,0r0,-54v80,-148,254,-160,254,-264v0,-42,-31,-72,-89,-72v-70,0,-105,45,-118,88r-46,-16v19,-64,71,-122,167,-122v84,0,140,44,140,116v0,140,-194,165,-254,274r256,0r0,50","w":366},"\u00b3":{"d":"111,-499r0,-50r41,0v76,0,116,-21,116,-75v0,-30,-33,-58,-82,-58v-57,0,-80,16,-109,51r-42,-28v32,-41,76,-73,151,-73v84,0,136,39,136,108v0,52,-29,83,-65,95r0,2v59,19,81,74,81,116v0,74,-61,125,-159,125v-90,0,-145,-51,-167,-84r40,-32v36,48,78,66,127,66v67,0,105,-29,105,-74v0,-59,-34,-89,-128,-89r-45,0","w":366},"\u00b4":{"d":"163,-722r109,0r-131,142r-67,0","w":278},"\u00b5":{"d":"467,0r-72,0r0,-70r-2,0v-57,65,-140,103,-232,64r0,198r-72,0r0,-712r72,0r0,376v0,69,33,92,85,92v54,0,116,-44,149,-79r0,-389r72,0r0,520","w":556},"\u00b6":{"d":"219,84r0,-415v-121,0,-209,-87,-209,-192v0,-131,85,-199,225,-199r277,0r0,50r-71,0r0,756r-60,0r0,-756r-102,0r0,756r-60,0"},"\u00b7":{"d":"90,-259v0,-35,26,-63,62,-63v34,0,62,28,62,63v0,34,-28,61,-62,61v-36,0,-62,-27,-62,-61","w":305},"\u00b8":{"d":"127,0r48,0r-47,58r2,2v9,-3,20,-5,30,-5v58,0,85,41,84,84v-1,55,-46,85,-121,85v-41,0,-70,-10,-94,-21r17,-44v36,27,124,30,122,-24v0,-21,-16,-38,-41,-38v-14,0,-31,2,-46,8r-17,-19","w":278},"\u00b9":{"d":"165,-732r54,0r0,390r79,0r0,50r-213,0r0,-50r76,0r0,-340r-85,13r0,-33v32,-9,69,-18,89,-30","w":366},"\u00ba":{"d":"70,-572v0,75,27,116,80,116v53,0,80,-43,80,-114v0,-71,-27,-114,-80,-114v-50,0,-80,43,-80,112xm12,-570v0,-101,54,-162,138,-162v85,0,138,61,138,162v0,101,-53,162,-138,162v-84,0,-138,-61,-138,-162","w":300},"\u00bb":{"d":"220,-418r70,0r130,158r-132,158r-68,0r129,-158xm80,-418r70,0r130,158r-132,158r-68,0r129,-158"},"\u00bc":{"d":"868,-102r-81,0r0,102r-54,0r0,-102r-208,0r0,-45r185,-287r77,0r0,282r81,0r0,50xm731,-376r-145,224r147,0r0,-224r-2,0xm177,-732r54,0r0,390r79,0r0,50r-213,0r0,-50r76,0r0,-340r-85,13r0,-33v32,-9,69,-18,89,-30xm278,10r-59,0r439,-742r62,0","w":916},"\u00bd":{"d":"177,-732r54,0r0,390r79,0r0,50r-213,0r0,-50r76,0r0,-340r-85,13r0,-33v32,-9,69,-18,89,-30xm860,0r-310,0r0,-54v80,-148,254,-160,254,-264v0,-42,-31,-72,-89,-72v-70,0,-105,45,-118,88r-46,-16v19,-64,71,-122,167,-122v84,0,140,44,140,116v0,140,-194,165,-254,274r256,0r0,50xm258,10r-59,0r439,-742r62,0","w":916},"\u00be":{"d":"868,-102r-81,0r0,102r-54,0r0,-102r-208,0r0,-45r185,-287r77,0r0,282r81,0r0,50xm731,-376r-145,224r147,0r0,-224r-2,0xm147,-499r0,-50r41,0v76,0,116,-21,116,-75v0,-30,-33,-58,-82,-58v-57,0,-80,16,-109,51r-42,-28v32,-41,76,-73,151,-73v84,0,136,39,136,108v0,52,-29,83,-65,95r0,2v59,19,81,74,81,116v0,74,-61,125,-159,125v-90,0,-145,-51,-167,-84r40,-32v36,48,78,66,127,66v67,0,105,-29,105,-74v0,-59,-34,-89,-128,-89r-45,0xm294,10r-59,0r439,-742r62,0","w":916},"\u00bf":{"d":"224,-292r68,0r0,55v0,151,-150,183,-150,301v0,40,24,86,84,86v46,0,76,-22,105,-77r60,29v-33,72,-91,110,-163,110v-84,0,-162,-54,-162,-152v0,-130,158,-186,158,-296r0,-56xm309,-410r-98,0r0,-110r98,0r0,110","w":444},"\u00c0":{"d":"300,-666r-104,372r219,0r-104,-372r-11,0xm108,0r-84,0r222,-722r119,0r222,722r-84,0r-68,-226r-259,0xm173,-902r109,0r89,142r-67,0","w":611},"\u00c1":{"d":"300,-666r-104,372r219,0r-104,-372r-11,0xm108,0r-84,0r222,-722r119,0r222,722r-84,0r-68,-226r-259,0xm330,-902r109,0r-131,142r-67,0","w":611},"\u00c2":{"d":"300,-666r-104,372r219,0r-104,-372r-11,0xm108,0r-84,0r222,-722r119,0r222,722r-84,0r-68,-226r-259,0xm160,-760r98,-142r94,0r100,142r-80,0r-67,-94r-65,94r-80,0","w":611},"\u00c3":{"d":"300,-666r-104,372r219,0r-104,-372r-11,0xm108,0r-84,0r222,-722r119,0r222,722r-84,0r-68,-226r-259,0xm242,-878v51,0,93,36,138,37v25,0,43,-18,47,-44r50,0v-5,49,-43,107,-97,107v-51,0,-104,-38,-153,-38v-21,0,-41,25,-42,47r-50,0v6,-60,41,-109,107,-109","w":611},"\u00c4":{"d":"300,-666r-104,372r219,0r-104,-372r-11,0xm108,0r-84,0r222,-722r119,0r222,722r-84,0r-68,-226r-259,0xm429,-770r-88,0r0,-94r88,0r0,94xm271,-770r-88,0r0,-94r88,0r0,94","w":611},"\u00c5":{"d":"300,-666r-104,372r219,0r-104,-372r-11,0xm108,0r-84,0r222,-722r119,0r222,722r-84,0r-68,-226r-259,0xm206,-860v0,-55,45,-100,100,-100v55,0,100,45,100,100v0,55,-45,100,-100,100v-55,0,-100,-45,-100,-100xm250,-860v0,31,25,56,56,56v31,0,56,-25,56,-56v0,-31,-25,-56,-56,-56v-31,0,-56,25,-56,56","w":611},"\u00c6":{"d":"16,0r407,-722r507,0r0,68r-353,0r0,242r251,0r0,68r-251,0r0,276r373,0r0,68r-453,0r0,-226r-266,0r-124,226r-91,0xm270,-294r227,0r0,-372r-22,0","w":1000},"\u00c7":{"d":"500,-230r72,14v-30,126,-97,215,-228,225r-40,49r2,2v9,-3,20,-5,30,-5v58,0,85,41,84,84v-1,55,-46,85,-121,85v-41,0,-70,-10,-94,-21r17,-44v36,27,124,30,122,-24v0,-21,-16,-38,-41,-38v-14,0,-31,2,-46,8r-17,-19r56,-77v-150,-10,-254,-129,-254,-370v0,-235,102,-371,276,-371v134,0,212,78,244,210r-74,22v-26,-102,-72,-164,-180,-164v-104,0,-186,96,-186,303v0,209,82,303,202,303v111,0,154,-84,176,-172","w":611},"\u00c8":{"d":"108,-722r433,0r0,68r-353,0r0,242r251,0r0,68r-251,0r0,276r373,0r0,68r-453,0r0,-722xm201,-902r109,0r89,142r-67,0","w":611},"\u00c9":{"d":"108,-722r433,0r0,68r-353,0r0,242r251,0r0,68r-251,0r0,276r373,0r0,68r-453,0r0,-722xm358,-902r109,0r-131,142r-67,0","w":611},"\u00ca":{"d":"108,-722r433,0r0,68r-353,0r0,242r251,0r0,68r-251,0r0,276r373,0r0,68r-453,0r0,-722xm188,-760r98,-142r94,0r100,142r-80,0r-67,-94r-65,94r-80,0","w":611},"\u00cb":{"d":"108,-722r433,0r0,68r-353,0r0,242r251,0r0,68r-251,0r0,276r373,0r0,68r-453,0r0,-722xm457,-770r-88,0r0,-94r88,0r0,94xm299,-770r-88,0r0,-94r88,0r0,94","w":611},"\u00cc":{"d":"126,-722r80,0r0,722r-80,0r0,-722xm34,-902r109,0r89,142r-67,0","w":333},"\u00cd":{"d":"126,-722r80,0r0,722r-80,0r0,-722xm191,-902r109,0r-131,142r-67,0","w":333},"\u00ce":{"d":"126,-722r80,0r0,722r-80,0r0,-722xm21,-760r98,-142r94,0r100,142r-80,0r-67,-94r-65,94r-80,0","w":333},"\u00cf":{"d":"126,-722r80,0r0,722r-80,0r0,-722xm290,-770r-88,0r0,-94r88,0r0,94xm132,-770r-88,0r0,-94r88,0r0,94","w":333},"\u00d0":{"d":"180,-412r188,0r0,68r-188,0r0,276r108,0v166,0,252,-99,252,-293v0,-211,-100,-293,-248,-293r-112,0r0,242xm32,-412r68,0r0,-310r194,0v196,0,326,124,326,361v0,212,-114,361,-330,361r-190,0r0,-344r-68,0r0,-68","w":667},"\u00d1":{"d":"180,0r-72,0r0,-722r115,0r315,556r4,0r0,-556r72,0r0,722r-66,0r-366,-644r-2,0r0,644xm297,-878v51,0,93,36,138,37v25,0,43,-18,47,-44r50,0v-5,49,-43,107,-97,107v-51,0,-104,-38,-153,-38v-21,0,-41,25,-42,47r-50,0v6,-60,41,-109,107,-109","w":722},"\u00d2":{"d":"131,-361v0,205,75,303,202,303v127,0,202,-98,202,-303v0,-205,-75,-303,-202,-303v-127,0,-202,98,-202,303xm51,-361v0,-241,105,-371,282,-371v177,0,282,130,282,371v0,241,-105,371,-282,371v-177,0,-282,-130,-282,-371xm201,-902r109,0r89,142r-67,0","w":667},"\u00d3":{"d":"131,-361v0,205,75,303,202,303v127,0,202,-98,202,-303v0,-205,-75,-303,-202,-303v-127,0,-202,98,-202,303xm51,-361v0,-241,105,-371,282,-371v177,0,282,130,282,371v0,241,-105,371,-282,371v-177,0,-282,-130,-282,-371xm358,-902r109,0r-131,142r-67,0","w":667},"\u00d4":{"d":"131,-361v0,205,75,303,202,303v127,0,202,-98,202,-303v0,-205,-75,-303,-202,-303v-127,0,-202,98,-202,303xm51,-361v0,-241,105,-371,282,-371v177,0,282,130,282,371v0,241,-105,371,-282,371v-177,0,-282,-130,-282,-371xm188,-760r98,-142r94,0r100,142r-80,0r-67,-94r-65,94r-80,0","w":667},"\u00d5":{"d":"131,-361v0,205,75,303,202,303v127,0,202,-98,202,-303v0,-205,-75,-303,-202,-303v-127,0,-202,98,-202,303xm51,-361v0,-241,105,-371,282,-371v177,0,282,130,282,371v0,241,-105,371,-282,371v-177,0,-282,-130,-282,-371xm270,-878v51,0,93,36,138,37v25,0,43,-18,47,-44r50,0v-5,49,-43,107,-97,107v-51,0,-104,-38,-153,-38v-21,0,-41,25,-42,47r-50,0v6,-60,41,-109,107,-109","w":667},"\u00d6":{"d":"131,-361v0,205,75,303,202,303v127,0,202,-98,202,-303v0,-205,-75,-303,-202,-303v-127,0,-202,98,-202,303xm51,-361v0,-241,105,-371,282,-371v177,0,282,130,282,371v0,241,-105,371,-282,371v-177,0,-282,-130,-282,-371xm457,-770r-88,0r0,-94r88,0r0,94xm299,-770r-88,0r0,-94r88,0r0,94","w":667},"\u00d7":{"d":"300,-302r216,-218r44,44r-216,216r216,216r-44,44r-216,-216r-216,216r-44,-44r216,-216r-216,-216r44,-44","w":600},"\u00d8":{"d":"171,-158r287,-459v-32,-31,-74,-47,-125,-47v-127,0,-202,98,-202,303v0,87,14,155,40,203xm495,-566r-288,459v31,33,74,49,126,49v127,0,202,-98,202,-303v0,-88,-14,-156,-40,-205xm623,-770r-83,132v48,62,75,155,75,277v0,241,-105,371,-282,371v-66,0,-122,-19,-166,-54r-68,108r-67,0r94,-149v-49,-63,-75,-156,-75,-276v0,-241,105,-371,282,-371v65,0,120,17,164,52r56,-90r70,0","w":667},"\u00d9":{"d":"108,-722r80,0r0,510v0,84,60,154,173,154v113,0,173,-70,173,-154r0,-510r80,0r0,504v0,144,-104,228,-253,228v-149,0,-253,-84,-253,-228r0,-504xm228,-902r109,0r89,142r-67,0","w":722},"\u00da":{"d":"108,-722r80,0r0,510v0,84,60,154,173,154v113,0,173,-70,173,-154r0,-510r80,0r0,504v0,144,-104,228,-253,228v-149,0,-253,-84,-253,-228r0,-504xm385,-902r109,0r-131,142r-67,0","w":722},"\u00db":{"d":"108,-722r80,0r0,510v0,84,60,154,173,154v113,0,173,-70,173,-154r0,-510r80,0r0,504v0,144,-104,228,-253,228v-149,0,-253,-84,-253,-228r0,-504xm215,-760r98,-142r94,0r100,142r-80,0r-67,-94r-65,94r-80,0","w":722},"\u00dc":{"d":"108,-722r80,0r0,510v0,84,60,154,173,154v113,0,173,-70,173,-154r0,-510r80,0r0,504v0,144,-104,228,-253,228v-149,0,-253,-84,-253,-228r0,-504xm484,-770r-88,0r0,-94r88,0r0,94xm326,-770r-88,0r0,-94r88,0r0,94","w":722},"\u00dd":{"d":"238,0r0,-304r-222,-418r88,0r174,331r174,-331r88,0r-222,418r0,304r-80,0xm302,-902r109,0r-131,142r-67,0","w":556},"\u00de":{"d":"180,-514r0,264r136,0v133,0,177,-46,177,-132v0,-86,-51,-132,-159,-132r-154,0xm180,0r-80,0r0,-722r80,0r0,140r172,0v154,0,221,88,221,202v0,120,-83,198,-265,198r-128,0r0,182","w":611},"\u00df":{"d":"231,-17r27,-59v13,11,38,24,72,24v72,0,104,-62,104,-139v0,-131,-70,-177,-181,-177r0,-62v83,9,137,-40,137,-122v0,-74,-36,-118,-112,-118v-78,0,-112,46,-112,134r0,536r-72,0r0,-554v0,-128,92,-178,186,-178v120,0,182,74,182,174v0,68,-30,122,-89,151r0,2v93,27,133,105,133,209v0,179,-149,249,-275,179","w":556},"\u00e0":{"d":"120,-387r-63,-33v33,-60,97,-110,195,-110v88,0,180,42,180,156r0,262v0,57,5,85,12,112r-74,0r-8,-72v-36,40,-94,82,-172,82v-80,0,-148,-48,-148,-143v0,-114,87,-171,318,-212r0,-28v0,-69,-45,-95,-107,-95v-80,0,-119,46,-133,81xm360,-138r0,-143v-165,29,-246,77,-246,149v0,48,46,80,86,80v52,0,118,-38,160,-86xm112,-722r109,0r89,142r-67,0"},"\u00e1":{"d":"120,-387r-63,-33v33,-60,97,-110,195,-110v88,0,180,42,180,156r0,262v0,57,5,85,12,112r-74,0r-8,-72v-36,40,-94,82,-172,82v-80,0,-148,-48,-148,-143v0,-114,87,-171,318,-212r0,-28v0,-69,-45,-95,-107,-95v-80,0,-119,46,-133,81xm360,-138r0,-143v-165,29,-246,77,-246,149v0,48,46,80,86,80v52,0,118,-38,160,-86xm269,-722r109,0r-131,142r-67,0"},"\u00e2":{"d":"120,-387r-63,-33v33,-60,97,-110,195,-110v88,0,180,42,180,156r0,262v0,57,5,85,12,112r-74,0r-8,-72v-36,40,-94,82,-172,82v-80,0,-148,-48,-148,-143v0,-114,87,-171,318,-212r0,-28v0,-69,-45,-95,-107,-95v-80,0,-119,46,-133,81xm360,-138r0,-143v-165,29,-246,77,-246,149v0,48,46,80,86,80v52,0,118,-38,160,-86xm99,-580r98,-142r94,0r100,142r-80,0r-67,-94r-65,94r-80,0"},"\u00e3":{"d":"120,-387r-63,-33v33,-60,97,-110,195,-110v88,0,180,42,180,156r0,262v0,57,5,85,12,112r-74,0r-8,-72v-36,40,-94,82,-172,82v-80,0,-148,-48,-148,-143v0,-114,87,-171,318,-212r0,-28v0,-69,-45,-95,-107,-95v-80,0,-119,46,-133,81xm360,-138r0,-143v-165,29,-246,77,-246,149v0,48,46,80,86,80v52,0,118,-38,160,-86xm181,-698v51,0,93,36,138,37v25,0,43,-18,47,-44r50,0v-5,49,-43,107,-97,107v-51,0,-104,-38,-153,-38v-21,0,-41,25,-42,47r-50,0v6,-60,41,-109,107,-109"},"\u00e4":{"d":"120,-387r-63,-33v33,-60,97,-110,195,-110v88,0,180,42,180,156r0,262v0,57,5,85,12,112r-74,0r-8,-72v-36,40,-94,82,-172,82v-80,0,-148,-48,-148,-143v0,-114,87,-171,318,-212r0,-28v0,-69,-45,-95,-107,-95v-80,0,-119,46,-133,81xm360,-138r0,-143v-165,29,-246,77,-246,149v0,48,46,80,86,80v52,0,118,-38,160,-86xm368,-590r-88,0r0,-94r88,0r0,94xm210,-590r-88,0r0,-94r88,0r0,94"},"\u00e5":{"d":"120,-387r-63,-33v33,-60,97,-110,195,-110v88,0,180,42,180,156r0,262v0,57,5,85,12,112r-74,0r-8,-72v-36,40,-94,82,-172,82v-80,0,-148,-48,-148,-143v0,-114,87,-171,318,-212r0,-28v0,-69,-45,-95,-107,-95v-80,0,-119,46,-133,81xm360,-138r0,-143v-165,29,-246,77,-246,149v0,48,46,80,86,80v52,0,118,-38,160,-86xm145,-680v0,-55,45,-100,100,-100v55,0,100,45,100,100v0,55,-45,100,-100,100v-55,0,-100,-45,-100,-100xm189,-680v0,31,25,56,56,56v31,0,56,-25,56,-56v0,-31,-25,-56,-56,-56v-31,0,-56,25,-56,56"},"\u00e6":{"d":"336,-134r0,-147v-104,21,-230,57,-230,149v0,48,40,80,84,80v67,0,127,-48,146,-82xm728,-246r-320,0v0,120,48,194,148,194v52,0,102,-34,132,-88r56,29v-34,59,-82,121,-194,121v-64,0,-126,-14,-174,-88v-76,74,-132,88,-200,88v-68,0,-142,-48,-142,-132v0,-156,148,-196,302,-223v6,-79,-23,-123,-98,-123v-76,0,-115,46,-129,81r-61,-33v31,-60,95,-110,186,-110v65,0,118,20,150,70v29,-36,78,-70,150,-70v104,0,194,70,194,236r0,48xm408,-308r248,0v0,-96,-48,-160,-126,-160v-84,0,-120,64,-122,160","w":778},"\u00e7":{"d":"443,-389r-67,24v-20,-63,-61,-103,-123,-103v-89,0,-141,76,-141,208v0,132,52,208,141,208v66,0,103,-22,143,-96r58,26v-47,80,-90,124,-175,131r-40,49r2,2v9,-3,20,-5,30,-5v58,0,85,41,84,84v-1,55,-46,85,-121,85v-41,0,-70,-10,-94,-21r17,-44v36,27,124,30,122,-24v0,-21,-16,-38,-41,-38v-14,0,-31,2,-46,8r-17,-19r56,-77v-118,-11,-191,-111,-191,-269v0,-168,83,-270,213,-270v107,0,157,60,190,141"},"\u00e8":{"d":"410,-140r56,29v-34,59,-82,121,-200,121v-116,0,-226,-80,-226,-270v0,-168,84,-270,212,-270v108,0,198,70,198,236r0,48r-338,0v0,114,68,194,154,194v64,0,114,-34,144,-88xm114,-308r264,0v0,-96,-46,-160,-124,-160v-87,0,-134,64,-140,160xm117,-722r109,0r89,142r-67,0"},"\u00e9":{"d":"410,-140r56,29v-34,59,-82,121,-200,121v-116,0,-226,-80,-226,-270v0,-168,84,-270,212,-270v108,0,198,70,198,236r0,48r-338,0v0,114,68,194,154,194v64,0,114,-34,144,-88xm114,-308r264,0v0,-96,-46,-160,-124,-160v-87,0,-134,64,-140,160xm274,-722r109,0r-131,142r-67,0"},"\u00ea":{"d":"410,-140r56,29v-34,59,-82,121,-200,121v-116,0,-226,-80,-226,-270v0,-168,84,-270,212,-270v108,0,198,70,198,236r0,48r-338,0v0,114,68,194,154,194v64,0,114,-34,144,-88xm114,-308r264,0v0,-96,-46,-160,-124,-160v-87,0,-134,64,-140,160xm104,-580r98,-142r94,0r100,142r-80,0r-67,-94r-65,94r-80,0"},"\u00eb":{"d":"410,-140r56,29v-34,59,-82,121,-200,121v-116,0,-226,-80,-226,-270v0,-168,84,-270,212,-270v108,0,198,70,198,236r0,48r-338,0v0,114,68,194,154,194v64,0,114,-34,144,-88xm114,-308r264,0v0,-96,-46,-160,-124,-160v-87,0,-134,64,-140,160xm373,-590r-88,0r0,-94r88,0r0,94xm215,-590r-88,0r0,-94r88,0r0,94"},"\u00ec":{"d":"103,0r0,-520r72,0r0,520r-72,0xm6,-722r109,0r89,142r-67,0","w":278},"\u00ed":{"d":"103,0r0,-520r72,0r0,520r-72,0xm163,-722r109,0r-131,142r-67,0","w":278},"\u00ee":{"d":"103,0r0,-520r72,0r0,520r-72,0xm-7,-580r98,-142r94,0r100,142r-80,0r-67,-94r-65,94r-80,0","w":278},"\u00ef":{"d":"103,0r0,-520r72,0r0,520r-72,0xm262,-590r-88,0r0,-94r88,0r0,94xm104,-590r-88,0r0,-94r88,0r0,94","w":278},"\u00f0":{"d":"250,-52v95,0,141,-76,141,-194v0,-114,-46,-190,-141,-190v-95,0,-141,76,-141,190v0,118,46,194,141,194xm128,-698r63,-24v29,18,58,41,85,68r110,-60r30,50r-97,55v82,94,144,222,144,351v0,156,-71,268,-213,268v-142,0,-213,-102,-213,-256v0,-150,71,-252,213,-252v28,0,58,9,74,14v-14,-30,-37,-62,-64,-92r-106,58r-34,-48r101,-55v-37,-36,-73,-64,-93,-77"},"\u00f1":{"d":"89,-520r72,0r0,70r2,0v41,-46,95,-80,154,-80v77,0,150,40,150,152r0,378r-72,0r0,-376v0,-69,-33,-92,-85,-92v-54,0,-116,44,-149,79r0,389r-72,0r0,-520xm214,-698v51,0,93,36,138,37v25,0,43,-18,47,-44r50,0v-5,49,-43,107,-97,107v-51,0,-104,-38,-153,-38v-21,0,-41,25,-42,47r-50,0v6,-60,41,-109,107,-109","w":556},"\u00f2":{"d":"391,-260v0,-134,-55,-208,-141,-208v-86,0,-141,74,-141,208v0,134,55,208,141,208v86,0,141,-74,141,-208xm463,-260v0,150,-71,270,-213,270v-142,0,-213,-120,-213,-270v0,-150,71,-270,213,-270v142,0,213,120,213,270xm117,-722r109,0r89,142r-67,0"},"\u00f3":{"d":"391,-260v0,-134,-55,-208,-141,-208v-86,0,-141,74,-141,208v0,134,55,208,141,208v86,0,141,-74,141,-208xm463,-260v0,150,-71,270,-213,270v-142,0,-213,-120,-213,-270v0,-150,71,-270,213,-270v142,0,213,120,213,270xm274,-722r109,0r-131,142r-67,0"},"\u00f4":{"d":"391,-260v0,-134,-55,-208,-141,-208v-86,0,-141,74,-141,208v0,134,55,208,141,208v86,0,141,-74,141,-208xm463,-260v0,150,-71,270,-213,270v-142,0,-213,-120,-213,-270v0,-150,71,-270,213,-270v142,0,213,120,213,270xm104,-580r98,-142r94,0r100,142r-80,0r-67,-94r-65,94r-80,0"},"\u00f5":{"d":"391,-260v0,-134,-55,-208,-141,-208v-86,0,-141,74,-141,208v0,134,55,208,141,208v86,0,141,-74,141,-208xm463,-260v0,150,-71,270,-213,270v-142,0,-213,-120,-213,-270v0,-150,71,-270,213,-270v142,0,213,120,213,270xm186,-698v51,0,93,36,138,37v25,0,43,-18,47,-44r50,0v-5,49,-43,107,-97,107v-51,0,-104,-38,-153,-38v-21,0,-41,25,-42,47r-50,0v6,-60,41,-109,107,-109"},"\u00f6":{"d":"391,-260v0,-134,-55,-208,-141,-208v-86,0,-141,74,-141,208v0,134,55,208,141,208v86,0,141,-74,141,-208xm463,-260v0,150,-71,270,-213,270v-142,0,-213,-120,-213,-270v0,-150,71,-270,213,-270v142,0,213,120,213,270xm373,-590r-88,0r0,-94r88,0r0,94xm215,-590r-88,0r0,-94r88,0r0,94"},"\u00f7":{"d":"560,-229r-520,0r0,-62r520,0r0,62xm238,-468v0,-34,28,-62,62,-62v34,0,62,28,62,62v0,34,-28,62,-62,62v-34,0,-62,-28,-62,-62xm238,-52v0,-34,28,-62,62,-62v34,0,62,28,62,62v0,34,-28,62,-62,62v-34,0,-62,-28,-62,-62","w":600},"\u00f8":{"d":"363,-396r-189,319v21,17,47,25,76,25v86,0,141,-74,141,-208v0,-57,-10,-103,-28,-136xm419,-602r65,0r-82,140v40,49,61,121,61,202v0,150,-71,270,-213,270v-44,0,-81,-11,-109,-31r-61,103r-64,0r83,-141v-42,-50,-62,-121,-62,-201v0,-150,71,-270,213,-270v42,0,79,11,108,31xm137,-124r188,-319v-21,-17,-46,-25,-75,-25v-86,0,-141,74,-141,208v0,57,10,103,28,136"},"\u00f9":{"d":"467,0r-72,0r0,-70r-2,0v-41,46,-95,80,-154,80v-77,0,-150,-40,-150,-152r0,-378r72,0r0,376v0,69,33,92,85,92v54,0,116,-44,149,-79r0,-389r72,0r0,520xm145,-722r109,0r89,142r-67,0","w":556},"\u00fa":{"d":"467,0r-72,0r0,-70r-2,0v-41,46,-95,80,-154,80v-77,0,-150,-40,-150,-152r0,-378r72,0r0,376v0,69,33,92,85,92v54,0,116,-44,149,-79r0,-389r72,0r0,520xm302,-722r109,0r-131,142r-67,0","w":556},"\u00fb":{"d":"467,0r-72,0r0,-70r-2,0v-41,46,-95,80,-154,80v-77,0,-150,-40,-150,-152r0,-378r72,0r0,376v0,69,33,92,85,92v54,0,116,-44,149,-79r0,-389r72,0r0,520xm132,-580r98,-142r94,0r100,142r-80,0r-67,-94r-65,94r-80,0","w":556},"\u00fc":{"d":"467,0r-72,0r0,-70r-2,0v-41,46,-95,80,-154,80v-77,0,-150,-40,-150,-152r0,-378r72,0r0,376v0,69,33,92,85,92v54,0,116,-44,149,-79r0,-389r72,0r0,520xm401,-590r-88,0r0,-94r88,0r0,94xm243,-590r-88,0r0,-94r88,0r0,94","w":556},"\u00fd":{"d":"352,-520r76,0r-183,566v-38,116,-107,146,-175,146v-24,0,-38,-4,-52,-6r0,-59v10,1,23,3,39,3v44,0,111,-10,136,-124r-181,-526r76,0r140,397r2,0xm246,-722r109,0r-131,142r-67,0","w":444},"\u00fe":{"d":"301,10v-51,0,-99,-29,-141,-60r0,242r-72,0r0,-914r72,0r0,263r2,0v27,-39,85,-71,135,-71v92,0,213,62,213,270v0,202,-121,270,-209,270xm160,-398r0,274v39,43,88,72,131,72v84,0,147,-55,147,-212v0,-132,-57,-204,-147,-204v-46,0,-80,20,-131,70","w":556},"\u00ff":{"d":"352,-520r76,0r-183,566v-38,116,-107,146,-175,146v-24,0,-38,-4,-52,-6r0,-59v10,1,23,3,39,3v44,0,111,-10,136,-124r-181,-526r76,0r140,397r2,0xm345,-590r-88,0r0,-94r88,0r0,94xm187,-590r-88,0r0,-94r88,0r0,94","w":444},"\u0131":{"d":"103,0r0,-520r72,0r0,520r-72,0","w":278},"\u0141":{"d":"188,-337r0,269r342,0r0,68r-422,0r0,-305r-92,37r0,-68r92,-37r0,-349r80,0r0,317r192,-78r0,68","w":556},"\u0142":{"d":"175,-392r0,392r-72,0r0,-355r-89,46r0,-68r89,-46r0,-299r72,0r0,262r89,-45r0,68","w":278},"\u0152":{"d":"346,-732v59,-1,111,9,166,10r431,0r0,68r-353,0r0,242r251,0r0,68r-251,0r0,276r373,0r0,68r-451,0v-54,0,-107,10,-166,10v-221,0,-310,-162,-310,-371v0,-209,89,-371,310,-371xm510,-188r0,-346v0,-98,-58,-130,-166,-130v-154,0,-228,106,-228,303v0,197,74,303,228,303v108,0,166,-32,166,-130","w":1000},"\u0153":{"d":"95,-260v0,132,46,208,129,208v88,0,132,-76,132,-208v0,-132,-40,-208,-132,-208v-83,0,-129,76,-129,208xm748,-246r-320,0v0,114,36,194,136,194v62,0,112,-34,134,-88r56,29v-26,59,-80,121,-190,121v-82,0,-139,-27,-172,-95v-40,68,-98,95,-168,95v-118,0,-201,-102,-201,-270v0,-168,83,-270,201,-270v70,0,127,27,168,93v34,-72,98,-93,166,-93v100,0,190,70,190,236r0,48xm430,-308r246,0v0,-96,-46,-160,-124,-160v-87,0,-120,64,-122,160","w":778},"\u0160":{"d":"520,-554r-72,16v-18,-70,-75,-126,-168,-126v-84,0,-134,40,-135,112v-2,158,406,118,406,350v0,105,-59,212,-243,212v-158,0,-220,-102,-258,-188r73,-26v29,76,83,146,189,146v106,0,159,-56,159,-130v0,-184,-406,-130,-406,-358v0,-104,87,-186,217,-186v112,0,200,59,238,178xm160,-902r80,0r65,94r67,-94r80,0r-100,142r-94,0","w":611},"\u0161":{"d":"24,-89r57,-43v34,49,84,80,149,80v78,0,112,-42,112,-86v0,-132,-308,-62,-302,-252v3,-90,72,-141,172,-140v68,1,143,38,178,91r-50,44v-40,-49,-78,-73,-134,-73v-61,0,-94,31,-94,77v0,113,302,55,302,249v0,101,-88,152,-182,152v-81,0,-160,-35,-208,-99xm76,-722r80,0r65,94r67,-94r80,0r-100,142r-94,0","w":444},"\u0178":{"d":"238,0r0,-304r-222,-418r88,0r174,331r174,-331r88,0r-222,418r0,304r-80,0xm401,-770r-88,0r0,-94r88,0r0,94xm243,-770r-88,0r0,-94r88,0r0,94","w":556},"\u017d":{"d":"511,-68r0,68r-466,0r0,-58r362,-596r-329,0r0,-68r429,0r0,52r-368,602r372,0xm132,-902r80,0r65,94r67,-94r80,0r-100,142r-94,0","w":556},"\u017e":{"d":"414,-62r0,62r-384,0r0,-52r284,-406r-256,0r0,-62r354,0r0,52r-284,406r286,0xm76,-722r80,0r65,94r67,-94r80,0r-100,142r-94,0","w":444},"\u0192":{"d":"53,186r11,-66v8,4,24,10,48,10v63,0,82,-28,95,-100r78,-430r-114,0r0,-60r126,0r11,-58v31,-156,78,-214,186,-214v21,0,43,3,55,8r-17,65v-11,-6,-25,-11,-45,-11v-52,0,-77,34,-102,154r-11,54r116,0r0,62r-127,0r-82,421v-21,108,-64,171,-179,171v-21,0,-33,-3,-49,-6","w":611},"\u02c6":{"d":"-7,-580r98,-142r94,0r100,142r-80,0r-67,-94r-65,94r-80,0","w":278},"\u02c7":{"d":"-7,-722r80,0r65,94r67,-94r80,0r-100,142r-94,0","w":278},"\u02c9":{"d":"295,-612r-312,0r0,-60r312,0r0,60","w":278},"\u02d8":{"d":"244,-720r49,0v-12,91,-68,136,-154,136v-86,0,-142,-45,-154,-136r49,0v11,52,47,78,105,78v58,0,94,-26,105,-78","w":278},"\u02d9":{"d":"183,-590r-88,0r0,-94r88,0r0,94","w":278},"\u02da":{"d":"39,-680v0,-55,45,-100,100,-100v55,0,100,45,100,100v0,55,-45,100,-100,100v-55,0,-100,-45,-100,-100xm83,-680v0,31,25,56,56,56v31,0,56,-25,56,-56v0,-31,-25,-56,-56,-56v-31,0,-56,25,-56,56","w":278},"\u02db":{"d":"263,123r16,30v-21,17,-81,57,-151,57v-64,0,-97,-34,-97,-88v0,-66,73,-116,224,-141r0,10v-52,18,-148,55,-148,122v0,31,19,51,58,51v29,0,73,-25,98,-41","w":278},"\u02dc":{"d":"75,-698v51,0,93,36,138,37v25,0,43,-18,47,-44r50,0v-5,49,-43,107,-97,107v-51,0,-104,-38,-153,-38v-21,0,-41,25,-42,47r-50,0v6,-60,41,-109,107,-109","w":278},"\u02dd":{"d":"89,-722r107,0r-123,142r-63,0xm239,-722r109,0r-131,142r-67,0","w":278},"\u03a9":{"d":"225,-54r0,-3v-81,-64,-153,-175,-153,-323v0,-204,145,-346,330,-346v194,0,323,162,323,342v0,154,-78,270,-155,327r0,3r170,0r0,54r-259,0r0,-40v89,-52,176,-166,176,-333v0,-137,-88,-298,-256,-298v-159,0,-261,136,-261,300v0,157,88,280,175,331r0,40r-258,0r0,-54r168,0","w":798},"\u03bc":{"d":"467,0r-72,0r0,-70r-2,0v-57,65,-140,103,-232,64r0,198r-72,0r0,-712r72,0r0,376v0,69,33,92,85,92v54,0,116,-44,149,-79r0,-389r72,0r0,520","w":556},"\u03c0":{"d":"587,-474r-92,0r0,320v0,90,8,127,17,154r-66,0v-10,-16,-18,-57,-18,-146r0,-328r-212,0v-6,137,-42,381,-82,474r-67,0v42,-107,76,-331,82,-474v-73,0,-104,6,-127,14r-12,-44v28,-15,71,-26,152,-26r432,0","w":616},"\u2013":{"d":"0,-235r0,-50r500,0r0,50r-500,0"},"\u2014":{"d":"0,-235r0,-50r1000,0r0,50r-1000,0","w":1000},"\u2018":{"d":"87,-480r0,-110r63,-142r42,0r-47,142r40,0r0,110r-98,0","w":278},"\u2019":{"d":"191,-722r0,110r-63,142r-42,0r47,-142r-40,0r0,-110r98,0","w":278},"\u201a":{"d":"191,-110r0,110r-63,142r-42,0r47,-142r-40,0r0,-110r98,0","w":278},"\u201c":{"d":"103,-480r0,-110r63,-142r42,0r-47,142r40,0r0,110r-98,0xm307,-480r0,-110r63,-142r42,0r-47,142r40,0r0,110r-98,0"},"\u201d":{"d":"397,-722r0,110r-63,142r-42,0r47,-142r-40,0r0,-110r98,0xm193,-722r0,110r-63,142r-42,0r47,-142r-40,0r0,-110r98,0"},"\u201e":{"d":"397,-110r0,110r-63,142r-42,0r47,-142r-40,0r0,-110r98,0xm193,-110r0,110r-63,142r-42,0r47,-142r-40,0r0,-110r98,0"},"\u2020":{"d":"210,-732r80,0r-24,208r160,-22r0,78r-160,-26r24,174r-24,404r-32,0r-24,-404r24,-174r-160,26r0,-78r160,22"},"\u2021":{"d":"266,-494r24,170r-24,170r160,-26r0,78r-160,-22r24,208r-80,0r24,-208r-160,22r0,-78r160,26r-24,-170r24,-170r-160,26r0,-78r160,22r-24,-208r80,0r-24,208r160,-22r0,78"},"\u2022":{"d":"69,-361v0,-100,80,-180,180,-180v100,0,181,80,181,180v0,100,-81,181,-181,181v-100,0,-180,-81,-180,-181"},"\u2026":{"d":"118,-110r98,0r0,110r-98,0r0,-110xm451,-110r98,0r0,110r-98,0r0,-110xm784,-110r98,0r0,110r-98,0r0,-110","w":1000},"\u2030":{"d":"689,-148v0,-82,69,-148,148,-148v79,0,148,66,148,148v0,82,-69,148,-148,148v-79,0,-148,-66,-148,-148xm747,-148v0,48,40,90,90,90v41,0,90,-36,90,-90v0,-54,-49,-90,-90,-90v-41,0,-90,36,-90,90xm327,-148v0,-82,69,-148,148,-148v79,0,148,66,148,148v0,82,-69,148,-148,148v-79,0,-148,-66,-148,-148xm385,-148v0,48,40,90,90,90v41,0,90,-36,90,-90v0,-54,-49,-90,-90,-90v-41,0,-90,36,-90,90xm15,-574v0,-82,69,-148,148,-148v79,0,148,66,148,148v0,82,-69,148,-148,148v-79,0,-148,-66,-148,-148xm73,-574v0,48,40,90,90,90v41,0,90,-36,90,-90v0,-54,-49,-90,-90,-90v-41,0,-90,36,-90,90xm548,-732r-401,742r-59,0r399,-742r61,0","w":1000},"\u2039":{"d":"184,-418r70,0r-129,158r129,158r-68,0r-132,-158","w":333},"\u203a":{"d":"79,-418r70,0r130,158r-132,158r-68,0r129,-158","w":333},"\u2044":{"d":"-108,10r-59,0r439,-742r62,0","w":167},"\u20ac":{"d":"566,-628r-28,82v-19,-36,-75,-124,-181,-124v-129,0,-173,122,-175,218r324,0r-21,62r-301,0r0,88r271,0r-21,62r-250,0v3,107,78,188,176,188v99,0,146,-54,178,-96r0,83v-41,46,-97,75,-177,75v-149,0,-241,-111,-252,-250r-83,0r21,-62r62,0r0,-88r-83,0r21,-62r62,0v0,-150,92,-280,248,-280v54,0,142,9,209,104","w":611},"\u2113":{"d":"460,-154r35,28v-47,87,-116,131,-200,131v-125,0,-175,-94,-176,-205v-20,15,-42,34,-64,51r-22,-40v30,-25,60,-47,85,-71r0,-286v0,-189,85,-245,161,-245v90,0,132,76,132,165v0,132,-92,256,-229,383r0,29v1,118,62,166,126,166v71,0,126,-57,152,-106xm182,-555r0,246v100,-103,179,-206,179,-314v0,-68,-22,-118,-83,-118v-42,0,-96,46,-96,186","w":521},"\u2122":{"d":"376,-722r0,54r-128,0r0,358r-68,0r0,-358r-126,0r0,-54r322,0xm504,-654r0,344r-68,0r0,-412r105,0r124,312r120,-312r105,0r0,412r-68,0r0,-344r-2,0r-135,344r-44,0r-135,-344r-2,0","w":990},"\u2126":{"d":"225,-54r0,-3v-81,-64,-153,-175,-153,-323v0,-204,145,-346,330,-346v194,0,323,162,323,342v0,154,-78,270,-155,327r0,3r170,0r0,54r-259,0r0,-40v89,-52,176,-166,176,-333v0,-137,-88,-298,-256,-298v-159,0,-261,136,-261,300v0,157,88,280,175,331r0,40r-258,0r0,-54r168,0","w":798},"\u212e":{"d":"859,-351r-667,0v-4,0,-6,1,-6,5r0,202v0,9,3,16,9,23v65,67,154,110,252,110v107,0,201,-49,266,-123r59,0v-73,86,-193,143,-326,143v-227,0,-411,-165,-411,-369v0,-206,184,-372,411,-372v232,0,417,166,413,381xm707,-377r0,-203v0,-9,-3,-18,-9,-24v-65,-64,-153,-106,-251,-106v-97,0,-186,43,-251,109v-7,7,-10,15,-10,25r0,199v0,2,2,7,6,7r511,0v3,0,4,-5,4,-7","w":895},"\u2202":{"d":"110,-698r-25,-47v35,-27,91,-57,178,-57v138,0,270,128,270,387v0,226,-93,421,-280,421v-141,0,-206,-124,-206,-237v0,-157,108,-258,229,-258v107,0,171,79,190,109v1,-13,1,-35,1,-49v0,-196,-99,-319,-210,-319v-69,0,-117,27,-147,50xm114,-232v0,105,57,185,146,184v109,0,180,-126,196,-264v-17,-48,-79,-123,-170,-123v-93,0,-172,90,-172,203","w":588},"\u2206":{"d":"34,0r0,-49r282,-686r78,0r279,686r0,49r-639,0xm103,-54r497,0r-169,-414v-20,-54,-62,-147,-76,-194r-5,0v-10,36,-46,123,-68,176","w":708},"\u220f":{"d":"730,-655r-124,0r0,754r-65,0r0,-754r-324,0r0,754r-66,0r0,-754r-123,0r0,-59r702,0r0,59","w":758},"\u2211":{"d":"578,99r-554,0r0,-44r300,-361r-286,-362r0,-46r524,0r0,57r-428,0r0,4r269,339r-289,347r0,3r464,0r0,63","w":603},"\u2212":{"d":"560,-229r-520,0r0,-62r520,0r0,62","w":600},"\u2215":{"d":"-108,10r-59,0r439,-742r62,0","w":167},"\u2219":{"d":"90,-259v0,-35,26,-63,62,-63v34,0,62,28,62,63v0,34,-28,61,-62,61v-36,0,-62,-27,-62,-61","w":305},"\u221a":{"d":"614,-847r-242,1002r-62,0r-177,-480r-81,30r-15,-41r138,-54r147,401r19,69v3,-19,9,-46,14,-69r207,-858r52,0","w":614},"\u221e":{"d":"622,-458v93,0,153,66,153,162v0,101,-77,166,-161,166v-69,0,-121,-47,-197,-129v-57,64,-116,129,-204,129v-85,0,-158,-72,-158,-163v0,-95,71,-165,166,-165v80,0,142,64,200,130v58,-64,113,-130,201,-130xm103,-291v0,64,46,117,118,117v70,0,126,-71,171,-117v-49,-58,-100,-125,-179,-125v-70,0,-110,59,-110,125xm728,-293v0,-78,-48,-123,-112,-123v-74,0,-133,82,-172,120v73,78,116,122,175,122v69,0,109,-61,109,-119","w":831},"\u222b":{"d":"358,-855r-13,46v-29,-18,-71,-17,-96,11v-28,32,-38,88,-38,186v0,158,14,356,14,519v0,113,-24,173,-47,206v-23,33,-60,49,-99,49v-27,0,-56,-10,-68,-18r13,-48v9,5,28,14,50,14v18,0,38,-8,51,-23v22,-28,40,-73,40,-181v0,-164,-15,-366,-15,-525v0,-110,15,-172,56,-214v39,-40,106,-48,152,-22","w":372},"\u2248":{"d":"200,-444v97,0,140,81,228,82v45,0,74,-26,106,-80r28,26v-29,54,-70,98,-137,98v-73,0,-153,-81,-233,-82v-51,0,-82,38,-110,80r-30,-25v33,-62,86,-99,148,-99xm199,-266v100,0,138,82,229,82v46,0,74,-26,106,-79r28,26v-29,53,-70,97,-137,97v-73,0,-153,-81,-233,-82v-52,0,-82,39,-110,80r-30,-25v33,-62,86,-99,147,-99","w":617},"\u2260":{"d":"433,-525r-51,109r178,0r0,45r-197,0r-75,160r272,0r0,45r-292,0r-60,129r-37,-17r53,-112r-168,0r0,-45r188,0r75,-160r-263,0r0,-45r282,0r59,-126","w":617},"\u2264":{"d":"557,-92r-495,-240r0,-47r495,-239r0,54r-444,207r0,2r444,209r0,54xm559,-2r-503,0r0,-46r503,0r0,46","w":617},"\u2265":{"d":"63,-618r494,239r0,48r-494,239r0,-54r443,-208r0,-2r-443,-208r0,-54xm559,-2r-502,0r0,-46r502,0r0,46","w":617},"\u25ca":{"d":"554,-357r-221,406r-54,0r-219,-406r220,-406r54,0xm492,-355r-164,-302v-8,-16,-17,-37,-21,-51r-2,0v-5,16,-12,33,-22,51r-162,299r165,303v10,21,17,38,20,50r3,0v4,-13,12,-35,19,-49","w":615}}});
